{"encoder_layers":[{"feed_forward":{"w1":{"v":1,"dim":[128,256],"data":[-0.091133952865357,-0.02511988500423794,0.09334521617759435,-0.03364712817840547,-0.08113622060061665,0.05385240164001245,0.060993891311023514,-0.015497930859258975,-0.04040702652757711,-0.07095920640006723,-0.010989256316747858,0.04930385283235797,0.001052773599689651,-0.007419778610909379,-0.09933967849604333,-0.02452007185059867,0.052603910676514085,-0.07006629773298904,-0.08641529096304651,0.0746510463370373,-0.020621801101932936,0.040191494263997034,0.015915033361908026,-0.09864136464343197,0.08585107369723584,-0.07563337702000178,0.0728854286945934,0.007518492430473661,-0.06136929795361964,-0.05879868520225646,0.012967921359115741,0.056703769802102275,-0.012114930604897477,-0.04900570374407144,-0.0604325373799683,0.06237148012020778,-0.0018871632757207438,0.05290357383667306,-0.02377707096399357,-0.0035020213810275347,-0.07117618033300378,-0.09212108818455178,-0.08434149386552144,0.08004922075662367,-0.06390097846287078,-0.08965952552778768,0.04930093162362388,0.08202376598364003,0.08755872830802672,0.00026124630290893976,-0.013922150748927423,0.03296287128407154,-0.08570266603049574,0.09039056473220655,0.0018628285137213627,-0.09225822805872533,0.012237407039750221,0.032556273973939266,0.0811270855813202,-0.07024659570829848,0.07064956350551597,0.03813533995981948,0.032989238684923664,0.08745785921887238,-0.020919219185379048,-0.09206630026176886,-0.021424530041437212,0.0792673822121698,0.03885882440456695,0.01439379329248261,-0.060687644140659816,0.014500294974515257,0.042242418005732224,-0.0486033865182804,-0.07405052618809696,-0.036888286864526124,0.09876873871211514,-0.08814820379424591,-0.049379904578714356,-0.02703152005442755,0.05003394584877713,0.06120993257563129,-0.0036119771825946084,0.006487638972248841,-0.03398826626860765,-0.012337237559729083,-0.008925712434045385,-0.08563097103405651,-0.08584848371496984,-0.024569737080367776,0.09092708740743985,0.0907192116379385,0.05016792819239879,0.07505731791230344,0.03922933608553175,0.08127899106880113,-0.08118367446461111,-0.07026202744416886,0.09501168298146889,0.037234097631901386,-0.011326939051166024,0.0979498929685311,-0.0292212600342968,-0.03808483405673231,0.030771073506707547,0.005631930047331174,0.03774954447496351,-0.019070318632696856,-0.08836511568506791,0.08613188148733558,-0.020524839725706734,-0.09504401556189097,0.09574424818723246,0.046888015950063616,0.04546338716610068,0.08142943237055275,0.09296022484136687,0.02010051423733858,0.0730348778878685,-0.044531868933642874,0.08929676583656243,0.020426535549001687,0.09852236492119101,-0.07959925482728916,0.09800347598578094,0.09818828104439589,0.04286602462134925,-0.08293646051990505,-0.09756407130596388,0.09776122530871639,-0.09120918076319438,0.07590079303719027,0.022714177419233386,0.014897383289573532,0.002152465516192595,0.012551700626175194,0.007427859020852384,0.024513547688162343,-0.05458248000063768,0.0734301107634667,-0.06345647824397016,0.09642596840911391,0.06360219817135268,-0.05871510351646725,-0.0310927254872186,-0.012071856258066754,-0.06128841341104083,-0.08611480834153183,0.008057039761750984,-0.08925777838724835,-0.029381948712443734,0.0849685356239514,0.01385003582293129,-0.02485453120154424,0.07999090065413839,-0.06002412715269778,-0.03820286650517795,-0.040914194562150376,0.0038096157571510803,-0.08086531424563455,-0.09685370376080207,-0.008252409768635754,0.006937344002226009,-0.01942757747276809,-0.09955533519719473,0.012617663536428389,-0.05548107613054176,0.09859691128652268,-0.024293542655061187,-0.028166051759380167,0.07541095240628973,-0.03480352897076987,0.04743264096633598,-0.005058681892065306,0.00920514742304146,-0.08686646390709424,0.04631281704162382,-0.016245772074614487,0.03608959963979119,-0.05068821455889077,0.03175394249469718,-0.010944154744729984,-0.08875284319165698,0.08707256757997703,-0.04738896606347587,0.0986832310042845,0.02129498720886777,-0.036672952266923714,0.03708933192099648,-0.02834913188585589,0.04352220167040105,-0.07310964568605366,0.021150015754500193,-0.09367499927622447,-0.09028157643507778,0.03331275713759929,-0.023353845296729153,-0.04972614523591257,0.08610622914239627,0.07859640539272511,0.00032766607437548223,0.08681329183853867,-0.08315740232148681,-0.0051414289251466155,0.060530501124613334,-0.00346941772080131,0.06777112241336317,0.07350392216220189,0.05144480879290986,0.05213538565303738,0.06718055619207672,-0.020242823990884645,0.05810985066289817,0.08883153759985257,0.06768515772104503,-0.01333352298502248,-0.06733944993233076,0.04150903250177501,0.037255467738137676,0.08512629939914632,-0.0883701204455345,0.07635595697631858,0.09722022416849924,-0.06807610949717575,-0.07786570200082053,0.06605686433944877,0.06822212687305104,0.06693886284365949,-0.08615268279672682,-0.0015915134913049717,0.00457361505628269,0.08476971730840963,0.01617154192439614,0.02051378685107541,0.021494901339247224,-0.05848100090872013,0.04747687400933692,-0.05742770336304859,-0.04427491597466848,0.02430321808562516,0.08646111160318273,0.09111096005346173,-0.09503848881301913,-0.06108646045272566,0.0007014148370431822,-0.05651088153747557,0.057250147037373494,-0.08940156074197354,0.001706072591149882,0.08017766835079196,0.0036079114247550975,0.04965614837705265,0.048120792551605396,-0.06863278675544823,0.03570200011319788,0.0624169025840057,0.054264568224181214,-0.02440130716946691,-0.08653862562584998,0.05562927355643424,0.02580865758939971,-0.032401183462615404,-0.03853757006047531,0.04736825579993592,-0.03469986284918117,-0.07665091650676872,0.08807700118008013,0.05199695670489332,-0.05034495473973615,-0.06923377678546144,-0.022174536319247415,-0.00901511303334987,0.0594721938715288,0.025199827400692237,-0.09374309147947324,0.07213360657204046,-0.03960596169759856,0.09490234650506665,0.07818612781253145,0.03202944093945895,0.07516487627416343,-0.05685694928990426,0.03694879241643112,-0.00008458498777494383,0.018613578109989024,0.06804635639940707,0.032897908618021665,-0.06327316945910519,-0.038459480813944374,-0.049920229356956995,0.04101334776837079,-0.0049479897173828336,-0.09222450640155806,0.038548577384877436,-0.04129652734992054,0.06840811163564808,-0.06700107704162153,0.006919785421171776,0.009876528779818775,0.07963436450127312,0.019723909913626242,-0.0017379910387811393,0.005162321049021923,-0.09886937716165459,0.0024797061332557657,-0.003961458620430763,-0.08496627110101743,-0.016525939507674933,-0.0809840900985785,0.07218124485165234,0.030131035732030298,-0.021748364154976538,-0.06749345258502193,0.09303924118940854,0.0236965136635785,-0.014688146237190128,-0.003969824067320271,-0.037419083251406124,0.02690319215191228,-0.013385070303703991,0.0783548879616896,-0.06777813724540382,-0.027354065991280277,-0.037916844210176714,-0.06447891232911968,-0.07814152500108001,0.05750848979451892,0.07557782078007488,-0.07941290905447307,0.0635366875677533,0.06054821488294401,-0.02583912112276665,-0.00033616879213527184,-0.018795996712616697,0.009261182839592985,-0.06415939611457216,0.026581705672968192,-0.011576426382882282,-0.03516411885279146,-0.069878761677982,-0.009564788014140874,-0.09948590928075918,-0.06683975933585859,0.04629482901663512,-0.06253794911411577,0.09642723280551233,-0.09620314493504806,0.028715897074908486,0.012101143372319129,0.01670601128178499,-0.06279815813506424,-0.03355752887545567,-0.06653194801252411,-0.09452767517235375,0.0739939467138298,0.06691350049627309,-0.08272660540303677,-0.04008537975752198,-0.08570087626048545,0.008524656068835276,0.09930498863870518,-0.0018082749644334761,0.06243126513807115,0.07883088796484228,0.039478944365585106,-0.005475190630765209,0.04982254100158362,-0.008686788813463103,-0.038152215090590594,0.09890228859316105,-0.08294498044167953,0.04822114122803031,0.03579447909810876,0.09506729628125873,0.018226995255247708,0.007242210988692974,-0.009415848271001254,-0.003684480667195761,0.03098299428202278,-0.08075105060884047,0.032947380094519974,-0.03811932243893384,-0.011292290893429507,0.04814080757611183,0.039822232881761815,-0.08428832201383374,0.05705223337857515,-0.021810241660279672,-0.0275887080967014,0.03827412915614353,-0.061032024242188815,-0.07922481171121426,-0.08988160030218398,-0.01216092756152723,-0.04587853767409764,-0.0727744627677784,-0.06096987495377513,0.08166046289521978,0.0014067647881012696,0.03389537869961984,0.026916229780414636,0.059417779894890804,-0.07681043018649128,-0.06455851604674523,-0.01050966781327678,-0.06330935016867373,0.0943458898082192,0.03440471334539891,-0.09049114465839772,-0.07287177127086203,0.04358653564969109,-0.05511245232529421,-0.039951453986207454,-0.059640969268101966,-0.0654629814387417,-0.05377942735033617,-0.0888953030547361,0.03814642128692544,0.013122593355790094,0.035083275045198314,0.09090296612804913,-0.030343881740584208,0.0847227454237367,0.014993923647823995,-0.058997065638872574,-0.07970605066901859,-0.0228147620263162,-0.023405020742575375,-0.05411340311336659,-0.0861832763395368,-0.028025528794883278,-0.011650838407979425,-0.024495265769006777,0.09297015303241479,-0.024363804927871074,0.07793761729519938,0.08660956513358556,-0.0436793884007602,0.042524586210476695,-0.03848669409691237,0.03966626412220059,0.09274491920206307,0.017005316101304846,0.05324585896916778,-0.09046242755675578,-0.09244574913140746,-0.020412843324326913,0.023395372497363495,-0.07575849929647722,-0.08324800529929166,-0.06053540858550206,-0.0856164422799076,0.03252647737243208,0.05021174961036454,0.07493871696201057,-0.07552149258386925,0.06553675443489324,-0.07101403578476076,0.04330738770170903,-0.08462776874381493,-0.030738287779814494,-0.014217529344782112,0.09838226190608865,-0.02312242649493293,-0.05411076475790977,0.0018579559361095593,-0.050102436850413046,-0.04213493261332322,0.05599458563811796,-0.06079186222908679,-0.09957136491049862,-0.06746631281948319,0.018625532849532028,-0.05149116566710719,0.05890822757315628,0.0629643986176118,-0.05783127256737344,-0.010782102258280843,0.043573860623343286,0.01870780380349432,-0.04378883777958009,-0.08412784442050657,0.06458537579101709,0.09229408222047916,-0.007295709245552076,-0.048615961723356985,-0.09640870952550445,0.07903113149708077,-0.08722070676630805,-0.05753218433038874,0.0939347625578284,0.053649691202110855,0.04399170525803636,-0.07002318557566985,0.024588434594128822,0.028138583757916585,0.014601549759021545,-0.07226252814271153,0.02967279353887492,-0.07086979514951475,0.07297672244696862,0.03097070368597557,-0.09554528121366063,0.045611099692796475,-0.0903544768209116,0.08800799515083227,-0.042486706500683626,0.09799332601660224,-0.08061151016075799,-0.03020850264426471,-0.017919800280269266,0.08815793679818854,-0.08415618579274926,-0.07342661051724103,0.0374042209661308,-0.025000292721813852,-0.043260661170537645,0.03992702326324865,-0.06821075079182731,-0.04300355159196006,-0.02770985242815463,0.01228218202381992,-0.005450939256979079,0.07465512874509739,-0.022606483164005237,0.05334485451355783,0.09324697309220328,-0.044637069029605896,0.08326372884344915,-0.06789239233635597,-0.08436698774097545,-0.09020734816848473,0.012250698528779885,0.045170010969469404,-0.025814601830835796,-0.04904162052188679,0.011960298894383353,0.08740526161304932,0.06383399857486968,-0.011405950984935936,0.06735564166728589,-0.06390640829407532,-0.046346560821124205,-0.018422617878232822,0.0035386448633175915,0.039246595570833515,0.07624030572431467,0.08145932758922361,-0.0007360521222714994,0.00823777115572781,0.050809678808439646,-0.02040069036285845,-0.046866078900659636,-0.006872001382089904,0.02428419687945302,-0.022858281033917877,0.0004252787237931377,-0.03953937738805609,0.004633008111061487,0.08979803991254048,0.053638654188033874,0.0622762278523204,0.019022681778105927,0.0880924330305792,0.01212814884811357,0.0641534134754895,0.06841514122122769,0.0016684416611921077,-0.06773199679993466,0.005557703470275663,0.0010405993489781967,-0.036683168451613526,0.09863681662051121,0.08202279560752973,0.030369604589240817,0.036666360189977626,0.03773027785302774,0.00032030821061623804,0.010599849170554523,-0.05568500156603289,-0.062074285652483185,0.06942571944709669,-0.0652256685055316,0.06875897394948946,-0.09762436868448919,-0.0020538859801224607,-0.041683644658164765,-0.010957041902906944,0.07497267901065527,0.0018419908850074995,0.08685010117895861,0.0370970368075047,-0.05884701946794695,0.0831728063914143,0.01794438897152628,-0.09655325428272153,0.04434519508673035,-0.09113874765588235,-0.08329442293368405,-0.004214801633140877,-0.0894275707536226,-0.044562408266070413,-0.022012480464349823,0.08989477018350553,0.03217271327836291,-0.061805164210339436,0.04670659209638539,0.09827960617896236,0.009552312409777303,0.0591689954621962,-0.0882337985410242,-0.0711590673810168,-0.08638805249442233,0.018387861004366263,0.09455693777332483,-0.030447026522599827,0.08880693159860115,0.0006605015389379992,-0.043440444692850515,0.08671385078081473,-0.02607350454084148,-0.029485750463936575,-0.0399489149601477,-0.007592319860244556,-0.05440380401879881,0.09843911597819602,0.07866196352461322,-0.06854914574673394,-0.015423444408037487,-0.08420333141036213,-0.06244684369696488,0.03665815965378694,-0.07478254891683292,0.07536371478502293,0.0880654579129325,-0.08073355030243903,0.08554542296789283,0.02289472265907637,0.07147360633431829,0.047235535737544326,0.07615432192885505,0.08684794596691878,0.08497537984103537,-0.04428868645781639,-0.039157096206415255,0.07909074898544133,-0.004620570519460007,0.032702345247153236,0.07928568698586244,0.08966949343951477,0.09303788332039442,0.07980485777340993,0.0571195250779602,-0.09836584125502329,-0.09163420866561856,0.07229426916084908,-0.007456861121659969,0.09836830339084407,-0.05456544134003112,-0.09606016016273872,-0.09709299133534938,-0.07653208375370069,-0.00944783997863144,0.0335346906216806,-0.025048540994809174,0.052405840476534904,-0.048464088349762326,-0.054066310191374624,-0.02316147986962433,0.07376775724826176,0.08737799273747313,-0.04300236203450707,0.03366984908529699,-0.048559854356776816,-0.08239224124080424,-0.056304143621409924,0.0701595508441499,-0.0958617946889925,0.08309318647744066,-0.014541896174219901,0.03935850329675769,-0.034446680290455015,0.07419253819294444,-0.038289812269626515,0.07154015127534313,-0.09906334782205857,-0.04273484351989443,0.073442567775659,0.08435728335258783,0.09664562586710312,0.09117869240444362,-0.04477783092542498,0.09443821866380295,0.02415813388249255,-0.0631690165957545,-0.05435195495283179,0.08556679838820816,0.020844210800767107,-0.08844591990052315,-0.006266389540145134,-0.046722007424727166,-0.09443390706417665,0.017088635342207684,0.01157999385706518,0.04098461811692822,0.09572363600900058,0.08120819833849988,-0.03096171367305467,0.07701959358050275,0.03726495625712381,0.0801204958711359,0.06970775887690059,0.08200422676648139,-0.08183239733444957,-0.06314568280716132,-0.0030432255736549535,0.05882860522767694,-0.08159419282789107,-0.014464046655020366,-0.010959575558892709,0.01753720668284378,-0.09425044939911423,0.09502216495614904,0.054156691407283825,-0.03701644185972999,0.05576136829698017,-0.055545852298326676,0.07803052477504951,-0.032840980199022915,0.06024338717161806,-0.04331182425826699,0.08538345447538079,-0.015597726874155352,0.018620178201281548,-0.033045024615989016,-0.00975204977739734,-0.09513782397513407,0.05089137245736386,0.0984656705824504,-0.09820660616667083,-0.04295863234162259,-0.06775593995965301,-0.040403410940179324,-0.009362840898259159,-0.006954003442336459,-0.06067959700822026,-0.05144804662048785,-0.021122715108705628,-0.0046128914103883145,-0.029675145530415795,0.04248093408136561,-0.018355629857431402,0.07252334894418697,0.06723568974487454,-0.09803985345852428,0.01231693346548371,-0.07148440251090703,-0.017286317527391626,0.013895146548776965,-0.08481691056594438,0.06089814537150148,0.09483931294279957,0.030798267852247374,0.029810424913492783,-0.01977838000057726,-0.028824407280198333,-0.02779446559351402,0.06288190793386789,0.006435334541105148,-0.07813418374565573,0.0942038487591732,-0.09183623836012562,0.026520426795928698,0.04973601686923207,-0.009329313327822636,0.04206196847004895,0.06232968965308827,0.08448637810208379,-0.08530653380503801,0.09433379745634651,0.08882040736750776,-0.09293289924995554,0.04302156210884417,-0.006273890897287651,-0.01497500967366494,-0.020800460668102178,0.0716280232153843,-0.014534077241429744,-0.0019477611198221167,0.002575878633601286,-0.0382722895787897,-0.09865801608499436,0.008605154915457366,0.010296406778999942,-0.04172523372077324,-0.08387950150748212,0.09536446571635268,-0.07131063411694837,-0.029520860126479406,0.0899365325309398,-0.051511792590859695,-0.07302019150342996,0.017443311006610743,-0.09189146796981765,-0.04559637170259889,0.008296941200896774,0.09211770489367477,-0.051855886401180266,0.019937107606679216,0.017432058386875532,0.03469616124394864,0.0578635785526557,-0.08827974049442654,-0.0008343751492078388,0.08970337678513415,-0.03156242390817203,-0.02759631748604123,0.04756787912142446,-0.07525985255371369,-0.06715568971320662,0.008569616618968684,0.07069600340679552,0.03567271181361381,-0.021170583989786523,0.09912691425577674,-0.024828524160142654,0.09040692141866899,-0.06861104936428272,-0.004927938404576754,-0.05579132963319693,-0.0037685261394925507,0.05797366470894269,0.008761932276695153,-0.04989131282124282,-0.024782141935789245,0.09375167318273922,-0.04916544269838226,0.006861224617643075,0.05498673949414842,0.008621058815510632,-0.02328905047175485,0.09637140783398876,0.05946696146127137,0.07303175514110169,-0.0073257231827338065,0.024756121277562354,-0.03199253423754515,-0.007689013778143655,0.03867617324988659,0.09983409546507205,0.0773060368316664,0.033215516192276834,-0.017581711165600658,0.008276052044488003,0.09911657319017048,-0.09689067109517878,0.09457739121631775,0.0036406084840956005,0.035409887534696705,-0.017372539937566864,-0.0961577598714289,0.06018914887723459,0.04757238901765609,0.007881544207403654,-0.03301680449061882,-0.04582742550367374,-0.013067827751166355,-0.012207853814737879,0.0656024219988239,0.046671092296120376,-0.01415419953629278,0.07888883804227428,-0.07179046025696217,0.024032095897408554,-0.020769116235666643,-0.029940550513617173,0.0390807236784429,0.041846649344975034,-0.014866082298701233,-0.03580002308635914,0.018163365241688198,-0.07959169012670789,0.06735261245792015,-0.055704802791863274,-0.006169028305489516,-0.0048728948066837086,-0.08797066593139952,0.08774371344091733,-0.02869649892319348,0.0927228874734646,-0.06727429546677072,0.07392393081375079,0.027798726159353027,-0.06945780519088124,0.08768034597264984,0.059925892028687866,0.09898228150686608,0.017915379651854038,0.02391658621378423,0.03282807868310639,0.07055354532313296,0.09640250099027697,0.08046797432462222,0.02439680356779332,0.018677897217955236,-0.03254709121503052,0.043078452921132826,-0.0012277832669336242,0.06503094284544303,-0.07830613128340302,-0.01730289646857215,0.008060614191157889,0.02256324637273184,0.05281806872048023,0.07933679223165077,0.009799591536145735,0.0838192322102081,-0.01216916713235991,-0.026058340531530222,-0.06589056218871865,0.09471293995596217,-0.018933217352817347,-0.009963114806978007,0.005436489891987417,0.033598535397561996,0.020831976591497187,0.007839849634452417,0.07267330347922005,0.02487712754619635,0.07441339410186307,-0.09411236221186253,-0.020840136234156856,-0.01943249720451483,-0.02684789985973146,0.012764475010187445,0.013909179849888625,0.08818893128021968,0.053981770683190294,-0.04519672253421861,0.049030379293258625,0.07458585458779435,0.03400739489294988,0.004124670559031568,0.03371985094184721,0.0526179615559815,0.009209897860972038,-0.07253138793770236,-0.04032864038514217,0.09922364036485956,0.059390515474274264,0.00965353182178079,0.055314441441757733,0.06957227808176372,-0.044050825975092606,-0.014307207791498522,0.060218643418885026,0.01280508940807587,-0.07895048429026233,0.05031801862214885,0.08677460448286972,-0.025993267491969882,-0.05491338619904225,0.026040111469481125,-0.03404207446723988,-0.09339071791251277,0.07851684765962252,0.03840845899860951,0.08052004407682137,0.0868190664709097,0.026864164871288343,0.020700388579115186,-0.0942740175886378,0.06910037115976003,-0.09528681187948768,-0.09586166029752584,-0.025950756025758095,0.006215199616754319,0.07628869106934136,0.06617483657484394,0.032346794525255795,-0.0038129055565263165,-0.012593036834358667,0.017475168600160892,0.0444793054887814,-0.011778050589972944,-0.06937841421497432,-0.05666271785295085,-0.015986311371200698,-0.06976227009983776,0.08034150342636526,0.02379957274484612,0.08603477301536452,0.006096436801763083,0.07942292598688555,-0.03177477266077276,0.002996936798502145,0.08587601891194452,-0.010381531517103554,-0.07768784516006795,0.07146666507463725,0.06296505506281744,-0.0738909998554631,-0.066765962517314,0.06774268232157207,-0.028395386201413686,0.02564449060656307,-0.010804326149315452,-0.025612737038530356,0.033474347139045346,-0.00222983887527968,-0.05738328485238689,0.07115879170502232,-0.060596751442364566,0.02541552139019032,-0.006880393488220046,0.012802964859017371,-0.07692366383949345,-0.0906106633376031,0.037524665805437285,-0.061853971418228904,0.08311008910118836,0.09201880223814901,0.0715687646005104,0.02217310471916592,-0.09944702591846521,-0.04589224792830074,-0.09330248483656872,-0.05870435146907038,0.07876590682741896,0.023396922833328795,0.03489983186477655,0.008901699674292732,0.026627586776422157,-0.058860441037071845,0.0029481070124957043,-0.07580517039080902,-0.014634421848007756,-0.028974019798338232,0.07705706484102404,0.016329519754609972,-0.03258329233502803,-0.04708387062551931,-0.010380739197036831,0.07229808617951258,-0.010137910003818099,-0.04759117276153205,-0.01219100487019173,-0.04540298841626278,0.02271263569217971,-0.06598098734329341,0.0911627407048686,-0.026361679427378576,-0.0709692194511185,0.09256788580100225,0.05032537550932312,0.08404421757028141,0.0848991943078384,-0.06886948608990542,-0.009637514360153338,-0.05732238772951823,0.07022739799813493,-0.05536377671209878,-0.02576857263150556,0.062118122338881865,0.07066396177368578,-0.06036603001853638,0.07263502103986427,-0.0971160046370768,0.07400738233636428,-0.02801379509908415,0.06508194009907342,0.013068806442062098,0.04386895142985625,0.003457103191806171,-0.07012121349568648,0.054386915053547064,0.031468465921610234,-0.008967497548128908,-0.012190875793219785,0.06312570495775152,-0.0877022592175587,-0.07683188110128887,-0.09437447439630531,-0.0587723149405667,-0.03457349169136306,0.04098313477447707,-0.019101491326767833,-0.07081760354477647,0.08103079381481818,0.06778820673671335,0.0220356545763897,-0.0070515866678558525,0.01611481847773169,-0.06334537145339061,0.07141451517838537,-0.07869885154068079,-0.056169378576574315,0.0012775042672933112,0.09015058897247089,-0.0957945765905544,-0.05921722198784179,-0.07533573544018668,-0.09710700151026344,0.08295013891833222,0.06217159326357785,-0.006266241746650136,-0.09155444434391398,-0.041668347263713115,-0.09385242621839916,-0.06526696211050922,-0.08870090565701899,0.049948265357110666,-0.04985850370349079,-0.08636904405030235,-0.017951646234725033,-0.04469451771424651,0.06220449326477945,0.08512907536199063,0.03912126549915915,-0.029699987615604245,0.07624668358539616,0.060567363162878085,-0.02425769510274947,-0.02886437716483302,0.04876395696580521,0.06755812812986414,-0.07179429179268126,-0.03271084435536774,-0.04203357846258626,-0.0758726592037443,-0.04477440996039315,-0.0904453614099876,0.007382640673070234,0.004494030850976577,0.02121041960273362,-0.007120658750160921,-0.09038611479144905,-0.08348516594018425,0.06119830220155684,0.04216867295669391,-0.04895454851725689,0.03074754027146631,0.06615484637512026,0.0004284327839470803,0.060354660896220214,-0.007374982020662599,0.09316687184808767,-0.07784818552379709,0.09406311478110224,-0.07602011083013505,-0.020438998129337582,-0.05264556276746357,0.037009774193506206,0.04958113082312185,0.08413226627750878,-0.08320665019621361,0.05679392628854771,-0.08391838455831713,0.019295251590678977,0.026243208008757207,0.084186012489673,-0.012950337345474905,-0.09193599733932244,0.09831068344744187,0.022016859554486914,-0.06007904874559902,-0.02982798619558094,-0.018711844873060685,0.05937133269429906,-0.022369966592751173,-0.016532919635277962,-0.03232393282348571,0.022769230922413453,-0.06799587636396881,-0.022453442532153686,-0.011723483578655089,0.05236457543559353,-0.01837802861646147,-0.02966515511983646,-0.055901153677017895,-0.034167229342289926,0.05001395019647978,-0.02673454735139469,0.037520766877874395,-0.01635079624157751,0.019898948110660092,-0.07563493727136383,-0.04473877428025239,0.0717792636055754,-0.09039558611082282,0.0430926864444893,0.0037576732027185533,-0.0499516903722324,-0.08899249069667002,0.015689756168209307,-0.093121159084015,0.07872694876741898,0.023576128110417247,0.06601854692680087,0.0674971122525613,0.0002481393360848766,-0.016175664187539504,0.05943884241175096,-0.06523045396568361,-0.0891665986257698,-0.02656378551781234,0.08563542036307212,0.07935853404636717,-0.04237958378480036,-0.08503071175527027,0.031480870619208956,-0.0005227977856486488,-0.021983428616799958,0.09239265664753335,-0.07237527828652733,0.04952559744602683,-0.03690441112252167,0.0414439951655492,0.037669794467872386,0.004270702984894209,-0.06101631399650827,0.0718192496054145,-0.009406796343038162,-0.07041991853385313,-0.045526765920595125,-0.02151853781996578,-0.05866485921819425,-0.08201674044792356,-0.05256326726293965,0.04150106037953466,-0.061539601786892106,-0.09680107045212374,-0.062480088332927064,-0.03549906733573219,-0.09850766097691072,0.08643326832393883,0.06398905380754877,0.03771009859280325,-0.054668926831813285,0.07723791826128396,-0.08028280401977571,-0.02338085391878711,0.026579129517409733,0.05549513110350565,-0.07821816477368221,0.0535587852066422,0.09096930020151017,0.05054851682735406,-0.09094874403403286,-0.04882519757411492,-0.017366915558672563,0.061411767295387915,0.0011830336936714814,0.06414785863483785,0.05821719430955605,-0.053762249013052404,-0.008598375695903243,-0.09195117286736161,-0.09359581175974517,0.0332076176417028,-0.036976818380317064,-0.04176090183400243,0.002412922424255587,0.04968437128047448,0.0852179599661386,0.06026373593218742,-0.07620436966481857,0.04526836797819472,-0.08559689777227093,-0.038831350945409064,0.042313418630445965,-0.01965630091497661,0.006189537893452529,0.017835138310624554,-0.08167288154767625,-0.02614662064899513,0.04583294219091566,-0.07564451109548492,0.09383539703005414,-0.07569779179211622,-0.08302324473951433,-0.0822810919754407,0.04154606735929192,-0.06129990721993797,-0.0040570029221405485,0.012614446758304254,0.07271142379180043,-0.018707562301499878,-0.08444324490619076,-0.015660414837392583,-0.044385083717235846,-0.07351519882628749,-0.08935557565648966,-0.051522599574415434,-0.05449424569447308,0.044250099970956025,-0.03207290928982713,-0.02893109545505164,0.08623681479841114,0.05490438425194388,0.04449959814065524,0.06955425759361877,-0.09153824805450449,0.009976642385655321,-0.07930883785508369,0.09657636121887989,-0.08046675913131462,0.08158285909918694,0.08624052774152041,0.027539558565390726,-0.03411556250812629,-0.00664846668705979,0.006828785920462502,0.08262478258036415,0.039904569447758,-0.05812792230126767,-0.0973700031602271,-0.09554877634198543,-0.08652394968871385,-0.016405075361520943,0.005141019787186979,-0.007354674598037111,-0.05479477323618714,-0.057833430452242277,0.0289622408347682,0.030503911877660134,-0.00010747803759048047,0.08728836730647394,0.07719500616721517,0.05661938326824542,-0.02075348430553628,-0.048724651125498133,-0.0954986498700071,-0.05586841140504633,0.02204868104979689,-0.00569715735219338,0.01765393373955551,0.017536288557781263,-0.09696200471436667,0.0471052515704799,-0.08975726160126324,-0.08136596861583181,-0.09860519382407525,0.09055328403652521,0.0628471715583154,-0.023091607505249856,-0.05488322665033718,0.08496958016837769,-0.0888944370855779,-0.011606070792435877,-0.028458852504928522,0.027794821369011263,0.0860044859168334,-0.021002564955574204,0.08986644271142905,0.05593787749532872,0.06665609193343022,0.032779460480237554,-0.04036896404655517,0.08523237837019534,0.03242330335829119,0.0998394197682507,-0.050432780100083896,-0.025483491519122256,-0.0782203669308569,-0.03816685455633748,-0.017768776557401944,-0.01886994609771779,-0.07075163434189116,-0.014629883594879087,-0.07708813147394006,0.03756278986476852,0.009190503598850208,0.09352414769604392,0.05365501117725602,-0.027839938951113793,0.06612054206793233,0.008021042372142434,-0.001612970554205173,0.05460865655410321,-0.09043475671580495,-0.018973162664466733,-0.018187302620915655,-0.06551906803292647,0.025577150661027226,-0.047489073627451944,0.09331427799651065,0.06732095459428913,0.05195581932230553,0.07299560243415698,0.05776222624928115,0.08097786730683065,-0.03372017120390583,0.05533254514272326,0.06529906474885158,0.03867247110356137,-0.07064927414025375,-0.055691087048752586,0.052253970237369524,-0.011059663863103045,0.09833532054591504,-0.048803257197344685,-0.02838339144277753,0.04213932000089268,-0.09107744629280262,0.056278372610096244,-0.09099801464174813,0.05566167022196897,0.023917787856012618,0.037006975037827766,0.09337240975751696,-0.007249627980230322,0.007845230217092783,-0.09643219341925535,-0.07852264166527814,0.002935808480328511,-0.009792026494531703,-0.09282725117321733,0.0300040135057566,0.02523005681855145,-0.013031776670704431,0.0970194618143069,0.08617460463295906,-0.09385944924054518,-0.01992992429190514,0.06236379418640606,-0.09113262588345528,0.03983764567439824,0.0013849770504893721,-0.05436993174936214,-0.05518208693219524,0.01685497773538676,-0.0213693709930399,-0.07752884774359795,0.09195587956354354,0.0845501727275377,-0.07324299095148193,-0.012203712615434764,0.009364717927613952,-0.04120008101172479,-0.03023894601594633,0.03736557541106231,0.06301105398269344,0.030402414211771006,0.0009516617805383765,0.021363878438106235,0.08425949707793748,-0.061973254587436126,-0.012156931895227,-0.08980462664283483,0.07433312245147095,-0.026290555376901906,0.02502737438472344,-0.060635091925561074,0.02968129342687681,0.057307130936113865,-0.03980376777069408,0.03698283615760117,-0.08267718094295491,0.09143877742467402,0.035044865791557134,-0.09920786916433358,0.032819384810283264,0.07503660072118903,-0.07748750468185737,0.06071315873817565,-0.02057466725119564,-0.03292266363747669,-0.09625497056295572,-0.07003009983958855,0.010993338026540123,0.07412871571864951,-0.037019992267503854,-0.06676220057318366,0.04156479216197012,-0.00633757607380088,-0.09915868161358686,0.07772312876391677,0.09668775774311095,0.02391067713181387,0.06588461480321578,0.04519430123719012,-0.03627466251811749,-0.027382090124391523,0.08257059310822998,-0.023681187401849213,0.012521896134608787,-0.07923896332219488,0.016159902444524837,0.02878311921955304,-0.029701373863915803,-0.09213157355850608,-0.08066539006272891,-0.0844797703450133,0.009400162422217043,0.005701069377539267,0.0845117101943953,0.06234887838684933,0.03901203944717985,-0.07286690171078761,-0.09217746273877717,0.07859550535030474,-0.0147549647971605,-0.06909069935592221,0.08479364973813755,-0.03877834963321121,-0.03469175842685823,-0.06048914594004451,-0.04528851500742351,-0.05639360995477323,0.003374019062384992,-0.012719184778704345,-0.08727404838659956,-0.00495206038719323,-0.016298758613473116,0.04149350577354177,0.03515733555639827,0.02458158383387561,0.05863881804704604,0.09728439206874456,0.04831008351774982,0.09329664443906235,-0.06903088155716475,0.043421294508515285,-0.04879342159513116,-0.027206783150749023,-0.0843982963465773,0.01840151482444692,0.01540632502961295,0.020562553379289472,-0.03179931811773065,-0.02974741310200449,0.052473977787198506,0.060456373677101743,0.020079715853725894,0.05609117441944811,0.09477594137704776,-0.016950436769676308,0.09791291117021977,-0.06743964766060646,0.04823114125276867,0.000887786089875095,0.05426220118038502,-0.09811288526735594,0.03718629724715522,0.03174587474468216,-0.06339878528860701,0.09414150275802835,0.025067703505642414,0.035429442752391294,0.014514278748022844,0.06318767151564067,0.0021370562676293614,0.05080107216549809,0.006896729498519202,0.05043788083690118,-0.08052030441822118,0.009204850214819288,0.002424031390174483,-0.03573513710023489,-0.06991344516220721,0.042778864085945084,0.08021605323302744,-0.054409431895636295,-0.0935257243237146,-0.0008320891811134656,0.06964926430918403,-0.023052263135163023,0.06261032912961992,-0.04449907878867881,0.06268222201744042,-0.09365645435973989,-0.0518046378436436,-0.07741439788733318,0.04789350669623574,0.05088669258200881,-0.018639104527484823,-0.016141033462292273,0.08539502066522325,0.08669747705649158,-0.018058798056130337,0.015523501528531061,0.0626891362338689,0.08910391035859663,-0.05195228620397621,0.053139245351654735,0.0848778860109197,-0.052649624891944274,-0.034731189307159044,0.0668934586693739,-0.007609729717626343,-0.042446362694905516,0.054018339555596345,-0.033714086482515934,0.003548794422368745,0.0107854123521796,-0.03069922037113404,0.06883126323000366,-0.07534373680823277,-0.08254390085112027,-0.09012799909606413,0.010210377897590467,0.0923698010503003,-0.02226774619977405,0.012255026479442946,-0.014907260586151813,0.06345334039124309,-0.030037995362752576,0.012944287899251436,0.05727634233348941,0.03562439667158751,0.08014477141180529,-0.0450885621283601,0.0893385812604815,0.015301080020480959,-0.009671501074853234,0.09274986742330818,0.0926497319943885,0.006295075414963408,0.09568891533276955,-0.0892663116948944,0.06875360755737012,0.005622976044202671,0.016969709155296497,0.040133021832991916,-0.03745440494470498,0.007198136915476855,-0.09253341827839585,-0.026794822755698,-0.09155967288743803,0.007183657623531875,-0.024878967866741958,0.014656282023906453,-0.04302634677120394,0.08723978924299366,0.01805615013293549,-0.08128889642189648,0.08414099636037894,0.09610286255696301,-0.09385270239989843,0.05854757435602595,0.05149332510033086,-0.04127703531681584,0.05400280775483912,-0.04044404668064514,0.0963280468572216,0.032025575721092686,-0.03220314711840966,0.073698988226155,0.07151422698955262,-0.0005143294714325258,-0.0694192328226571,-0.03940401813566585,0.042251616404364756,0.0664561711955273,-0.020217862227858957,0.0738487874174539,-0.03956740069250047,-0.019156033626671037,-0.05592179137976512,-0.061987494738778764,0.04881468152915075,-0.025054700307639968,-0.0011912058149139426,-0.09633436673998258,0.06711060803013127,-0.06226115939416235,-0.06806733665045278,0.061538747777784314,-0.05762295604812162,0.0031197399139204496,0.0055449054961957955,0.029557925051286432,-0.02133168066386988,0.03578579881586469,0.04349281929575119,0.04953744769391091,-0.08097199454219735,0.033957288556753173,0.05975014693207012,0.008668141940771742,-0.062375984569693226,0.09135240287872212,0.009069064209333483,0.046344682033881146,0.07307489630484251,-0.07736267198569213,-0.024588185122849812,0.016047647071622248,0.07194603653823242,-0.02862544753229712,-0.04114577947311626,-0.0834350589812861,0.011899815276549347,0.024363915330494645,-0.07674501490695809,-0.0198791544900407,0.05589560900796006,0.08700998932024448,-0.07852372771285232,-0.04099359086045911,0.008133802319814448,-0.014598869639425735,-0.057967603935724914,-0.030296175501728237,0.008076338912454822,0.052660745978146045,0.006687444715418017,0.08067281932264211,0.010331185612494437,0.04734740098030804,-0.03330493117481295,-0.05477029176352693,0.04455292658531351,0.03303382471546698,-0.09139362547460533,-0.04131587769882242,-0.06872742077096611,0.039016532244751906,-0.06589959963089981,-0.0999414390289696,0.024176553973450865,0.0742287038801453,-0.06760589251495444,0.016111411225356684,0.04866931586108744,0.07859687220340628,0.0984663403102953,-0.05113403215742438,0.008571091199496103,0.062408930300321325,-0.052313633831479495,-0.08791491912882154,0.0883806158723468,-0.054545252444081704,0.04804591037850664,0.02805759722466497,0.0821851528313658,-0.004814861163418532,-0.02734837323535784,-0.02679470597095386,-0.02420342851994066,0.0960610524341019,-0.02806445682879498,-0.06793425667172204,0.05797951342793925,-0.026202523340097802,0.05118919546979095,-0.06708059423763385,-0.03054551001616171,-0.07122102437373977,0.04638215298776824,0.03229399614972345,-0.01663312389346619,0.005429965469204628,0.08179071997650592,0.09676640173770878,-0.017837754104310516,0.01885680952986571,-0.09645812164710442,-0.046315035392581506,0.08827061902456301,-0.09227932704797155,0.028933311837824827,-0.05200173486128992,-0.09849894934960357,0.0562750990415016,-0.07099636484065837,-0.09587573567972446,-0.007291661514538153,0.03857273521770299,0.000583592336408506,-0.008370474118281429,-0.01199207452085016,-0.015193482836884847,-0.06185323532610183,0.022477981852859458,-0.0461738342742561,-0.01529844038497874,-0.0322598652068892,-0.08574080084594767,-0.0208348471431353,-0.0743487037027224,-0.026192446824122723,-0.06779696585456546,0.014179205519453925,-0.06276708764374886,-0.06337291690229369,-0.09341487911480968,-0.03942721307943789,0.06480337734560965,-0.0835322211233386,-0.0378967798231467,-0.07565341053517552,-0.011264716906123962,-0.041293215822098085,0.05816902863185086,-0.023573150299011386,-0.08751935650524004,0.09292260309977962,-0.04826525970786473,0.0142232318982419,0.048818191000837535,0.06832357021337085,-0.061588581080271834,-0.03726703313097679,-0.08292552157474464,-0.0902580671580441,0.025893826389711577,-0.02276125654643675,0.03650823997181912,-0.060326518435767446,-0.032053511571613805,-0.01919706239685745,-0.05615482290048504,-0.006829919515312394,0.046000714751385896,-0.07600957841210097,-0.02345047796187187,-0.004855695602822646,0.006475317809554862,0.07458642087452838,-0.07484910854223142,-0.02846106500622768,0.047867304401277316,-0.06970894375257371,-0.008536010988856452,-0.09748324113480714,0.05799626984706374,-0.08465662736329849,-0.006887846231333358,0.08901836524552689,0.07032072682041565,-0.004381699475156653,0.006881903434496545,-0.0674165307853467,0.021982630110616436,-0.025555581884508002,0.023110282800788612,-0.06903205841579765,-0.08009838877770901,-0.08375330194176672,-0.04852428181929627,-0.05507985585352091,-0.030115564319334404,-0.0036670831202398058,-0.0368584929083732,0.0016826209272633452,0.03089312643327785,0.0039042826611670883,0.03757547146874113,-0.032572257441879734,0.09505024332129272,-0.039974881897361494,0.07166648275025975,0.0026786025043544076,-0.0714034739145883,-0.04912485237053224,0.09128446905199514,0.037153945176003955,0.054611651714532805,0.0017183884713112274,-0.08380689597502507,-0.0808593585661524,-0.03474278651850558,-0.07864458108465931,0.0015761964617965474,0.03738235326662345,0.05044873789626539,0.035015613298315706,-0.01898240570352941,0.06627241611068171,-0.09784192267936183,0.0540007007143187,0.018190547557327366,0.04397279380068869,-0.04799933097075107,-0.0327413958436793,0.010941725194440408,-0.0947559919665701,0.003547168952665866,-0.04630091801777567,0.08655853552718812,0.023871121306426477,-0.07134525329672732,0.01118610610336268,-0.008159418546409863,-0.0567318965730669,-0.06708321233263059,-0.0799935150962353,-0.021145824747998754,-0.09116806957044693,-0.05901860888445279,-0.016853218702693823,-0.0031875312989852606,-0.09813550516538383,-0.005957496428505182,-0.033964386554657236,-0.06395156426553933,0.03129706975088631,0.05874773205132064,0.0058950771001770735,-0.005588683180038509,0.083256771537015,-0.02813779885930634,-0.09483109401202464,0.021128848119479265,0.0836208945591615,-0.026272234193132432,0.007236552911013397,0.07711071217332774,0.04089269103321694,0.03771916494370725,0.015448694323515172,0.09566324727344386,0.09268880578929095,0.014762919088198198,0.026079860788862375,-0.01206371281107299,0.08676626071447902,-0.024658723753542194,-0.06482917793450094,-0.027055936443399056,0.09288668656164237,0.047699603751369196,0.06698798891243102,-0.05758968488126377,-0.03538077447350223,-0.00942707596311898,0.019148389472759278,0.06475668764365011,-0.05906610879758652,-0.07868897183528994,0.051025725896894886,0.058136014449450796,0.05938334196965017,-0.012900340728418142,-0.00635900016738869,0.008474450225750413,0.05478135051615915,0.03939135912526398,0.07543529418400849,-0.0922248349923033,0.08314979937547104,0.020308934668854264,-0.033116976390886066,0.09477334181944361,-0.08318538467874928,0.08626476770497235,-0.099866367284316,0.09965931955594831,-0.08569760617211118,-0.06844156135769283,0.0655301709687083,-0.08012404699765732,0.03141891402735139,-0.09710197530361656,-0.043343795886796335,0.06455356973784157,-0.06821035575982312,0.05682607480224719,0.08087542092082148,0.05708657524004629,-0.09862847772953659,-0.008900122737520236,0.06237828323334638,-0.004258555534091046,-0.0747413428099796,-0.008704532107365728,-0.02347790282407866,-0.05151441372305135,0.025105009163924136,0.08511814731664799,0.0028495927454872394,-0.031597590393203756,0.051600937900388694,-0.039595260270936586,0.03935982069610913,-0.0665030389770554,-0.0799476770976194,-0.06576943567167196,0.05614213022975473,0.09313083911062181,-0.05614639327097781,0.03962618923100783,-0.017023434193768325,0.0017383303253366983,0.008782944187558428,0.0765450990770003,-0.04175061504023057,0.06033515368882775,-0.05544172867479311,-0.0968392683928277,0.011270304764810612,-0.09161683728420385,-0.0730908717553981,0.054454755323920745,0.07871696567470723,-0.09142170141774689,-0.04402930705383388,0.014932486149386914,-0.09216596711250147,-0.029942352243659,-0.08754044037041542,0.07037738340948471,-0.01656134512056298,0.03582644311196059,-0.033499790650420594,0.03129316707834601,-0.08520525992354729,-0.05787351028414363,0.03456781188725824,0.06913463294485439,0.05850390410792103,-0.08679404351934271,0.06097515485943075,0.056089422827633684,-0.05854465376336542,-0.08365216024526428,0.06630367192156492,0.032040330873086775,0.05642051989263691,-0.031612812586893566,0.03128038195131708,0.01968242732433781,0.04448849627337337,0.02329327782717336,0.09271680767055829,-0.06731929759440276,0.08792391230536323,0.04256042253496073,0.05727900111946052,0.07268960379729458,-0.012921452155084667,0.05750044235033211,0.04991339265332892,0.07336357323857362,0.060464805163898266,-0.07852752957799863,0.07912677634409837,-0.0200521100077502,0.08863400736819149,0.02591096757945896,-0.015383566382196484,0.04845657215368307,-0.038703710900533664,0.07136970074217075,-0.0536792439677309,0.00771908348947567,0.04481124470087336,0.008975792461316787,-0.04585108760091586,-0.08792159639332642,-0.020988464020768788,-0.05386221588734683,0.048302116614121454,-0.027964571248689563,-0.003042496792081642,-0.05487242877948866,0.08795974466927362,0.04976004849073368,0.0638491928287058,-0.06035023930987382,-0.057369560138327724,-0.05881258110789811,0.08896614445262027,-0.05938354580542016,-0.014390372333566548,-0.004557903354346318,0.04181226681548128,0.05536208453418229,-0.03424427149868729,0.04431133862708955,-0.07968392263389285,-0.01301813559480558,0.006974515974782408,0.08298772401023716,0.07893076498085586,-0.08700853126584583,0.06238401351259429,0.073452262876233,0.020818393646205996,-0.08553166158639502,-0.07525019084102379,-0.020845895605206,-0.06992814410020265,0.07203609362292204,0.004539023969026126,0.0037293559539309518,-0.0759411754056965,-0.09987840808190684,-0.004073943927607543,0.03446849846940658,-0.015642825222611248,-0.07422419473167974,0.02712101812604506,-0.0874009884825031,0.08113310517036351,-0.018863957823175556,0.036400771305279106,-0.038666113718719065,-0.051448772735397254,0.09391081618417307,0.04773233959931478,0.032471110161986505,0.07335362171470414,0.06280954802014924,0.09530093419404626,-0.09645291270317147,0.07896075348462159,-0.05985223486752971,0.09919503929914739,0.011411437327783866,-0.036532966880091874,-0.07701381088472284,0.07625915573310049,0.0013523994537878864,0.0997678114916894,0.021908065065355226,-0.0838479525262343,-0.004154398548631949,-0.08303064884238767,0.018217805562372916,0.07664381986058683,-0.06946723848322045,0.07742992614063104,0.05364272299642697,-0.029567288599466265,0.05854258133573098,0.008981420060986567,0.09714655666428992,0.035634948512235226,-0.08859333598541808,0.06508777044139522,0.03208752557283709,-0.016928607981180524,0.003927012742642552,0.009912094734926408,-0.0029841838217620903,0.00533908311583145,-0.05178640501619585,0.04049418675621333,-0.022822302008983095,0.09317135302604487,-0.036266279507799176,0.05298629065918001,0.02597211936780175,-0.02714900436751387,0.013365181964402145,-0.01638582545739649,-0.07963372670414133,-0.09331157015666594,0.051629226585538396,-0.03562272949917733,-0.04193867454065208,0.03178107760665774,0.09475340683407879,-0.04380490072992047,0.060171022826905424,-0.021843463435089555,-0.001894205263524018,-0.003587926975269301,-0.09004302028903388,-0.01889990018367689,-0.050289134698977646,-0.0029223445467312786,0.07766352894182402,-0.044936755727035704,0.04284908149393735,0.02744720574582074,-0.027599731359018304,-0.06371483808515582,0.030778810285268993,0.08523575394176985,-0.008895014892199751,0.014618671807955147,0.09946924583105346,0.07302477107458888,0.07500189490827608,0.08183449502080911,-0.0452684629949673,-0.02470926627534871,-0.06913422099794203,-0.02745216889533207,0.06607896031431512,0.06757148597278673,0.0343370309854219,0.014040454665350796,0.09214489920754088,-0.09311688274480204,-0.07362234561814228,0.07888035335483262,0.07614462226945676,0.06873763645376818,0.07337390846583239,0.045700235119920274,-0.09869525225454252,-0.03567442796620526,-0.07501441658261188,0.004173124336856487,0.06399924309620905,0.06579104063287908,-0.05621312819612987,-0.06433278000347627,-0.03426545700194343,-0.05724778924563454,-0.040714111095498544,-0.06901814278785419,-0.08602208795487845,-0.04212693265134857,-0.04778428068892731,0.03169602836948879,0.09990707991843636,0.0584596630532975,-0.09510903394929536,-0.03863049540834687,0.08082859243926857,0.02231030574525268,-0.0872469949923215,-0.07982515183315773,0.07561032919107827,-0.03817401808298718,-0.0958066117631658,0.09631675008858917,0.09317551690312392,0.06960051357390978,0.0350128152400177,-0.0951960176175343,-0.06328674202048253,-0.07823551621839818,-0.07829479024397208,-0.08642159850883742,-0.06517609635376487,-0.040974657426306085,0.014453769521396348,-0.03672933928038287,0.07614583333975009,-0.08075627945881295,-0.055166046357530044,-0.07827381797008265,-0.020861061998839553,-0.0032356503070675863,0.05378660258059295,-0.029231294988188952,0.04320852203857392,0.09370128167328545,-0.09980086226373325,-0.001792630392154132,0.015007330436478353,0.028494841679159888,-0.08509152872015875,0.04175942254149975,0.06797904892105713,0.047996807503454475,-0.08715029240197897,0.0942728614539314,-0.02053421277203933,-0.07979643412474853,0.09485325337694231,-0.06563280163372634,0.05728838785854157,-0.09695619329861725,0.06011636460417283,-0.011419476899024825,-0.07290980061225359,0.07353314588576051,0.022153436795701392,0.027108287035202405,-0.012053136886679902,-0.04632420025075495,0.035319556474280395,-0.08842190242104629,0.047127786817293155,0.09621509135053327,-0.03675957775072658,-0.09718294578470354,0.09536931718019423,0.002173354308198497,-0.002032673071054522,-0.010042077239835787,0.09153364190447419,-0.04499751802520287,-0.0504154592250162,0.03739781135333428,-0.09391189296861979,0.01077017141051595,0.0026130569276743287,0.08502933262749135,0.06243627342508598,-0.030943797863295472,0.024438701057418383,0.001104311753701695,0.09997541797557916,0.08405379662408038,0.005193552040664823,0.014898578025934667,0.008014281143565546,0.0063303350300656785,-0.019477277924997025,-0.06280607403332766,-0.016209176373286158,0.07947806116464626,-0.023891481972698386,-0.06495263562455711,-0.09492874686704611,-0.08389325732050681,-0.04588357414150806,0.026410565381472045,0.03441335677237256,0.04560968745275504,-0.06519821612386667,-0.04433111693191574,0.01785093068334928,0.015182197246787377,-0.05717890247412996,-0.050189824902086816,-0.07073341815199048,-0.02006223549370101,-0.012032449459420974,0.006609974076981301,0.04541653136830179,-0.05818498360315383,-0.01059463354112436,0.0897791212816749,-0.001779319230611337,0.033241575390606876,-0.0166779571728735,0.007872474664897669,-0.032587289014424675,-0.04908455420877598,-0.005802861084869049,-0.07577883156474906,-0.06538588917590907,0.055672035962359756,-0.09257018100344952,0.02959136924256156,-0.030090416454811836,-0.09506478562678033,0.046925114615356034,0.037880716546109194,0.05116274461827128,-0.041088366789252276,-0.005695769458563316,0.09085236480817596,0.002097283108103601,0.0003019169566337576,-0.08503764991529078,0.048997328416704816,0.03938366441894123,-0.09370418194819036,-0.073992777418737,-0.07350637773632199,0.054951034899371504,0.04634317494540663,-0.019819340717604203,0.08939891281526235,-0.059289778347486256,-0.020623881157587884,-0.0831442883102616,0.017440067138866283,0.012616343547624795,-0.03682635055918988,-0.05923777047659171,-0.08150114376082165,0.006719108369461768,-0.07524782574780575,0.08409425648062671,-0.04355629111743262,0.05771446390532442,-0.06928020881746028,0.06891331673536732,0.09662619786486104,-0.07426197668391299,0.009394047545937895,0.007863900469479781,0.00974424447989368,-0.06830802970416078,-0.00029854419400247856,-0.09449145271333159,-0.04416070080810535,-0.07065509578466962,0.0896899112399035,-0.017097207356452634,-0.0629125327884299,0.018777173680045015,-0.030299826272296576,0.04227690427837899,0.0970549868524831,0.0003129594028371263,-0.03677988951667986,0.06354259073754856,0.061976219598872645,-0.015252817153708118,0.003921887286770745,-0.08069962128282966,0.07298504296515787,0.09693238119959308,-0.05733879437450984,0.01284131120798393,0.06037300042490942,-0.08826365523362459,-0.014283349394145883,-0.09716684869947763,0.030672281209430663,-0.03666757918732029,0.04167292508888218,0.006314700152034142,-0.09588184802289482,0.07553854649599182,0.06149314646048229,-0.06741051268913179,-0.0902533205028961,0.03498781154093544,-0.09620181482086335,0.0813464141114249,-0.034044072075407925,0.014120015787674814,-0.09074721702742648,-0.006091567895624372,0.045242981792124215,-0.005365988602769045,-0.019416650564127516,-0.012192941086341363,-0.033026696440217815,-0.09660247838756889,-0.0464424039493673,-0.013372484874455332,0.0848902346407936,0.09285441670442487,0.027475631046925658,0.060462892173753474,-0.02795450084730429,0.026500719347562596,-0.08813848602878332,-0.01320780943152608,0.01810277288146475,-0.06601523259219105,-0.09218340053912676,-0.09477488722843735,0.013290406452605957,0.09365718942500784,-0.06759121689869896,-0.04264184326842178,0.08238713870341538,0.08855630797026431,0.05283461999923117,0.054547407845496915,0.08877507402224927,-0.014261842127028718,-0.008302708997001945,-0.08513049374874365,-0.06535517642182992,-0.015199846753404606,0.007892515370773803,-0.0960762661933607,-0.09062448245247104,0.030698027858580668,0.03046752271059705,0.02531652629297093,-0.058694190565935944,-0.07856614397681394,-0.09570339565768426,0.0025955349264817212,0.03276992139334106,0.019785172447607774,0.025487614751577403,0.07300705253076598,0.04908202789209484,-0.06450532703674955,0.007731685791422027,-0.05430064921302269,-0.08369331324289538,0.07590850416254616,0.0011213260920115015,0.021715532179022917,-0.09408191265296934,0.00476006084980711,0.01861815287574982,0.07504813350220352,-0.0489551934867257,-0.056507733434559886,0.0598243737128093,-0.03828730414005502,0.06770508592941984,-0.049804321090779174,-0.004743164840256636,0.00963297070224689,0.09431923186918523,-0.060452639446692796,0.07390315501160072,0.056819609841949115,-0.03951415397427582,0.02437580611194079,-0.051000808347224647,-0.05212471137244852,-0.020559631091231267,0.06783949471953346,0.09509559836372042,-0.06058178416246643,0.04532470073666284,0.08277920861203222,0.013125337035329254,0.005944128643130056,-0.04439096884651566,-0.06246975472655145,-0.025410082856295674,0.09350333486850651,0.07070686743268828,-0.014227502512407675,0.05454461622512721,-0.028103712016879584,-0.09984821955620311,-0.08072703025720594,0.0986835607163512,0.03568201343818825,-0.05020755683988867,0.08638540957316754,-0.07150103707300187,0.012101055355557652,0.05870743914137569,-0.00752245538924616,0.026352046195660644,-0.07559269787055706,0.07801304281667307,-0.045651247122408915,-0.05976560441656634,-0.06842797315151553,0.009867363154645231,0.06790112853044114,-0.04053002395927603,-0.009966346590123187,0.08212502784017897,0.04605849404383461,0.06397739458299237,0.08234590086247442,0.04674895916170202,-0.009702072126811873,0.07716199105613525,0.030572745393816048,0.039719179218688117,0.08747860612888886,0.011412729021763116,-0.06142478175664837,-0.0506760735904892,-0.04170171271288408,0.07139046523303424,0.073423251226059,0.07384514855785115,-0.09844230096859885,-0.0025472485412777746,0.007624176931911197,0.08768769957457012,-0.05405624296176384,-0.02824013500870573,0.04738648568830425,-0.09745486715586593,-0.010633183396491802,0.018239919279940425,0.03584644665843864,0.09004667418830903,-0.03217947709857043,0.08456489295515943,-0.0826274934534752,0.05516467340048778,0.07937443499715707,0.03485854190377674,0.09258062494387237,0.06681206783285135,-0.09446571948162492,-0.07930405887514161,0.05125815158484137,0.04393018766115078,-0.033321160531386784,0.07909089520087284,0.019033895557305766,-0.05942649637466966,-0.02917762671349204,-0.0017242159652464117,0.031135582847951204,-0.08275660176226296,0.014209677704700316,0.06678663222781431,-0.09595590873552427,-0.04282932297155635,-0.010118646701396242,-0.09267438451041787,0.05731118108458075,0.08776611131195886,0.042448995271009066,-0.07760638506024274,0.0688768332255297,-0.010990022868769461,0.016247536185123396,-0.075214953115225,0.06950316578799401,-0.044867135664244544,-0.013989199372559644,0.07570457324499902,0.08567500643931614,-0.07300303270266856,0.07076108448590746,-0.016646673591784872,0.09641132949650033,0.04904638946069509,-0.03987116899501575,-0.04937862971546539,-0.046189339160552303,0.019620291516159183,0.03147444152925055,0.023394473719621223,-0.08577177117293117,-0.016793010198787386,0.019592321029373583,-0.09820193683957656,-0.08382620128063034,-0.04255533184816791,0.057783518737995004,-0.06088563637286542,-0.08520057736180218,0.022328653325808384,-0.039842855096452426,0.007900527208595062,0.06326109385023973,-0.07582992383512113,-0.07686780746884536,0.06986666328839139,0.06911374396007305,-0.08296683678564741,0.05906523894189092,0.028637625928394306,0.008359422302413183,0.04981497440528454,-0.05645214632972322,0.008231981158562496,0.06034491503955103,0.00352908747719978,-0.08117613068832595,-0.047845851521817154,0.01030757837504144,-0.09641182093720779,-0.052376895122859146,-0.001103697584815766,0.045291511466871714,0.07907059355338361,-0.024872103050015942,-0.02984576221902016,0.043100592500621815,-0.0949545268235724,0.010956906549999174,0.05283685062161636,0.009225453501834305,-0.08484480753096753,-0.05867769848069813,0.056634531876962185,0.0878810277366851,0.013734417918078543,0.0443335014433186,-0.0798673708609699,-0.03633703640975852,0.042328029870779826,0.024492219292748543,0.07326564527275142,0.02611323655396064,0.05862458989345232,-0.08322012361256977,-0.007296524147594227,0.06589701637985845,-0.08801198756735902,0.010713755436499911,-0.01682108986693942,0.013388143895678842,0.0038112567840668243,-0.002999787285800748,0.05879094708204388,-0.08854238256574508,-0.05874640893160628,0.002340365958915319,-0.0060898803056669,0.02900157345954449,0.01268089084675443,0.08156011507937186,-0.09540139084496319,0.058111280588590886,-0.057533325944538,0.06913538572102906,-0.01951182009880434,0.07729817814622614,0.041877173941683304,0.04662487217097594,-0.06979261303790613,0.00011821463012458289,-0.05279256207193206,-0.018795620464390247,0.05424114200931249,0.03926462109235179,0.06498008823854115,-0.023144251562895318,0.03531901858507308,-0.07745571997351802,0.06275872819267378,-0.04833594371135548,-0.0032926266357828082,0.09603537677583934,-0.057681681766667436,-0.009081324628964091,0.04731944346095568,-0.005822921018369079,0.08205564446407712,0.06785351474586987,-0.01678955997686686,0.018121739316169144,0.07845836081417984,0.00831805177116865,0.09443350186806501,-0.0008410784936432325,0.08085306319293736,-0.04338099135654638,-0.014225221691774731,-0.054842816303610764,-0.04697072881388342,-0.06255331706032252,-0.0039546194392801465,0.07267607809621426,-0.013185539043605615,-0.0487836811618974,-0.0732479984063736,-0.08835574859961448,-0.06495331669103051,0.09064590508788242,-0.0994106766993693,0.039108244394433334,0.027467868386772454,-0.017291293367310306,-0.05868470148039573,-0.06307826559902452,0.09816732223962102,-0.07351798957480252,0.007563789645310542,-0.00555237484241182,-0.03267285311323223,0.022277196898606855,0.05254935518543552,0.023933597816942778,0.07355080139069861,-0.06476562629941793,-0.0987924632023518,0.0009536883420448589,0.07914325174634859,-0.00809440549728535,-0.008285165179496762,0.0875616099404947,0.019845220067551628,0.030203448784770492,0.004370296288865025,0.04582175474140779,-0.045737834786130985,-0.0534747920556578,0.036026486629328336,-0.01861098647639703,0.0170013345016998,-0.020955142494301346,0.07903362039131273,0.06639259354743951,0.006396228155000475,0.05476575970408054,-0.014740096024338456,-0.05268573256008598,0.08098605397468361,-0.09456291165951054,0.05006208764459674,0.034084895057125364,0.023674176676459255,0.0617828620236239,-0.0997611433433478,-0.04089615256779738,-0.09863427742091263,0.03241492286671588,0.01888455133639355,-0.06949595596408109,0.04653979252387899,-0.05230919147962237,0.005332199811249133,-0.0004215254614675368,0.056137753893821224,0.09696581849320657,-0.016035669305954417,0.07811365698853759,0.08536208764486886,-0.08358741177929666,-0.050624060700285606,0.023954578936809634,0.06431340222740398,0.026591698459158458,-0.03364861169502223,0.052142814301279566,0.04643981483197007,0.08712154466132646,0.09270243662087405,-0.033596751029812036,0.055172557827043195,0.07043793431004283,0.0659192796095022,-0.027126024907791466,-0.05095170408330812,-0.062220464150267364,-0.05831698009407896,0.09004786986392074,0.06501248069682225,0.06711642461968284,-0.01056270289110861,0.06879037447682798,-0.08867980788605019,0.036800715537724044,0.020213791244982862,0.05637406864399086,-0.05542370591358763,0.0018852115148682014,0.07899084677028465,0.07172613525383525,-0.00968979799976881,0.016700252295219806,0.09879754635362589,-0.06532189755936875,-0.05836951565663924,-0.009567913176136991,-0.011014065777185417,-0.026096083780990625,-0.09650163035566979,-0.010488496328454083,-0.06831630568989083,0.07168531432911826,-0.00991631728047171,-0.05272910823180213,-0.09173075750161562,0.09611771776420977,-0.06367337674563145,-0.08322978150521299,-0.05726067586496062,-0.04803359230979916,-0.025057633764693762,0.07405267067279139,-0.03439033999316532,0.07268752956494481,-0.08421232011492581,-0.04791298418151242,0.05682071164883304,-0.024916712101961697,-0.003674424789603628,0.06377351499032277,0.08618610094170162,-0.08650122267451997,-0.06570605040217843,-0.07194895393710188,-0.09042576260408791,0.03940636675176118,-0.03401915624064525,-0.026789002211286536,-0.0727836419017221,0.043209720236067506,-0.06584039282319173,-0.0749674792375147,0.09471422317390568,-0.03730500775324504,0.09350781586688547,-0.03130182541424986,-0.010445985417883413,-0.06319884931122584,0.05031079617040715,0.0837120093366703,-0.03075845093504058,0.09615440946480167,-0.09019615865612361,-0.08432802557356278,0.04770429704175724,0.011426102221497064,0.027161976640798224,0.05750968382533794,-0.0289383630577376,0.036369553564974455,-0.002062812587341159,-0.048408156137612846,0.007449407392788737,-0.054336957939051495,-0.006581321048323208,0.08606125330128403,0.05273260224657336,0.03588874125321126,-0.09106882413793915,-0.09003911451037686,-0.051324403369445375,0.07611958549963083,-0.049731351599253196,0.09099998580094396,-0.03238351048936164,0.040116326705877864,-0.09310656039282589,-0.09816915374666704,-0.09080765498448398,-0.08056118226580976,0.09119224929758873,0.06846809149267971,-0.07877932174001066,-0.055799296865106256,-0.04529433987348766,-0.09725333875340492,-0.06978284678252251,-0.01878143468752791,0.006598283664904073,0.07242326526929746,0.06976352075234779,-0.014661385151286857,0.030961817685011717,0.05695357858579922,-0.04656804980241241,-0.04108081644627535,0.030205433175685803,-0.03663844281974611,-0.08116476350755386,0.07465197788548261,-0.005105624872556946,0.005446685020819603,-0.06942532371648569,0.0995078161712839,-0.09356781054868067,0.09167719059321922,0.008285425709693858,-0.0774264783602639,0.06993062244899942,0.07974471176660175,-0.011074194002651,0.0004121240720985353,0.028411433617697546,-0.04870507562045017,-0.07831789308428361,0.005502562355248125,0.01184285268325072,-0.08725990093124017,0.04650035028636407,-0.08701860836544428,-0.005602154441741905,-0.08265908870216641,-0.09310427614107045,-0.050498174032585434,0.05912259537514225,-0.04322499082989313,0.06970917243159849,0.06471454274029825,0.03260681004249483,-0.05991021411200501,-0.07745528443455646,0.035408730385542514,0.019390789570653502,0.055981135904773244,0.06295337492766637,0.009232506991874126,0.04045294842837227,0.01854596839692993,-0.039837019417210406,0.09244011561147966,0.01770075108662303,0.033185371003500524,-0.09165228662906198,0.05239802266221685,0.05886607613841749,-0.0072300217724606125,0.04219565270626063,-0.033388712765673303,0.024731974112426558,0.05741659245462763,0.08821538713073657,-0.06623060613518819,0.06670624602139857,0.025718793484001023,0.026108086232856265,0.09938972920453285,-0.041373553929550604,-0.01986120959125484,-0.039833942445692744,0.09725054888267226,0.06623771799695963,0.09971136601901517,-0.005342915682605656,-0.05191489416773068,0.05895383765789117,-0.06329663473767858,-0.0925743642094143,-0.017045232608529443,0.005545023433568594,0.0055714136819956794,-0.036519593536691194,0.038833426247031844,0.016883099334199514,0.020758172522154394,0.0706224724162488,0.043375708303613314,-0.02368288921124781,0.0492178640090577,0.00857498728499513,-0.06111272655511875,-0.0835037261078274,0.04572800771039756,-0.0912553108101319,-0.009527883101900378,0.031099745968831805,0.03234117414044552,0.03150145113632519,-0.049328151396360556,0.07445782394545844,0.05348960610499895,0.03499977713858046,0.0014149418084672821,0.08692833181307735,0.007219587550899659,-0.07077740969145895,0.0743897602148958,-0.012460940575705015,-0.005507378564101412,0.08686278250706683,0.012336655929150633,0.09600655085139098,-0.03360302253545418,0.09410544297067067,-0.019408019102879287,0.03327931421283256,0.09299925580440369,0.07163335642520105,0.03599260313493832,-0.019399041542596057,0.018432135299108948,-0.061995804503631735,0.02302445335626531,0.059926761073938434,0.027005037406641202,0.09378746163600829,-0.08499686009930736,0.0400646466608498,0.060572257151522785,0.005774774378726949,-0.03961056024233903,-0.047267265497334156,0.05904737900972365,-0.04617655520745872,-0.049020224383130855,-0.07153767096555286,0.09871351719801505,-0.03615761628772694,0.03289445220803028,0.0441507197194802,-0.05402762979327824,-0.0005374877588341792,0.05459749873562236,0.07787494324062724,-0.011314688730391792,0.03873843323964016,0.00019887684098920944,0.061113963751162986,-0.023040189460294874,-0.07659273134531604,-0.08124772140888399,-0.026291381289448842,-0.06407896234389772,-0.04171975032385622,-0.03502795590353669,-0.02610201640610535,-0.039905466336489594,-0.01100617438902178,0.029915498609502045,-0.017279231781316046,0.021067154164575094,-0.0602776361486566,0.02904021677713553,-0.09243599141561609,-0.034612060847904136,-0.0963860913963242,0.02589825056255099,-0.0591874645755087,-0.055585503448556534,-0.07669687994750718,-0.08141361401296728,0.05105046339395833,-0.04462217361714904,-0.024143927064294288,-0.013375665513067195,-0.03269627774357757,-0.09565679562949776,-0.012246325650381973,0.07092033529540079,-0.09360645896166707,-0.03241160443741245,0.07247264925088046,0.09940584358085719,-0.06866817653951518,-0.08728690759568694,-0.0920207861364109,0.07381768584173418,-0.09656593932249935,0.0844185465299046,0.02099106916444224,0.03441559733167629,-0.0818061769772215,-0.020547802211202976,0.020886130241836567,0.003299324147757507,0.002862778819926165,-0.05827601171616022,0.028880179463834088,-0.012197091191515727,0.04683973900144284,0.006628660224693703,0.09501784907922481,-0.01842792034789413,-0.024383336934538577,0.07684677704374562,0.05703651572798227,-0.09547082526395148,0.09297874536261971,-0.015459871759008786,0.05459658101438883,-0.02871382807911682,-0.04639819163951269,-0.06683671211590184,-0.0774121878640183,0.04957542321010172,-0.06254764273755353,0.023384395103064295,0.08827759705520463,0.06700232383064147,0.05942889362646106,-0.05403382358233566,0.08365783579225844,-0.09598719325892074,0.05496745168739678,0.09373467404062508,0.015007225043830008,-0.05070218136702107,-0.02097677415946668,-0.04113103110449559,-0.08776144458394826,-0.0691797302423674,0.03698750577409077,-0.08118749929531983,0.035886185271318094,0.016451140842925135,0.09526533605547538,0.06293932359748769,-0.09111907786201599,-0.09861265737616508,-0.051172779893358916,-0.09691435123173925,0.039804915531224117,0.06567900385763667,-0.003111229399342455,0.062390849086802785,-0.06406655329883422,-0.09150298595691071,-0.06421718851484931,-0.04563110773010979,-0.06364071734890425,-0.07868248879970713,0.05362479861770586,-0.05126339564483589,0.07926015947152734,-0.07565866924397012,0.014204229071793056,0.01684645081369722,-0.03058529267451804,-0.03713545066436548,-0.02313764254583961,0.002152728018398248,0.0823337703664612,-0.03934119033898092,0.037587133157508695,0.019436364815514293,-0.09657508493156067,0.07875078472767166,-0.016275458787335273,0.05316243801995815,0.006810803051084807,0.03424398641506432,0.00801013458572672,-0.025503498775864927,0.02879336777625735,0.06730372196873743,-0.007113551163138693,0.02800229333794052,-0.011858279624451601,0.057017638080695016,0.006795586138613835,-0.06734573446835976,0.03407520015875018,0.08634419383430378,0.012108241673756084,0.019638860778280615,-0.04790630210850542,-0.09651909079405536,0.07532804298832296,-0.032900194697551746,-0.09625448637664125,0.07311847222362464,-0.08657971244426502,-0.02592969846664915,-0.07786878462585985,-0.05838728739545145,0.053414164925945334,-0.07845590039820008,-0.024646223925598718,-0.05815983675423131,0.08411997302072113,-0.04884663047994362,-0.032090835122998,0.066277103176522,0.0110369034293583,0.057584859390255094,0.08260480464404404,0.09187689845756047,0.06965806109049347,0.08290549600442418,0.090066179569817,0.09687788482737064,0.004029662114229143,-0.05952563095027896,0.06874346006496018,-0.049640858980042384,-0.04356193739258925,0.012933452755613487,0.05698946757568618,-0.0586626610551813,0.032345559402125745,0.021543804799119923,0.08934080248306817,0.039394509755712015,0.005824551777016837,-0.0386374781771488,-0.023406961013970662,-0.0352982976600658,-0.022208043024796537,-0.04147613250372251,-0.022663030806252052,-0.036239989543987106,-0.08211672938203313,-0.07435179049329475,0.04464782498476855,0.08097553988142611,0.07542293456125093,-0.01630997090514183,0.07664596596135395,-0.04211933967372903,-0.08105089040473815,-0.018287016492437316,-0.00048393568006872834,-0.007508409714232167,0.07238399233060097,0.05113365508217704,-0.09298920680287331,-0.03502275813566867,0.00748095100967508,0.07735888782013345,0.01868402523294073,0.004283792159755162,-0.09799583346994352,-0.09323761675128872,0.04652704541637598,0.07092678824342707,0.03195252636512974,0.03515048440655724,0.03819442984561286,0.000017952993066797096,0.0754673229472218,0.042341247605195115,0.0342241782282072,-0.07740190443119102,0.029732660480024153,0.022806725673511427,-0.04370858810666345,0.026976828744428,-0.07630670315731258,0.013720658339034492,-0.061878610875059,0.04590936684552843,0.09215987046803573,-0.008003297916522364,0.07123519577986367,0.02876593612856415,0.08350114955644075,0.02360717315593179,-0.05124767703648967,0.034255298983982996,0.01595844601591137,0.046027302444237334,0.001635975313002233,-0.02643404210285767,0.0013628701396887904,0.06196639733875095,-0.05111369621188087,-0.0687753631488485,-0.03898911600943436,-0.06911726252705752,-0.02677927093024461,0.02499507118576534,-0.035619412103001125,-0.07717784563487329,0.018199906476122685,-0.001092561220091784,0.06162682390097518,-0.0864168255303707,0.06891900560867734,0.07886775012762964,0.0052011444063732315,0.05894789232750372,0.052381260700602755,0.03004127280468133,-0.08285781196444636,-0.041744845110620425,0.06678575867866479,-0.02450510572133538,0.08478695418449722,-0.08612902780482919,-0.09820039945128833,-0.0637333521972709,-0.007917322541697039,0.06982987710058014,0.08689029352239142,0.014317584153737253,-0.08730317356311385,0.09318441956020448,-0.030578994107680793,0.08940967685166865,0.05256249215034092,-0.04874551415800728,0.061574493094734895,-0.09902155014099989,-0.06263457493698965,0.049410474171335844,0.04783007374720097,-0.047889543514241996,-0.03904232029591342,-0.0672770890661068,-0.054148474971072336,0.05339695512543857,-0.07100071767931554,-0.021464833681177575,-0.03935977669215225,-0.0738539350526283,0.03608975441002263,-0.030205061920229384,-0.07649977392304264,0.03071965836174298,-0.04789513472723575,-0.01588637767043659,-0.013815998610075125,-0.022854867183405944,0.03170455091174912,0.016846094723958108,-0.07594648739002743,0.06109792467536476,-0.05974217293114181,-0.090442309622942,0.05110082854804446,-0.008629834414727228,0.00966879272846946,-0.027558682382072736,-0.05841927291971186,-0.030380626708651978,0.07236919121259838,-0.08232158931073826,0.09692578800961857,0.08431594295799671,-0.05227763545411168,0.09812034030288519,0.07079530777932855,0.04877875397284076,-0.012275699881902954,-0.021049570307609594,0.08405355507327847,-0.026423455985866748,0.012409001154511268,0.07616033808152409,-0.005544442064637639,-0.0381351530689936,0.02139764391867005,0.006231361738160232,-0.030869782578619095,0.03658324000950963,-0.034849428157671544,-0.06579320334225058,0.037814639986297915,0.04965868005174395,-0.08152033915591526,0.09861802668887237,0.08274413744846948,0.05881064208201678,-0.07326420713343343,0.09439100320750324,0.03253016729572805,0.0781254155006684,-0.03704455320503364,-0.04722433000030586,-0.08308186159031515,-0.09493010311229733,-0.015349005289101478,-0.01638247740834116,-0.04948511654057391,-0.047410818665544335,0.05146087156978468,0.0329807296110268,0.049139920181679037,0.098272567982748,-0.00894140678154827,-0.019470364480026744,0.04520631974853581,0.026168924305167707,0.09350734885098408,0.055109869958697905,-0.06886776731837219,0.016593003321728167,-0.06422356514245706,0.03212183808711533,-0.08926386827101163,-0.08598212898986311,-0.09588375504269071,-0.0986266248218259,-0.057340989467826245,0.07463382198621252,-0.06789500001777689,-0.04979086962531581,-0.005202927867497431,-0.053212234630749936,0.08448886564626631,-0.029445204416348153,0.02031836930044291,0.017221139394810694,-0.07286928078985994,-0.009285802554013317,-0.030715969189771777,0.07285696281498175,-0.051229172564248505,0.027879864028464096,0.035289935842108516,-0.07830512404190455,-0.028570074817349286,0.03735303648080013,-0.06787619451002072,-0.014437857818931879,-0.011864229522317166,0.021706996201055567,0.01814615608483043,0.08781790827611566,-0.08097399232409681,0.01840045018155756,0.040284838109623466,-0.0956002392675106,-0.050006627865531075,0.08328147248371418,-0.08506931182366394,0.08406304888546057,-0.06153224634066095,-0.08338756157485175,0.09257672728230357,0.004201566971271609,0.07626170911655894,0.09184881635616624,-0.04008312106397449,-0.03749713857602832,-0.07995252999639453,-0.09690856130140175,-0.05220872080591108,0.014083533727528824,-0.019616103652939018,0.024581315996110215,-0.07497616881822969,-0.02637067364728063,-0.04725009024777678,-0.0868208794406641,-0.045056417359979097,0.04752942092147516,-0.06330019678098128,0.013070637616257444,-0.07711178192267845,0.04916965368659465,0.048584772004792054,0.09813361988983932,0.09089886293415123,-0.0667646190419274,-0.08884139962323974,-0.005486317327988391,-0.09846112211040162,0.0701737739650489,-0.03538963128035309,0.05694595284969203,-0.07893061913523312,0.04851513332209026,0.08247098819538584,0.02138856753404697,-0.052328563752797846,-0.0564717391819499,-0.060504222531722586,0.09822588078179972,-0.02151898652252196,0.02304601041551231,-0.08039608136797707,-0.0555936615755436,-0.016939345529881106,0.008178501563217644,0.009177893407506188,0.04949740529978444,0.03478132866409664,0.0067686252769803,0.03212375288257033,-0.04737236078453853,-0.020313654901533335,0.03395759083102057,0.044314618667321864,-0.0841760339560354,0.008032257905021462,0.03769721076377475,0.0461309004584661,-0.006062794106236419,0.08452810402872443,-0.08421331905541028,0.0324242077026482,-0.09165897126762244,-0.03218978875235083,-0.03139207402651878,-0.08433640309329588,0.011174763733959425,0.02479200287371093,0.08858731426609806,-0.013368094427747626,0.03806123692008484,-0.073241045382473,-0.04692103933312804,-0.0015802336333968492,-0.09488638492511084,-0.010419236070535118,-0.08846277395444258,-0.08286320686923787,-0.025589187839452965,-0.08055171235912023,-0.041664151694479214,0.011050673854898815,0.0749215750305853,0.08606493232601467,-0.03354545225221886,-0.06215730191798668,-0.06913020538650505,0.03924861892243073,0.0394326690514947,-0.03442589241450676,-0.014094187704314587,0.027736328026830293,0.07928567014340815,-0.059222137640961896,-0.033580931082201865,-0.006460863442698667,0.09694928019176463,-0.06962712726251362,-0.04097791849892079,-0.07517670116250597,0.06049793009922497,-0.01816408526679396,-0.02989500493878304,0.08364976945167749,0.07654308404833107,0.027172059343559513,-0.003942841579015963,-0.005126784688313485,-0.09463352247852641,0.011046606863102729,-0.06703452396453465,-0.04384866451197387,-0.012878795706092475,-0.06183367283666685,-0.08190645825702557,0.08409475575449463,-0.05610586093317669,-0.055634347723747625,0.0433259642510333,-0.08118717541919605,0.0828114347312959,-0.009196457762737517,0.030043068374857235,0.036110877062904334,0.02008636890842394,0.00461009193946435,-0.07238799830377159,0.017108999277017742,-0.03556170694949534,0.04491532150270991,0.08724654107859964,0.04897500202540367,-0.09862317656810432,-0.07012691695896384,-0.01689623711319288,0.0824441781549071,-0.05742650523221036,0.034437250632010086,-0.00712677873401639,-0.0818454134410195,0.0958382879865555,-0.023648193716959698,-0.07064182911326866,0.08169940179785554,-0.05486037741841661,-0.04812699008669479,-0.059004303856828914,0.06730527556231852,-0.05268152322875413,0.04574750335563901,-0.021494502520931297,0.07164744978014662,0.029762967562307008,0.026218288241425636,-0.017037829067057017,0.05528623497991367,-0.044249998476863,-0.02224919188518451,-0.024498765784589344,0.07599642122328443,0.012402493378949456,-0.0064528731284431845,-0.0722684122427395,0.03346888942720008,-0.023772682689733052,0.024660497091675726,0.0566757618564421,-0.029997218656162436,0.08992027703784644,-0.000346490865737209,0.08860316050966302,-0.04454359513693942,0.02778175550042747,-0.04819904048050705,0.09577977294776222,-0.01849708254282692,0.07049113318655015,0.05369192833457831,0.0046706893292809415,0.08547147290360255,-0.008612484856069316,-0.09708477547500177,0.07392421893643886,-0.022919698383214865,0.03690262893266602,0.05117078036391254,-0.07213042577499432,0.0822518382492059,0.0783756040206067,-0.09688343386990815,0.019732486410176928,-0.08131413096712592,-0.002621605734712998,0.02362585624017277,-0.019317422625075895,0.027043513448665513,0.0051205682470068375,-0.035746821804280945,0.06812534720736196,0.08086704949176685,-0.02849235056464465,-0.09620727793120523,-0.08447315300724823,-0.05620099456803103,0.05174822113877697,-0.051933334474859684,0.040897189008977014,-0.043063038443224726,-0.05238817239960687,0.08813248383045491,-0.03398520044391483,-0.004655638755713551,0.07996071142316358,-0.09991120236716121,0.00858187753077315,-0.06410452474082842,0.04759095457406812,-0.09187287514425715,0.06617844836641695,-0.05196691500196269,-0.08476611506677978,0.03482180827896442,0.00010261825255541979,-0.030560090188232622,0.058800895948383586,0.044747330960851844,-0.08992311546164428,0.06940354245436292,-0.05274778662878972,0.07432837364190764,0.020661034120303914,0.03148960694341468,-0.02861808793863614,-0.04826272610146205,-0.0709146697112387,-0.029064232788802477,-0.07354512151367776,0.08722503175867319,0.048448104803508,-0.08736584713743367,0.08579911337092092,0.05980971745958405,-0.045553673537180164,0.09230501719365658,0.0179322362840197,0.00004650017084069369,0.0902117360274983,0.044334898271596174,-0.026261051939910282,-0.01744918648377998,-0.018058334941687765,-0.05290990979566179,-0.055651290042358026,0.056521713149615904,0.09816316996459803,-0.058990009646027325,0.04009184115663059,-0.07388147034040947,-0.095100772981107,-0.06174413139177681,0.05926036550603886,0.09835027703336394,0.05983700163145317,0.08776963157461584,-0.046561542246385736,-0.09445936338835526,-0.020241606749941132,0.014857615487885223,-0.04393994620193094,-0.08013180523812023,0.0872768923347565,-0.06501679093637916,-0.070347850922753,-0.07358088977393679,0.04112998199593201,-0.016230523617654175,-0.03872754631295199,-0.09082443204349913,0.08382754695385985,-0.03785488033949727,-0.024526664867575126,-0.053514243942875475,0.02989234523115472,0.0850176308490192,0.06522457149091762,0.03601780420483425,-0.012422797273834746,-0.08152190435910028,0.03738046583907134,0.05680244508383955,-0.006846057173294048,0.0465799403483011,0.01723014176541446,0.015610020721988874,-0.09945239401393353,-0.02183052453909369,0.05047549035028043,0.005615383463487958,0.0025025625120397993,0.09475040358209239,0.06755805633570944,-0.044561027532974064,-0.012830099300724429,-0.013100010882272306,-0.013607080923852127,-0.0017306455021223466,0.05912793036517319,0.02838462930798555,-0.057993869340502484,-0.025368599380312468,0.0451613411859714,-0.06615470290084154,-0.04380745248829557,-0.01300364880171552,0.05471152858709774,0.00467397105649478,-0.020146606142238316,0.07976318735711169,0.05358993297247869,0.05304896619037969,0.03582544173274646,-0.04363230824602358,0.05205774625155707,-0.02530328403182658,-0.059499080197235314,0.09437881136337833,-0.06764959197828331,-0.023030660374732517,-0.03552197493513587,0.019751553896758714,-0.0781782709523594,-0.08913922435812634,-0.05486962813384877,-0.00019760253230942382,-0.04485675824741389,-0.09411105742279449,-0.0014711837908725628,0.08532937695828116,-0.07743935748601918,-0.0930277905988525,-0.0948985975245471,0.007852347412733302,0.02115415462379011,0.04720740110319682,0.01786099911740964,-0.032957721942384985,-0.07048300454281381,0.05616763624352941,-0.046095546056818475,0.011359340606622179,-0.08470068382168683,0.01394330650403268,0.03747600926828004,0.018263800563805305,-0.060198882412124455,0.036236840374164914,0.09021528040084378,0.02804049024007016,0.06587211982524055,0.037116457809432346,-0.0878112872498412,-0.0050502244722328005,-0.03456028589479364,0.09693390835157131,0.02207595162401907,0.023942370954793943,-0.07786184793185741,0.08163313100936895,-0.055386385130202644,-0.05902009578279262,-0.08484182839819265,0.013895914468943005,-0.0944341974765382,0.026933652959800686,0.03932363164586969,-0.03182825897304871,-0.057155015173798285,0.09077412025973436,-0.07349058182465402,0.03986305812442531,-0.03833003363749996,0.07107029578391338,0.06275314351743094,0.03024481494372483,-0.011394205092922632,0.06708285169060094,-0.04500911820340199,-0.03811979975015137,-0.013234312074387855,-0.014957891423927533,-0.07004750531556155,0.06912154215934294,0.032139465430958136,0.09508353111971296,-0.09021888113127852,-0.06185116659993861,0.04423024972676823,0.01976231388266876,-0.07768412207747022,-0.021775141704243814,-0.07750788541677989,-0.02136405558350303,-0.05910624069789763,0.0139862223704795,0.09034723632654235,0.02050447465791075,-0.03182805986379665,-0.008420132302818933,0.028403149824370588,-0.07203152217333374,0.03214007147521819,0.005025194894477419,-0.08947348225309759,0.09470275513809706,0.06936667919453116,0.03212466230328079,-0.07106289531305068,0.016674608265792076,0.0077917354375312,0.018427749838041588,0.018372040458076278,0.07874654782096388,0.020444123838075395,-0.019953343383354527,0.034321777342882054,-0.03898174750823938,-0.01361299858091955,0.08794026354755766,-0.07106903440423334,-0.02237906207820642,0.07226627526599505,-0.003283275613915171,-0.0696988270374348,0.0905539227232279,-0.051272123262078174,-0.04199276889183206,0.05663183734389418,-0.09543283031129834,0.03100811211023985,0.039154280695289895,0.04917647611832435,-0.03730401559151786,-0.05877768815392073,0.04453308762089522,0.09302293291913508,-0.06271358596004761,-0.020338907032967007,0.002103791555128784,0.07718478538718296,0.06774859899877336,-0.046845395283726714,-0.03387622136886029,-0.047847651187591024,-0.08688339530114685,0.06900281796931718,-0.015981145474974617,-0.05361501767841519,-0.02540505695695776,0.0975022446857981,-0.015002410755296985,0.09749612455514339,0.08455070339774476,0.03293813473653279,0.038835785118101734,0.015381658493017841,0.06838394526581718,-0.032454562485959224,-0.09008912822084221,0.03215635723114718,-0.03734316277780057,0.059682175419163846,-0.054230204159044164,-0.027232514466083976,-0.01890295156902702,-0.0917409798343349,0.0575928203453791,-0.0515757051829524,-0.03029828589001614,0.0819929122784264,0.0808379982600744,-0.09553271319272252,0.06015578119786147,0.010939130951952467,0.08967201053206933,-0.025879264229601212,-0.06271444229123198,0.020918963002055202,0.08232495649355256,-0.04955674175000096,-0.08574839590494886,0.019118723131173174,0.09496089102942404,-0.015729636489690793,-0.05565928142512995,-0.05199849926574834,0.06407143307770413,-0.05031092232982748,0.010279565144971275,0.07135946627815529,-0.018912170773920906,-0.08304437355492884,-0.09551906798803614,0.06814357616631628,0.04926490299105596,-0.09841489397916821,-0.08858136090926437,0.011509174801436914,-0.0012526334302384312,-0.017185237327910358,0.013324962955147873,-0.04446831869505333,0.08969799788474586,0.010117158089885295,-0.05096429842434707,-0.09679451232476027,0.010494598728836471,0.05466144726135744,0.060997429587904384,0.0587065141999453,-0.08656092559811152,0.047994715955498535,0.055043129198792146,0.0879592329797525,0.007255644878868539,-0.0962904821456831,-0.08807448005927526,0.06355569682380988,-0.06410288880153114,-0.0540098036462299,-0.026981341572337766,-0.08691831466625795,0.05258515096939345,-0.006645690969729889,0.09578980776688284,-0.08934702490939755,0.022027529989606803,0.05864563384278185,0.030275327594662838,-0.0030831939611161846,0.07578013000200987,0.02512666475815148,-0.08314035410527221,0.09707573435451225,0.098311512645222,0.05811318863874204,0.0419925599782312,0.08846265658294702,-0.09443281432131344,-0.03699191512631504,0.07573687094815984,-0.04174485704631055,-0.09637858484555371,-0.0009761238422273666,-0.008763009802885954,0.018325113582966956,0.005444765304167737,0.08376651125888981,-0.09608677213065975,-0.0738621409140662,0.042119190460691625,-0.0375146747698941,0.02475104163291371,-0.04742646617090127,-0.0415558388167399,0.038196500112491705,0.0917599910052593,-0.06699332556574542,0.06810614935273449,-0.03656431652447467,0.036851915764148924,-0.07090077505732909,-0.07105759495702252,-0.02826842123803744,-0.03883508876179401,0.020517674512914447,0.09850273910087998,-0.07445185067531859,0.06491852691729996,0.060252693678913144,0.006286802449131865,0.048397849554625866,-0.0598675209160529,0.0927518018819046,-0.07751744766136048,0.09364057299495077,-0.05932954277008267,0.06545250031970781,0.08310583463863055,0.017038243570874384,-0.07133638522757231,-0.03579312920360152,0.08247888616793383,-0.04366704704702271,0.06322614831982651,-0.010489909562167471,-0.0630898781179044,-0.025425147201256104,-0.05617590610090009,0.005382294961957884,-0.011392787655721687,0.0899385221975065,0.010419717198926565,0.03948154608869303,0.06955778346004268,0.07152345453369158,0.03516092171565424,0.0506689702390295,0.002204470575611822,-0.04179672207660841,0.08354154367478794,-0.06792966301126216,0.09082442744474004,0.04353213211708912,-0.08293989697716948,0.05768015059192977,-0.0761469958727215,0.034657160990223146,0.011859872303864316,0.0877324315376995,0.07029463301858985,-0.07539451752597942,0.04429016269881378,0.013294040875415497,-0.03382491307186171,0.03313535220537417,-0.07091705120700952,0.07154652289079097,0.006781094671745258,-0.09594375346453998,0.020619554766651713,-0.016276502881673774,0.036760073756710365,0.04556005191188914,-0.026448828762759558,-0.038888616506753196,0.09142680417579463,-0.02098294192397457,-0.07185069153404089,-0.03221385307444043,-0.02953870048835215,0.08634906003748652,0.031212502777882956,-0.044958533446291415,-0.07728550917531347,-0.09287903180442121,0.011106695732313071,0.0792484871319433,-0.0919080491903034,0.04370118528982023,0.016956102464992726,-0.04105178609566256,-0.05891646982881702,-0.0008123996026904445,-0.04540796994056038,-0.03246576381778925,0.09660939146511863,-0.04612659469839171,-0.08418103528687984,-0.011361034404039488,-0.08943997030013576,-0.05321170598558536,0.02869581520413736,-0.00626663503068596,0.03311355298173463,0.08551261294142029,-0.035983758725782564,0.01865611559580982,0.01582590809863542,-0.07911704636965618,0.09436006700150776,0.07887573471592743,-0.049169727526144104,0.014711638546956035,0.01647750323500108,0.029278916909504155,0.03807918145345934,-0.08695838508860812,-0.02451905583124811,0.07959392917161187,0.007848480588869361,-0.05418826479722516,-0.034738511201776096,-0.04990736633586077,-0.05678237392576753,-0.04146846744116344,-0.00674502868068258,-0.04219187390914225,0.053929533553072645,-0.07757484972482911,0.022721552611970355,0.015832395007382427,0.003348766534299233,0.06630078127389247,-0.048341677893909245,0.07442362593059704,-0.03979835271275012,0.033538114378830614,-0.05094277875051909,-0.056952302444275564,-0.0926638785132091,-0.08148506201698452,0.03183387073022631,0.02729228514153212,-0.004467147192062981,0.042546551405384075,0.0724522658056532,-0.05591700310258463,-0.003998127170981247,0.0937705766666658,0.09905734678843592,-0.02713682298531879,0.01312685752281921,-0.08137196848309665,-0.08684672977384036,0.052633968562152106,-0.06564316344527263,0.08415288232141652,0.0024071484170672675,0.08868751940158104,-0.024716370169354462,-0.019094267425262185,-0.06897649741246799,0.015837937985677314,-0.03276802901142775,0.022709914053097607,-0.06280871193955115,-0.06179842021471687,-0.03342365411894903,-0.03522531572486716,0.011372998549482372,-0.04429084776627819,0.08486112950941313,0.03060340222341304,0.06387070684165339,0.05794297472334295,0.09436004653390037,0.059330589916477966,-0.003730332338379355,0.019224170010513214,-0.0941309013857711,0.04021440075862692,0.0779490792771301,-0.01815055850728524,-0.009504641645686054,0.09933120898778322,-0.09256800338962799,-0.03328701934729038,-0.04401288846466649,0.014783557421167437,0.020144158544909405,0.09961212423414731,-0.009522212080173814,-0.08472848381099692,-0.04279324589537592,-0.07365954015820445,0.09825909662533144,-0.009780730638105958,-0.020721904946822398,-0.0874811714490861,0.004506057943180458,0.06179831724253046,-0.050422701473565784,0.06781262143405373,0.0629249147665937,0.027713483930947774,0.07251376960098896,0.08851004122987513,0.041462964179596495,-0.043495842681291655,-0.05979094680115158,0.062324054018033065,0.029993868740855134,-0.048380297190413174,0.009278710805457765,-0.09740454950920388,-0.0857607362700073,0.05901058677682311,-0.022211320212139674,0.016924443039251183,-0.024697672225119843,0.09959471389624339,0.05074137634406989,0.04388416826949765,-0.07348936732323459,-0.0014118625561246184,-0.08139318401705298,0.09478027434948624,0.07096681622660067,-0.02495232572385589,0.08268715599675988,0.020837684627341216,-0.05274849097452288,0.013342308012870424,0.09797558280895133,0.09261297592997164,-0.07411383007563704,0.08010106970399766,-0.09251667940262648,0.050807488000787576,0.055465250703542884,-0.08092735768415477,0.005314590121155621,0.05538362540861935,-0.035959412321585615,0.04206929197936446,-0.0414705602074263,0.042913892244461016,-0.042885574029106976,-0.09838955939607752,0.05720160061134588,-0.09542016485033607,0.09991137729905453,0.05752182981640505,-0.09429805155097513,0.010108333013139598,-0.04813656473182633,-0.00854844141247657,0.09626316725765866,0.07669868896589294,-0.015002679825856596,0.031078907322078575,0.08759260350262316,0.03549213233893295,0.09238019079925555,0.0744857504347014,-0.06267877762883925,0.09160325604754813,0.04507630895782744,0.08883892402901777,0.03792858268335825,0.07167547383338388,-0.09898614008563089,0.08141772869537453,0.03159182579805314,0.020583340661097127,0.01809016834357599,-0.056155679463668666,0.02820641612428182,-0.05130786251932671,-0.034428449178465215,-0.02971301080857676,-0.02933964012405968,0.05425536708843129,-0.08635472688576451,-0.08688327727931063,-0.03146419658392832,-0.06479125380224922,0.06528239063826743,-0.018562576550800222,-0.05515541172605665,0.0932175421981285,0.00019855575615168597,-0.02464465054136991,0.04780995972836402,-0.05531525690765848,-0.038091115665972855,0.011150342007978195,-0.04807870425104426,0.05070572709402171,-0.044798209678198656,0.09972931433807353,-0.03982231811940662,-0.03394037526699627,0.01699806150428311,0.046089813383342865,-0.04979025407275528,-0.005603198327737147,0.054837313624017864,-0.05832887536621909,-0.09899101523835273,0.039119887654819385,0.09950485303376652,0.02433984320964014,-0.06832106624895902,-0.0006324359617086162,0.08375905684310134,0.0635901346435794,0.07270848407085503,0.06255763923138855,0.06354058074839211,-0.06639776049588804,0.007091863426036765,0.08025284454034495,0.08685706012189606,-0.02391359074167676,0.05161642797277813,0.04553812978192853,-0.02409716514365287,0.03595617956103586,0.03987800225274657,0.09401066903206176,0.07060215789108351,-0.08179916039229136,-0.020370730829331413,-0.02580241449230858,-0.06517076312580819,-0.06365992168944237,-0.06867654055959234,-0.027691663031695374,-0.01766273671073182,0.08873773404053206,-0.07523515724221648,-0.09757507194426172,0.09880613787265596,0.04994582506138506,-0.022670257397198634,0.017282257432150727,-0.08736205640656323,0.03618569990663634,-0.05859725534295288,0.08622986557317933,-0.044256872149128816,-0.05733403005561413,-0.08410912305682837,0.08868855651517782,-0.03435672341785238,-0.02287556986103527,0.017333470221854302,0.0948720119237487,0.004854884007844659,-0.07692933542938296,0.002859284429894998,0.023374206084929933,0.05279765104922984,0.05234887394549134,0.01588123888004249,-0.05583531048848589,-0.04431331360228841,-0.07219883047764775,0.06824963071364043,0.08291784861396831,-0.02358519440785764,-0.09884005196803898,0.010608633264811956,0.0031934474387665668,-0.08310545127606783,0.04943085727218116,-0.020287053243073977,-0.06053904026052064,-0.02351044506871429,-0.011950480591067111,0.022056066768718366,0.07214629566965791,0.03522516862659794,-0.0014030547451104464,0.052375408351486324,-0.029983389613671294,-0.07847742384593813,-0.015775148014207693,0.0013819692681563411,0.0051476206397505775,-0.05359457151533902,-0.033496142416110083,-0.07109920259061031,-0.06120816139190075,0.06387196131465891,0.0921322870299359,-0.03304240111817923,-0.04903436605551144,0.03434250001298578,0.07955072182258141,0.010941457231394572,0.023390584200937647,0.08640776591806462,0.047293595952783735,-0.0195444257621169,0.021448655730410507,-0.058099091432812645,-0.05146488336628936,-0.05239053304341357,-0.047935630423804824,-0.005869989003173662,0.05764360314444389,-0.09142669097263507,-0.08573395603528877,0.03979057692251456,0.022217466422580268,-0.03712376616377111,0.08038318690792698,0.005537258448249857,0.018055898197354384,-0.011818011842964854,0.02242580029650494,0.03663544459224033,0.08463247438215915,0.06423180846677404,0.08319656156310493,-0.06346525009113582,0.03999163574476233,-0.09599468605980609,0.09531681774771861,0.08380473898852778,0.010536896989789032,-0.024376886829679686,0.0140842934786964,-0.015442262198867199,-0.0639806891554889,-0.0519715944220434,0.07441603297061788,0.04021010584620893,0.09627129425456124,-0.002258692313330493,0.09473627213172625,0.06317764813021287,-0.006582450073232146,0.008562118052162268,0.08558166751421856,-0.09001371526725133,0.06067120451711014,-0.007404848443465589,0.06660935259956502,0.04057168705602576,0.07298104292239752,-0.09592263228451814,-0.004844080840461687,-0.05340335125618117,-0.016750264774074444,0.08321579852323091,0.03532866991765804,-0.06167011938182685,0.02576852043798139,-0.038057372681733086,-0.08873842931338838,-0.05449333723634142,-0.09940324505096135,0.06325426698273656,0.03704643294581006,0.07425805990399104,0.060316205121488026,0.0034938329335006263,0.06730075895534937,-0.08254437220661646,-0.08782554314684932,-0.018777873477195325,-0.0906703752518963,0.08235869421879585,-0.0051215131409770576,0.05893433839858614,-0.03670126960297192,-0.07019224958176143,0.09329881288561195,0.013540160250710323,0.028720219538224068,-0.03108171906295061,0.02344536456174051,0.03267450899874444,-0.09100435406864388,-0.01473199461529022,-0.07413507495186265,0.0004309547254506274,0.08597793608550336,0.07609277662183042,0.07615588221020905,0.039130998763786895,0.02259873667764882,-0.024310378149621004,0.06446940128174825,-0.09756717779773104,0.0009970371662431088,-0.08305921234861456,0.07973042961144389,-0.0759029620630145,-0.04029343658557441,0.08650470730547344,0.07659379367045846,-0.0635676691407728,-0.08858967961601763,0.060163376072595975,-0.005202014002152117,0.06202040564888964,0.09665831992401194,-0.00039800813281924696,0.025377022484818962,0.04190071477480012,0.04198898086500519,-0.09391195948263485,0.07060981795341328,0.04027330075134433,-0.07587061544373026,-0.05090530901061255,-0.02488801881605314,0.006971545256098957,0.04932790859516137,-0.0022237503138135273,0.09711427060021993,-0.01744536453617726,-0.005110569085160582,0.03096695343157979,-0.03393774808660703,0.00047094702085717643,0.0883447049228144,-0.06074101456654235,-0.0674065480808764,0.08274337360499567,0.06971460556469075,0.08320921563098779,0.02485890739659377,0.09591003001754958,0.06687524637358538,-0.03286792431155497,0.007781854627796347,-0.04390833693162204,0.015302149994163322,-0.02754408011728514,0.05497872142082408,0.01595846980299935,0.04048808249105368,0.09588085349759204,0.04048241099365418,-0.09416525184534925,0.033568413737560254,0.06529104382799247,-0.02052296947059995,0.09855742705829448,0.06164430596324563,-0.03727772378674077,0.022176289637297147,0.057655045635845115,-0.03525168986148022,-0.04302513633212444,0.06406701329862458,0.06364164922196874,-0.032434700289164106,-0.03942379564524026,0.022106279565756948,-0.01912053380444756,-0.025275765021530908,0.018753443143869925,0.005927837303903921,0.016262787384656543,0.06828666088018806,0.08662873884249378,0.01777830838385111,0.012833307495807536,0.07982634947573608,-0.07078193811420173,0.013040494253327456,-0.06389759580615109,0.004263609624841097,-0.032772927223451334,0.009640272344021913,0.05070393127473036,0.020391132219773178,-0.01774310074890026,-0.03145963332823887,-0.001925477148449553,0.04419539143901127,0.08309685505035413,0.07286052888000363,0.051777474323662614,-0.0001569077681030373,0.013942441715438833,-0.02224340242101297,0.027413524320218263,0.06676512702273651,-0.08198880037903207,0.010673957460683156,-0.0007204269189818174,0.08685420371425598,0.054012019992946,0.07409185368269308,0.047604595360940805,-0.06214689910428475,0.06588651059077627,0.02593691832713918,-0.07361868016654763,0.02940438506494486,-0.045261744642283656,0.04619615549930231,0.028222387280688016,-0.0036627568889357615,-0.0411884509145061,-0.0822352389382942,-0.029314594241638,-0.03699007108387119,0.052256807714282566,0.004062505240341838,0.0011315754061718974,0.03416155294494788,-0.09038362837684276,-0.09066292378174201,0.08622850783005559,0.048585358739086176,-0.09652142930086174,-0.016588669707210763,-0.08371361232516553,-0.01205956971491702,-0.04119880885934757,0.08862643996555791,-0.0914565514553703,-0.0460749901944392,-0.0028404916674825975,-0.052177997371863065,-0.04208460101057927,0.07904001232368271,-0.0008961206356651041,-0.002016383219605483,-0.034685175643913976,-0.07823033367133664,-0.0113877662445689,0.07048846867628064,0.015611433013926798,0.0546508645734157,0.007063854461161506,-0.02259675787845121,0.09452495330536137,-0.09649172813124936,-0.06718701238634535,0.03188604938013931,-0.04135032057331718,0.05419957630956462,0.04181214478389758,0.09543028093485637,0.08129667693909282,0.06506237625285119,0.048723365190380175,0.09235080791099848,-0.06056707312776886,-0.04477879713846398,0.05804325374357175,-0.08588042782946613,0.09731447488210998,-0.02001259719028914,0.08633767205127413,0.003048170204038664,-0.09110437505503871,0.03648470521055805,-0.01199705521966088,0.06898144732402703,0.08373562517498293,0.07988267856720457,-0.04099818178322137,-0.01081427177977208,-0.034141041918909834,-0.04874918530001256,-0.025938964886775787,-0.01660057172234959,0.05518221109808738,0.06003449024423038,0.047064659004226295,0.08130461007685263,-0.020419475347658936,-0.008751140652078201,0.017383496480162103,-0.03921029507127081,-0.08557995647858366,0.05930170954467298,0.058856978450710556,-0.08150336827361966,0.09300546276357577,-0.018446113209508036,-0.06465746199687468,-0.07585091167049765,0.04332183139557752,-0.006528432751182048,0.03935704411479826,0.08475751907971549,0.02201739921413766,0.08313801472450583,-0.011155111982756247,0.029413255585236386,0.09847442741066983,-0.031297904829608175,0.005683646605407544,-0.041070596035371665,-0.051290640618025754,0.018147234347214075,-0.05851389465833767,-0.04693877551319692,-0.049879017323024535,-0.036756233027279525,0.04976902787279208,0.006703796370051765,-0.06435471490298172,-0.055683121998028856,0.028198797211764104,0.07082450693907338,0.009279132341757187,0.022784277770902334,0.08203921959590499,0.08566535154396981,-0.005402978778928702,0.06117882156274962,-0.031298004141386934,0.052641815135278686,0.04533721833547663,0.04285195116885884,-0.009495203157244475,0.02062353437276107,-0.08508461232273778,-0.022987578673819703,0.027788131179630332,0.011756276447436598,-0.07084657778973164,-0.006544342530298897,0.06145672220724949,0.03730304836238707,0.04476275590806966,0.07016156101907584,-0.06852949364548397,0.0836818913894542,0.0669388136066377,0.0944518079669848,-0.025273233180245477,-0.015603890891439542,-0.022598912152226314,-0.03987118787376059,0.04137992031328186,0.05734837325352557,0.02525891082426407,-0.0932789807150062,0.045202752156249526,0.04917515910771875,0.02896653004504568,-0.034437028548042384,-0.09501383834949118,-0.019252643250426443,-0.0383241896322728,0.06283281096305324,-0.09459475002313217,0.06163995337727304,-0.09856728561476338,0.09851412725374861,0.022581138396404882,-0.016357494499572273,0.08206738506160946,-0.02818710296585479,-0.061334451065643725,0.0992181613123087,-0.0315515343950115,-0.04175694138133182,-0.043747707289381224,0.014734773489604974,-0.09449691761207864,-0.05280569992729989,-0.019703147544728156,-0.018749544845506214,0.05586306964995788,0.009438481011038474,0.026308435809054315,-0.016650691314837027,-0.043697749576765026,0.016075271626374163,-0.04467574093244502,-0.0504104280177701,0.008342479776667619,-0.012131194755427052,-0.03721287215808382,-0.09426903379279286,0.013796480222599827,-0.09084481051104994,0.0668422528245198,-0.033075748698359636,0.033574405388611506,