{"encoder_layers":[{"feed_forward":{"w1":{"v":1,"dim":[128,256],"data":[-0.007907096612235882,0.042373680257096834,0.039250194724782694,0.019748544913703696,0.0915692725974656,-0.0415742651574902,0.09729124207429786,-0.04635358430846311,-0.07535207621185212,0.032670862013534134,-0.00672547105070809,0.048319000930171094,0.00838298627019083,-0.08191158350047358,-0.0173992207908527,-0.08078478234531118,0.03145855254547998,0.07497417390313225,-0.017350519351499043,0.0059997417283352535,0.07234416000023737,-0.0666328494773324,0.07463525478011858,0.01969078997475053,-0.02716429252059988,0.031163941968813922,-0.08600377459324762,0.03591040500917858,-0.001609370712287818,0.05953712366770169,-0.019629744517818185,-0.0854966018224229,-0.02048862668172232,-0.09703192062090311,-0.04952664023505191,-0.0979845952226956,-0.020256784183002894,0.06616419509449238,0.058413345569597874,-0.09829609915310174,-0.006332999251019086,0.038907017102520314,-0.01974578111753819,-0.04307262860367947,-0.06837815623912308,-0.021590688359513208,0.04981251601902986,-0.06063925536461885,0.0049380770324077145,0.08805410775108843,0.05607966249590218,-0.030734206436328737,0.02947387898952042,-0.006822097428401189,0.031065018025464047,0.07160418312014458,-0.05932492926331685,-0.019748379295497512,-0.007730318025908733,-0.09217240745659727,0.0002051653908086981,-0.0410973776764227,-0.07061790770132831,-0.0814247068943045,-0.028900221203435314,0.06546202313152594,-0.09679222050436564,-0.02301859810644169,-0.028886606713165328,0.09101555729083835,-0.02898724689420265,0.009910273238729644,0.045954540296328034,0.006574055867605996,0.04568737866221487,0.015933909203403915,-0.02857977209238527,-0.0281399959479383,0.07861438013368069,-0.03693556078765137,0.009904999092334374,-0.06622761459786504,-0.043462459152888405,-0.04192443449407284,-0.04423671493866835,0.019299440450488745,-0.008134240856448288,-0.01089939314293642,0.021052446966119437,0.08890305701109874,-0.0603952190450813,0.010800106169519985,0.040901345955668134,-0.02805067711333141,0.05259189059317679,0.08460539994457547,0.058373081922673736,0.0953154170105823,0.04966850751841084,-0.013253235961187035,0.03575432776332832,0.09095711238780588,0.024617174996578978,0.041362727419688106,-0.0710096464965334,0.07632444973189709,0.0016520969156504223,-0.04783841604352954,-0.049701693051814114,-0.027447138309630068,-0.05857345470872373,0.013955406288521571,-0.09341332998034915,0.02733518758538267,-0.009191488004949067,-0.04453237143793594,0.0009823375299601034,0.08353566986424346,-0.016171344101394827,0.058183646384214,0.08844382050759894,0.03905627016119967,-0.0639829144449986,-0.017726289547530666,0.004881153266624277,-0.06177943352620079,0.0732573028042384,0.07260239834314947,-0.01868327735123798,0.07645760360947254,-0.03930155204851596,0.05003921986465584,-0.028361155952922032,-0.09091647870951909,-0.054233585259450524,0.004329131665397765,-0.043879847736767855,-0.017036728676454296,-0.061063907608552404,-0.008963344388613945,0.07047640891450482,-0.07882884268998361,0.023127442833668382,-0.04254614575534835,-0.04777134668520211,-0.04775145921103352,0.05517230791319863,0.003014251820810762,0.07467168097519897,-0.049028569884808484,0.06811178019021533,-0.00020035676802940272,0.026161989635745897,-0.08053774998453825,-0.0582741449819256,-0.0013232340384437408,0.029481412577640448,0.007316134455539872,-0.08818375231284455,0.030173404618251437,0.07010067419847776,-0.0490033006912122,-0.09591225127208927,-0.017565252319932112,0.0033423505614313953,-0.052027658470838345,-0.029978530473462023,0.03246395761496146,-0.003746065361544204,0.039538916543747554,0.049980449759152945,0.02272269356000027,0.03349679445275017,-0.04241837949397387,-0.04461146843011652,0.001973755342466618,0.04248504636416825,-0.03953670976134709,0.0414509711429179,0.021208844500111554,0.08033131456566928,-0.040638039762214986,0.0532469601590794,0.09387326064082036,-0.07280612281545436,0.08618393404158906,0.04353576729280398,0.07897245040449313,-0.016313898073181315,-0.03510755217793152,-0.06675730806399344,0.0328013579984236,0.03723475931030004,-0.09467978495826213,0.017192952027980463,0.0758353666383563,-0.006505227150263998,0.05537188135943075,0.06974671224547044,0.0428763429240088,0.02050045513231362,0.04465331658775598,0.01654677278342427,0.02225951904970698,0.008795467809029539,0.03321405570419941,0.0009731932444478064,-0.07177007082572447,-0.010533176712895553,0.027272471677890486,0.07106618925613625,-0.006551107962065664,-0.029065618312049013,-0.013221881098582286,-0.09660041849736967,-0.08809751352579287,-0.0007002209447971863,-0.0868965584381925,0.085001364459377,0.04159912747708386,-0.06257690640196314,-0.07385107087293728,-0.01707962226837667,-0.08123703533180478,-0.07503815588594898,-0.04579853954644593,0.06531680858088959,0.06971218308584812,-0.01747673084376053,0.024661103896841757,-0.046011973719831636,0.0971607081211611,0.04316198963232151,0.06591127041919073,0.044755533600054076,0.004815226069205147,0.015338609841198142,-0.0023444732642880217,-0.04463122993391049,0.02039419306747621,-0.02488533363230898,0.06433998897900825,-0.08300110821175669,-0.0443217514499656,-0.048371325722619755,-0.006660785836535996,-0.019382833575571065,-0.01507671431589723,0.028997316481576385,0.02688501565792728,0.05160829407654513,-0.010242680332445048,0.09096237390091924,0.08320310028569283,0.08098350111764568,0.052255015210176586,-0.04537486581100363,-0.055443990484511346,0.09608231993982957,0.0769568679818724,-0.058718508000614913,0.060505346185695696,0.009020138051203469,0.029434142909361416,0.019452874132165204,0.07285296892119955,-0.04952368590822758,-0.02406293394777874,0.038751235904739584,-0.015482001527294814,-0.0588823824163415,-0.07651482902640355,0.0548570019719708,0.07301816832286498,-0.034033317591249765,-0.08495829352206488,-0.03319438999183513,0.057167695673634195,0.07820236835595051,-0.056337462326897604,0.009045016248804716,0.047918673473796275,0.04949847221326514,0.0877599423573002,0.08631334787113562,0.09432521688613243,-0.0166312091338114,0.025937413962633826,0.0037512194836458457,-0.03125250625436986,-0.06331184873114748,0.0006121415808358621,0.07447789798870949,-0.04916954346523279,-0.00007380496421287297,0.07520613814106744,-0.02985486608152775,-0.07283235126971688,-0.0004965613879023556,0.02793883765758637,-0.08143718155077213,-0.012374747697580846,-0.005543376148001128,0.04519087266424621,-0.07345704157041477,0.018676036209412716,0.0594220287725121,-0.004250188968344795,-0.08869378781240074,-0.024879246385715967,-0.08269393188405477,-0.009668863198075694,-0.019669519635336738,-0.004181491890669339,0.023191253421231156,0.061713500936039084,0.06735901571266045,0.04324651320147735,0.037078998039385386,0.007233273557724518,0.04333016550172125,0.005165442211356688,-0.047217319525772045,-0.007689204628890597,-0.05197959715716052,-0.00381301317407598,0.06520923874654591,-0.06393976633311338,-0.0816039951549723,0.011928686340200972,0.08178408961723083,-0.01591659641804659,-0.022140998200493506,0.08278554365166305,0.07220367049056395,-0.09622981913645678,0.09092544196837818,-0.08695965447175627,-0.05226759770601133,-0.05940262016016589,0.08739536153328445,0.08425707413070765,0.09602302581672797,-0.05239451115041649,0.07566448069615303,-0.08845913381031939,0.04915606037758721,0.04377486624419097,-0.0543813289634667,0.0023640881917324774,0.06230476367500276,0.09680068457419569,-0.05130668410498838,0.08611597653705735,0.03075348995602173,-0.03322134600441995,-0.06718806153833667,-0.08431242372231296,-0.06468544980227936,-0.05312868396159041,0.023736146524488258,-0.049890662217143826,0.08759175742944247,0.02241639364381856,0.07072672076228123,0.07102905518178268,0.012665518242419349,-0.003900608588845153,0.01145963684665223,0.08863926056246704,0.05239161359407146,0.06381254161403374,0.0026625111155741676,0.05294340434153552,0.01786661258756675,0.00397201512850609,-0.05647864647462737,-0.01454424808756509,0.009868003620054203,-0.06490245542287726,-0.06997022209026467,-0.08794576420209942,0.06257036850214234,-0.08617503021470463,0.09931315234477875,0.06538504815610999,0.09471028666579637,-0.08122317944483798,-0.06707392963648623,0.049003006909646485,0.005560737796940524,-0.04444643519848093,0.051623516227081334,0.07336637402474128,0.0544528393608629,-0.05446195050783018,-0.09461810960541045,-0.09164541704937382,-0.0967150954040148,-0.012452307816087943,-0.012872037939658604,0.01072606451729649,-0.0704536873762331,0.026867305891032117,0.08883817415691406,-0.03609232018578777,-0.08888674886088235,0.05978078381469665,-0.05389464891779592,0.0013684236957430124,0.09187786387700012,-0.0062594866128698745,-0.02090424159555719,-0.06766355419684489,-0.08685153395297598,0.0025293433904306772,-0.024398619478353423,-0.07361383553889311,0.08957728301838741,-0.09701799388326529,0.008030216159965908,-0.032706507462081105,-0.03168540012169481,0.08230488335069089,0.06100547278806112,0.09873691698996181,-0.07234465347049693,-0.017731312230911817,-0.07130983035210892,-0.031184715313905723,0.03594950096580235,0.012847587401741162,-0.05285292969289817,-0.0766088746385803,-0.09829934051377794,-0.0023135513197252155,0.09067014514887509,-0.06053835349589046,-0.04405967788076431,-0.0657005366606486,0.02321893210199169,0.030374782757434826,-0.008068591090772778,-0.08176192126988502,-0.03581581880756986,-0.019079702563589235,0.059987806449738196,0.010437869055055726,0.08305996445738667,-0.09344974477789658,0.0453345193283031,-0.012093119230060137,-0.09501185358898066,0.07006529265745817,0.021605229816528973,0.0030084436334138626,-0.058694067185295976,0.0033604378473898883,0.03011112868236626,-0.02004746782966374,0.08337720745308688,0.07651600470078215,-0.07969573466327065,-0.05798780807280144,-0.004250802270271942,0.07649781506260203,-0.03826445708572304,0.021947094763202557,-0.0858220592768486,0.09923555484905186,0.009965567612448378,0.09986846384957718,0.022384342537322688,0.0688381945073934,-0.06947640558395651,0.0725422872339152,-0.07690065403462408,0.05735018094015146,0.019265299114951825,0.05932280634575632,-0.012877197933943221,0.014590672390899367,0.024261769062545735,-0.008756505145137969,-0.03305537990502594,0.030870655226452742,0.004941813398616851,-0.06873865618472155,0.09522208901977042,-0.09968591322257075,-0.05661830221085511,0.0697539041095277,0.026843787781859973,0.06761023745362543,-0.02544437560399651,0.09798697206841092,0.04578926377322984,0.05397967031888862,-0.08792156605198082,-0.08186625958350735,-0.07319237640554857,-0.09837186228914213,-0.021075348024377938,0.06488311888095019,0.06828049283729448,-0.07399327760764161,0.018840353747746258,-0.012627964819977106,0.05274288351376996,0.01953978913146033,0.07127546160901876,-0.0713335709527426,-0.04831602004623595,-0.045242397464850814,0.06249404147975257,0.05464375775528105,-0.031602960502150876,-0.014495371434916263,0.01633762026464125,-0.0035079784478774523,-0.004493584101611867,0.02648741665778437,-0.08119185959268749,0.037561969502988374,0.0862436326030876,-0.08247606737267477,-0.08719905065401404,-0.0948425092613372,0.056202511224497015,0.017465793487855,-0.07604582828966558,0.041270925950105175,0.09180178972378439,-0.030777477384321336,-0.0728325898222574,-0.07576377071673704,-0.09469098142714652,0.028409049411587117,-0.0539967743952337,-0.042252960681322144,-0.03651835940381312,0.023894141569080846,-0.041712526966983667,0.020976012372131952,0.03071492236774437,0.0731852703190754,-0.014637973159802795,0.02020278459559259,-0.09009440134050105,-0.01563191248677756,-0.07834811342904771,-0.08750644043510097,0.0784065128828825,0.08252172637848415,0.07702024116634609,-0.06863086787363848,0.042901685225560066,0.031351583024747776,0.042473637620872584,0.009329570358866585,0.02875188427334044,-0.048721837486864095,-0.0055068746354291626,0.01762365387359832,-0.024351890456608544,-0.06516136553889491,0.06968109689610502,-0.012659783949768633,0.040187848257045855,0.02443209827545126,0.08927723922173578,-0.0843378578736997,-0.01810859395747544,-0.02940784234496273,-0.07740555388763687,-0.032207622253685925,-0.08547171106155665,-0.07726274709304791,0.07395941522115976,-0.059277521505719834,0.07763505966277312,-0.043696390773280185,-0.05318387729431948,-0.022178721359167278,-0.05517517196218585,-0.04436768684063535,0.07552764245832955,-0.05641084068899263,-0.053767989740716796,-0.04102080490660738,-0.027976656795401178,0.05450706402968125,-0.00476496318864332,-0.06756556113531387,-0.024528181010311206,-0.038968103223729636,-0.04342961897455551,-0.014133517618514405,0.052184822189329516,-0.07615998847301748,-0.04751620427280332,0.07633578720645784,-0.07720878741165699,-0.06745833625953757,-0.0431763891505474,-0.08302760029934349,-0.06528385509820836,-0.007486995047862918,-0.08365500164765663,-0.030710177238936834,0.055118453465898,-0.0338686939711601,-0.056513091164936614,-0.028225314532165466,0.03890482186386168,-0.03933989675504637,-0.019470290481540295,0.0655592499742319,0.06282403015123125,0.0773954911488679,-0.060715937277242074,0.09611462624791867,0.005224316334882323,0.09701520623163265,0.03597549194375679,-0.08497539864492723,0.08358957906707737,0.09004303854530571,-0.020914734971284196,0.012808126875204759,0.09709664524016301,0.08966560819689931,0.009872299339898527,-0.00204473815378306,0.024084179461653532,0.07688067816102703,0.07903158438835459,-0.03296168200975168,0.09601618216558411,-0.05743880942978823,-0.08222351454315452,-0.0368974118497936,-0.0462083278961027,-0.03322730577526466,0.06672391255157001,-0.07305175166328795,-0.04484315090516633,-0.04063250765114175,0.04556319904833023,0.03992229897672023,0.0021063348900656614,0.08412336889741256,-0.015460887368465043,-0.08546599526346213,0.08756207248095702,-0.03703517521179189,-0.028154077057579927,-0.07920643142118494,-0.0591777331383018,-0.051227869753300764,-0.03920676424582257,0.06928326918051028,-0.06594966247366543,0.08091902749916363,-0.00013964442491021245,-0.06330338246174066,0.013650355148491528,-0.018037691680116735,-0.05644931023819977,-0.06633509915157809,0.049343932368877186,0.08690129970789626,-0.0049071726024784434,0.05403259410362379,0.08259248477759248,0.06488849025041193,0.006567746032650937,0.056157651406445686,0.07315111020116977,0.023689753038364764,0.08736917195880278,0.036316868134516456,0.0008774660370494958,0.027476052379632826,-0.09318144573770969,-0.07546954077414716,0.0015153304545316715,-0.0665789760249012,0.0663200102307096,0.02502964232133445,0.02463051079138552,-0.03372627309876895,0.09984029538386108,0.060778423874051385,-0.09157574043316985,-0.05141398047790222,0.06170425974573979,0.004004790039238676,-0.08954225925576736,-0.04223063604753206,0.0903337917988579,0.00907835439796112,0.030851616352917943,0.04775451336100661,0.019933806604621157,-0.021144006428185008,-0.07353346140666842,0.0065495198201433735,0.050320301853989585,-0.06065299951489722,-0.015244238597677387,-0.08807521783610338,-0.08709554394815733,-0.09400175878267279,0.06928213432098415,0.07085780228755603,-0.03527051798861228,-0.07582355510457744,-0.02281168712612866,0.028315466349994878,0.08120358020044657,0.07138176344076183,-0.0920252107243512,-0.0027052380220617123,0.0387032238332686,0.05030331076042499,0.05746727012623781,0.07524514469485918,0.07872082753910506,-0.014293326813785784,0.08259695938164185,-0.011999751611545678,-0.022701799608906767,-0.05844843149078774,0.06301779359312834,-0.03688220094614385,-0.031710837725505495,0.0727367757368238,-0.01836867293243656,-0.08076605855986273,-0.020278297726803313,-0.08212552101033227,-0.03855409818837283,0.011200012869438239,-0.08179601429942718,-0.03116560473149846,0.02909399732858492,-0.06488547643970968,-0.019111901482433954,-0.0011902992785390865,0.0848721618835267,0.01148464516259326,0.07700790536981944,-0.05866909541873171,0.09526317061503523,0.09323274552214275,0.09191359280703723,-0.05584046594499719,0.02987504136713004,-0.08306208447735042,0.035915109750168206,-0.08979920562017091,-0.07470182829818076,-0.06622931386703565,-0.016093665693690043,0.0000642976626189784,-0.07368050357528882,0.009251027511824855,0.055056598262100936,-0.0771713273068936,0.042522104158121576,-0.07752212618287967,-0.05044872457317054,0.009994517485951177,0.0587425293822251,0.043963958124496744,0.08365003320770065,-0.08021388185136487,0.008624929819893351,-0.007107756425299747,0.04861921509764583,0.05285736123599155,0.007805383758007517,-0.04772908418651163,0.05548454361843791,0.06465313070739342,-0.05944204626317826,0.009695025810761315,-0.024033200623454626,-0.08855924069965943,-0.08625716078490182,-0.08162439590645053,-0.05283218885738888,0.09379411793479009,-0.07183150939164756,-0.0778700975138901,0.09138205922488427,-0.013423071018185781,0.0955244393492333,-0.06728739195892969,-0.07143269197085599,0.08445074649807269,0.058386246203023184,-0.03560617697110323,-0.01086883226803774,-0.07933034236482511,-0.009020610378245975,-0.09247418063087914,-0.0480390267015681,0.08612182958749859,-0.018434596072916157,0.0026032058792228308,0.07402979146999075,-0.09939697625777187,0.06035734761266803,0.021369107263854215,0.09795032925148836,-0.01683965914212067,-0.023267516253228093,-0.012950176392067012,0.02270935998137809,0.08058828561605788,0.06919960154230945,-0.07845249350925246,-0.04038030747970059,-0.053534350355200114,0.03039435618011388,-0.07195831592536545,-0.0762750668285917,0.03819696839954445,-0.0793101470040293,-0.054999823764623645,0.07396648483028884,0.00004446728886704776,-0.032704205106616605,0.08176535235620261,-0.046494798409333044,0.03800568010000682,0.03671635693123401,0.03149814655088115,0.07358915195018217,0.07630631309221139,-0.036481964098040415,-0.05734252782086551,0.028424987068388446,0.06505359209054837,-0.07618927582435392,0.05893082663145291,0.05281782899076634,0.060045285814816385,0.0024992969620610123,0.03466122780445788,-0.041133222675510166,-0.07060213785902576,0.03936246941827021,0.05034012937084756,-0.02844422614257272,-0.029801984697089307,-0.03550953479654853,0.08549759692346112,0.008542613341233588,-0.03834134309771713,-0.05392913132605277,0.062221557181110804,0.03390090753679775,0.0073288455204147535,-0.028126186545552795,0.05868522201218229,0.0975644534441753,-0.05221408315059515,-0.037970260969480266,0.02011312832639378,-0.04964525216311819,0.07307545970894833,0.0943384793733881,-0.06908450308700465,-0.033803069688608245,-0.08004374107220254,-0.08090368177840707,-0.013880233481904328,-0.03311232319656425,-0.019867001709503104,-0.042233775935524825,0.01573213581891056,-0.01919167950189911,0.050460216701128296,-0.08235735731480753,0.06899398455530201,0.07586230213633849,-0.03182324948511801,0.004840892053059639,0.06649942297916842,-0.05357318268907814,-0.013251769312023987,-0.09381610133451078,0.06891488988537892,0.020022197068827907,-0.043073372979006534,-0.018974491038703342,-0.05819074664604993,0.008551703234703473,-0.06985296670975726,-0.007194190526043351,-0.06193256010081907,-0.06370626778357975,0.03857877030356871,0.04603458529085164,0.03110912250945841,-0.04566113864278392,0.06855138700225477,0.09912786231385767,0.04339653429985332,0.08174287301564997,-0.02015489387824694,0.05909967441733663,0.07017395724836414,0.040102926136611095,-0.07568807784021968,0.03064234912799546,-0.016132387681715876,-0.05564669835780487,-0.006127018373882992,0.05696447123669132,0.029722393273420467,0.05085558838510071,-0.05303371905274839,-0.0488521947094732,-0.0257670700748696,-0.024638814840156176,-0.011556583693890898,-0.02571001923188812,-0.09347194239956741,0.015121749635996773,0.059180493209620544,0.08754712417724547,0.04760902293052341,0.0013379530484604746,0.0984573115489405,-0.07138688968022083,0.052159406366694555,-0.09581653195197677,0.06424315500552999,0.09957945591585934,-0.07528988506775605,0.012835796615806139,0.014858154992586095,0.09716514239758581,0.041886325411307185,-0.021155324729431865,-0.015280257714416795,-0.007311228601294448,-0.028725721488309527,0.06836032826421798,-0.047445266103152986,0.09851647548176154,0.023082821352035404,0.03393524874314763,0.008494937682992448,0.06832456298548303,0.04678728703798676,-0.08105669367008402,0.06519633454967014,-0.07832423371698859,-0.09376749575693016,0.001642574452118642,0.017654476923964907,-0.034421575595755455,0.08017117273739585,0.08543451653103804,0.08529650895639238,-0.005981129692444936,-0.055147663856299725,0.01673305361089787,-0.008168073332209327,0.08192812714218892,-0.07928588110775757,-0.01191973114981204,0.05106731628961558,-0.002995935989306142,-0.05808953623824618,-0.027462081539658637,-0.09275853263689737,-0.05642348660262378,0.02311202950144016,0.036227008443955544,0.016649113012234068,0.03775143535831535,0.03634115920015879,-0.06824626119664493,-0.02840231114682723,0.07540058776867814,-0.05581121855389757,0.05201337699693398,-0.07976788831385179,0.09583996883036558,0.043455716732658745,-0.021579877287796867,-0.048961609012215,-0.08750872156836548,0.03591793686684103,0.07291949196167416,0.09896617790047157,-0.006134799320083983,-0.01166169424552392,0.05130558678946798,0.05556497285666204,-0.08328032893130742,0.0012510273149985984,0.06563724087312647,0.0013020209930497961,0.027954265358742347,-0.0477331951507356,0.005579629681530834,0.032691647276977515,0.03314944159184713,-0.06635396639223395,-0.09338409701896362,0.08327140862320867,0.02031273346345719,0.023254597909486516,0.06397188301819567,0.05805867992979344,0.03590554679606894,0.032005353656456126,-0.0464456323789749,0.09985145964433215,0.07257411750511272,-0.053930876765235475,0.04861296686035371,0.08085054557258572,-0.0046058629362599746,0.08879606019638242,-0.08059300189816715,-0.03990621530125891,0.02230969982635464,-0.012222838403907949,0.028442456098864144,0.01926165046757644,-0.08416769024482612,-0.09424359864953513,-0.09708430519859707,0.03431010809702034,-0.009733824778857425,-0.04012904037460663,0.007373822625744264,-0.027707091468342424,0.09028409958115888,0.011007005414234564,0.02613225362733332,0.02474411097403091,0.0024998367129516613,-0.005229961569610045,-0.055235505581090916,0.05995947177235453,0.06708807804210845,-0.08483215273474737,-0.0048957326609365,-0.0072862097697567185,-0.08108127805918137,0.09899991312948939,-0.04092517240918712,-0.02238267163578027,0.02781189165412004,0.017974003129580973,-0.0562912303612074,0.07021431611636181,0.09229456916828097,0.06470050617989062,0.09430609783083432,0.0538066057308976,-0.06722036247742308,0.06981316567964546,0.09355448169273758,-0.05237411863517183,-0.0630170573040322,0.09123200643953583,0.05482093164738258,-0.09455323855266072,-0.0458486871013935,0.09795211082150274,0.09318678217252332,0.03919785852061625,0.0375927468200937,-0.023357640618929573,0.022076329485435323,0.08955988529937883,0.004575240283259993,-0.012382232562599696,-0.0231385232056808,0.027927125144237397,-0.03308896040450847,-0.05453597936088914,0.07509304476691372,0.07789370780652596,-0.03546449395451971,-0.08584174387072507,-0.023978179165399682,-0.07727836978482948,-0.06378284486268218,0.05538858608675687,0.005773971293460536,-0.0989046091062817,0.08307526590725622,-0.060721373081377775,-0.07213282472695633,0.09567476157930122,0.0813843609234163,0.0015779292606797196,0.08683475286407957,0.02972341003066928,-0.06682016936032964,-0.08010110967739702,0.01578017824590669,0.05130783043494108,-0.09109193822961732,0.0825565967956654,-0.0953656178844188,0.07344410837012191,0.053388060560989464,0.08924223596869729,-0.059779264534710524,0.0714950107982657,0.019374773422959596,0.06030877898916462,0.059618743412827996,-0.03951050345455074,-0.07618690323025304,0.04419113211215314,-0.01599580032496943,-0.021592330598495524,-0.0007197435161715171,-0.04331392327065031,-0.027218880357306754,0.06375165589797879,-0.050199086627518374,0.023428778661214136,-0.08305334925232831,-0.08111110669749705,-0.04990359780407867,0.007703122756149081,0.04114881536760437,-0.0099753914859122,0.07786512565325163,0.025573085834380282,-0.005637162558508185,-0.0037026698053501256,0.02873684083499639,0.011705113293177721,-0.055175958270123095,-0.09993468988845255,-0.06221456660166927,0.04383962608631814,0.07090780495719029,-0.03201187138303019,0.02151106243467024,-0.043241425115048276,-0.04807739755484533,0.023229552827953442,0.034989389260503045,-0.04109240668051748,-0.018792475870624464,0.06482185731206994,-0.09260751805049848,-0.04991893155980161,0.02027130642303296,0.06312155314582202,-0.030988659566018442,-0.07203957575876285,-0.00604905741197026,0.06237096691992691,0.08183455705367648,0.07630209283611902,0.011900987584195291,-0.037161106787076556,-0.021197416553354304,0.014524754101478049,-0.029542087258747393,0.05267227719633444,-0.020649984984568673,-0.0074753227889118035,-0.01943530533908429,0.09764653342384519,0.050556661738941994,0.033376523839792505,-0.08301696377424972,-0.04181108527715818,0.024717233180025916,0.07663423558407648,0.07636324746332399,0.0937821218690961,-0.08225441372692709,0.03718557805493822,0.058764512556761656,0.0038538399156547304,0.06194591518931039,-0.052280083123820244,-0.04234144009927641,-0.09680732832137125,0.07291808079871762,0.05142700097719036,-0.03255257523141397,0.06395274053796104,-0.05616687849421065,-0.06049411696507381,0.06364928960735014,0.015615643724367217,-0.0658298634417029,-0.06282571677654905,0.08434221934536512,0.08712536836084941,-0.09424818397189566,-0.0343617776400726,-0.03229929227334259,0.08433169032224833,-0.056537732542891565,-0.06179720572304941,0.05819096744209934,-0.09658638543300496,-0.08060586493145383,0.036404258353138486,-0.024191868631923838,-0.06117322750181975,-0.006066925342887511,-0.06464894062017752,0.007052380041732767,-0.01721691605397284,-0.04139829151185506,0.021606142883782903,-0.02231383215429883,-0.0717634045275081,0.025174163181975906,-0.06987941824350177,-0.04694360891080325,-0.062469033692201276,-0.03982864913592641,-0.052339912958333956,0.04788488007783315,-0.030202439149972546,0.01591005379915797,-0.06450325863249536,0.0007779059103138614,-0.02964823859613218,0.07427066787469738,-0.0006458365766976171,0.09684674647171257,-0.09080908266756126,0.09998674184819595,0.0860324775251251,-0.05546452603232735,-0.04929075003409893,0.06491329529334222,-0.058950679320280044,-0.05631664198039071,0.09865795709523781,-0.06632837050826207,0.04600809496045882,0.03152163681541803,-0.057013719970312286,-0.02672218008189252,0.08344385991557021,0.08466133722204466,0.05331271599370285,0.035758526737158014,0.08859521100348342,0.0966132569728472,0.018485821832645535,-0.007875899760990235,0.07231477054289931,0.019267199472820004,0.009850445400234345,0.054078715527197924,0.09955442202508633,0.045976954056543395,0.027041995799300805,0.05731288524404121,0.020056145679341955,-0.03115027030524349,-0.08260579266903996,0.04583641403240049,-0.02490288868680346,0.09564167758266118,0.07153322651517144,-0.03234007323460712,0.054572307876664505,-0.05526964460552955,-0.03573100554846374,0.08829210047008271,-0.023588848352476877,0.0928920272670958,0.03928879474523991,-0.045419294539705835,-0.003215834582983315,0.00959770711498606,0.05499389839269253,0.021068951716415138,-0.04583721022749128,-0.07323718772730264,-0.0528445976519683,-0.09529277756886985,0.05957983619835608,-0.09864762211679579,0.002212568610872795,-0.027729495813977365,-0.057853870922337826,-0.03222612646265555,0.03796816964768315,0.012753180780274764,0.09330861545592814,0.04259445191851316,0.036720864991719976,0.01618175226929633,-0.06712981177191196,0.002632859565305304,-0.0966385497156495,-0.03348424925743246,-0.04295789775892907,-0.08897076920861631,0.013621963512590485,0.06577525740571974,0.07061089884855667,-0.042954970026734166,0.059812689253706725,-0.07728932654086527,0.013800813684087698,0.07805131702193621,-0.08744435697991793,-0.018425864255602914,0.02756012714123185,0.0843599850287384,0.09101549089033797,-0.0017092284424797821,-0.03700169240142706,-0.03377881108013847,-0.0922703412685554,0.08004641396248233,0.021150130990441968,0.05926992138480233,-0.06787265116762717,-0.008535256569414965,-0.04968367002069978,0.08327246650427997,0.070898736592682,0.03859416849693492,0.07679611091336377,0.06227238247159092,-0.02658107388326854,0.05908352166962377,-0.05612341330920648,-0.08818166000550072,-0.02684638830766138,0.02886396488693399,-0.0802957745828802,-0.07608903911517523,0.0818692102603365,-0.05345092910807883,-0.038695694925952706,0.06638108788972819,0.013100472155820025,0.024507078330548854,-0.06554424823291796,-0.08977331277363061,0.05736090024780127,-0.08040993301312223,-0.016202292616314826,0.07231606644413976,-0.09559025358999858,0.07452688378472883,-0.03634888127743188,0.04473518660431175,0.09293171430660893,-0.08373686827344101,-0.010607074955382018,0.08890154931787206,-0.03792403665251309,0.041042943047599006,-0.09544805532902051,0.05589643738903716,0.08253971057105866,0.08963562435867709,0.005156596478930894,0.07378469015973602,0.08458766337250231,-0.030412357196017134,0.03685796000435676,0.04785629837749156,-0.03772210733238457,-0.0023122667687310167,0.02700485195187946,0.03652237971839761,0.020499742885985134,0.08223471753876885,0.027389549131859148,0.003149570765607998,0.037579153539291144,0.05115135927547962,-0.05111060148776989,-0.022485470762847903,-0.0024142755480423828,-0.022684474938199445,0.006335233343710514,0.00632901718989673,0.047754780659834045,0.01683518459064995,-0.027177258257807285,-0.029588245846014966,-0.06046019469537085,-0.03627953209882388,-0.06163058750032953,-0.01845104950717591,-0.056802287363049424,0.06964554333561046,0.05901861577917186,-0.008329047770732373,-0.05404912413996228,0.050266502489689974,0.024188011273759497,-0.03287635106224891,-0.0970147381834607,0.0623746253565611,-0.07513900481330743,0.07942744090796769,-0.06979729277433161,-0.058711072694494784,0.0643131815924845,-0.0906522624616061,0.06526715954029147,-0.056683922390094704,0.004416714828249457,-0.052755621419757454,-0.04380662096405996,-0.032678277461044083,-0.07736931765594326,0.07774291412929002,0.0914968412036676,0.01095160739940218,-0.08828840406782584,0.038538889410775934,0.003860438430378463,0.08201947376461957,0.047260553365808505,0.020912219739638124,0.07862626366827327,-0.05813648781463963,-0.028791780214884224,-0.08283424419809089,0.0011220137630796323,0.041461662362230284,-0.00042895586570837474,0.06683778190820538,-0.023451899690205336,-0.07783338623989665,-0.07118560566902375,0.018616130713200854,-0.014765204731955084,-0.04294111973103139,0.05087443862367988,-0.05815994528700333,0.08394215693736373,-0.094815948486939,0.011511398939639997,-0.017664451325322877,0.010756377701951036,-0.07298213252540338,-0.054273659864122026,0.06160695587958412,-0.033660019741177744,-0.06621457166255601,-0.058065675213287364,0.03267337633866205,-0.06035928827532127,-0.06506941425880104,0.06599754954039946,-0.03471081347688103,-0.06738724828046778,0.05189019008653345,0.07934200230380492,-0.054548970902456785,0.02252641924376944,0.065904524895288,-0.06460525173469085,-0.09696118362898704,0.02388409652180372,-0.08480348625531309,-0.07847007203351285,-0.034290497952551444,0.09333532537832251,0.013824044869764851,0.027676308801749372,0.04087473453223073,0.07060652030764333,-0.004964612255353051,-0.03809098061274945,0.06505970832997568,0.08737757650891473,0.04985690223584793,0.09269416777657136,-0.0753637129248149,-0.0010360919509779798,0.003420341852658826,-0.06567081505368058,0.026091552131861817,-0.06938856828054668,0.09260358118586814,-0.08974229544010154,-0.0019183178828597186,0.09869585815410314,-0.07119645799005565,-0.02488935417469111,-0.017094653665516282,0.08788645205214443,0.058567021036909445,-0.05960691150781621,-0.07843944589644508,-0.05009177985164484,-0.031937521849378966,-0.07107722298228257,0.07042718496911166,-0.06368535302524109,-0.07803663080668129,0.05280809646373516,0.019334435590354596,-0.04412199160858004,0.09409074128419764,0.05362988543009073,0.05719959714039091,-0.084399860859374,0.039142127897004386,0.038493689508296514,0.07043834530682211,-0.05322947164950747,0.05539490045097964,-0.022780167780029933,-0.056979034068483925,-0.07346167571446341,0.020853827874254452,-0.055971855874832915,0.0495115461321646,0.07483202284024168,0.03664576075510925,0.014935423664719408,-0.04675310150907968,-0.039976741033808286,-0.0960711594310078,-0.0749390975347874,0.04058209363884649,-0.06388879888128751,0.024344757806341197,0.01346856429610592,0.04894976590982614,-0.060308954422141306,-0.04601177041784835,-0.07279147750488285,0.09490399804944799,-0.0018286829443133062,-0.04944481931861242,0.015888977357373518,0.09092252330784054,-0.09873113627127515,0.05856013072765562,-0.0787257238341078,-0.016984254398339352,0.007384956816935254,-0.042222281769268434,-0.025084177500037705,0.04132311018204987,0.08753717204919648,0.041823551686499455,0.012819841186408887,-0.09738439251552133,-0.025580096008008688,0.08456498895229339,-0.0037905283374335824,-0.04522096460057821,-0.047985460369458416,0.002770643259265876,-0.020108416172470764,0.060598196358809364,-0.05963827097323975,-0.0733523777665254,0.08016079023431516,-0.008165542441405771,0.055742880475511125,-0.008455676950552382,0.016998531619189405,-0.07247480907716702,-0.0013160910253969538,0.016773654578177852,-0.02639809079343683,-0.07793624091191127,-0.07819176962229167,-0.06365764401931195,0.08339375399898832,-0.03638970069200935,0.015475450089631249,0.07849915545319305,0.0939915231618409,-0.01480212909776206,0.03315447667224358,-0.0776087530628372,-0.09845102117354268,0.023023588379495058,0.054470915544852366,0.05004879591004238,0.046688028062618514,-0.0039191155637005315,0.030605329591903374,0.025536447266647888,0.017465474678938442,0.08250817872304972,0.06670539899938804,0.05846680621330366,0.03793845353162556,-0.03392648804129893,-0.03589118844712039,0.095797212679084,0.06815781231222068,0.06842282265477317,-0.05964804826140835,0.05119850810413401,-0.015766191281868028,0.09441358595993551,0.03466297964957632,-0.06154679277127957,-0.08062605192887076,-0.08894733670630198,-0.02982740784496296,0.008787094880525134,0.04070457491538679,0.006608975469714062,-0.002771889543315892,-0.07199157339046076,0.013055198434553314,-0.03446006481085355,0.09406792696030417,0.04574618609067946,0.07102213700690432,0.06196101225273018,-0.027720854770417122,-0.09143578748889195,-0.0045247144895667335,0.09426789216245957,0.041504449099995094,-0.02560394462692099,0.024291386575941057,-0.06506958137542504,0.018632282505091788,-0.09520310079112888,0.08556355731013596,-0.046121499248500446,0.048558897968374704,0.031271434434809675,-0.04577928715094864,-0.07622240709036845,0.08089600442087447,0.06748845520172805,0.09340723081347857,-0.04229856416773195,0.04706648877625902,0.030008816354725937,0.07864823952730257,0.0641894852868275,-0.061505576105028985,-0.003362414231818045,0.05912216473971538,0.05676795988205252,-0.036521655248254264,0.06636605188239689,0.0889411408538126,-0.006188276237925949,0.010815655501465127,0.036141364635496054,0.003124653629239346,0.07691877225075211,-0.05211650231241434,0.03251012081972032,0.039011154361884126,-0.05853550116265219,-0.09060800969624437,0.09128141485698765,-0.01898381527076856,0.07297848435937243,0.08229820603734236,-0.051543645529018536,0.0012592123991913284,-0.019672452308720653,-0.052323721520160675,0.09033925557633102,-0.050981747061853835,-0.02386548757456977,-0.017090704021940087,0.028452578519825356,0.06362900569657542,0.08587928692571456,0.0594828435648192,0.08074762436546487,0.020973052989548963,0.09178960021161986,0.09239265829002222,0.011789358241733744,-0.07635665366776045,0.0006399474883182626,0.0288503127120025,0.0817703562844343,-0.08684758256192651,0.03995193331251659,-0.05808016975448571,0.02545618831892632,0.013539913736000747,-0.023040864909717615,-0.05395370746278445,-0.07537136490540425,-0.01919134531647937,0.06829138217321881,-0.08266676623781795,0.07869412123608951,-0.03818801268453962,0.099109364157493,0.018674465147534486,0.03228331894671577,-0.09896490473604716,-0.038762363788250646,-0.0921852081750815,-0.049560104312594215,0.028038474928422596,0.022866677867699844,0.08029996094783592,0.02105428937684764,-0.057358853903621214,-0.08294113659715396,-0.040291061688862186,-0.09105756512655741,0.06970457588210405,-0.04683808847423561,-0.09298010688529108,-0.065970001014589,0.030322694485063056,0.0811397321533264,0.045470794860560826,0.08096043035612982,-0.03690961879635389,0.049714959437082484,-0.053656682365535384,0.09720439589036364,-0.09765859459526426,0.037849432144024225,-0.05723498606013089,-0.03390144944821234,-0.003783865996969338,0.011412939450878581,-0.05078163936688798,0.08136759017858558,-0.06830629817268914,-0.017447217594047354,-0.07258845968432692,-0.06856044626761726,-0.022160371888252595,0.08725511091289878,-0.06494552825663452,-0.016041272321165326,0.02338814086292769,-0.009359839646743848,-0.09519640665834538,0.019438624838219537,0.04022703387068033,0.05857468893932491,-0.02588320618404119,-0.00585798430118234,-0.07294631462506436,-0.09918977906556847,-0.035554371459395065,0.02469167449268031,0.0020152600560778,0.018859621947864988,0.05706677684076911,0.05574547086664153,0.04641516875582555,-0.06309755870640651,0.023208204500001578,0.0810378402499192,-0.07528407345382315,0.028604207183058283,-0.047248815388089144,-0.0690634300574446,0.05176143581287823,0.09566162095302641,-0.03713467044808812,0.012041746719304844,-0.07255419076807948,0.043052172188680154,-0.07700910950538208,0.04845461124799377,-0.04119341443013207,-0.06981698889090451,-0.019610404370311543,0.06546252934160429,-0.02209480471448559,0.06961195341540913,0.09706702125780597,-0.0056647054638690325,-0.06046660325754769,-0.08163835465142216,-0.08076964067097468,0.0029002357616627616,0.006168846260446517,-0.08408469118287863,-0.027310945419393967,-0.0004167253638318186,-0.05529593210338009,-0.07747023373228497,0.06496045473913212,-0.08972442573198243,0.05265899517537864,0.07343233882760383,-0.09502980778775445,-0.049289442125285146,0.04766588487859655,0.002081000232170324,0.013986312890914829,-0.08794361949975182,0.06543386958335501,0.06071955243994945,0.07033179748198823,-0.02264008405664067,-0.09176953535469373,-0.0955585369339683,0.01291976360563507,0.03870171620640095,0.025573591216848268,0.0685238510921937,-0.015360223406446716,0.07467208726914895,-0.07789466783202732,0.05377956014498292,-0.04843248342783131,0.0978403962560302,0.0877153311452723,-0.015441177329349326,0.0755292948347687,-0.011152871537935649,-0.08351387781293088,0.029353796682308253,-0.0653725072746823,0.06247916950746282,0.052009733260777846,0.056333506520835824,0.07094604956511871,0.07400675633664444,0.01670050525340394,0.024455107046821162,-0.08804361499477031,0.07604405921367272,-0.048672225213921165,-0.05374603406615935,0.04929338248872331,-0.07402824435330771,-0.042914724170106805,-0.0016043972540659424,0.0348574173717037,-0.07813007473457008,-0.06459614086500162,0.02530953739427169,0.07494040936184146,0.042835042108509025,-0.07518829861546479,-0.012111086008022104,-0.021652087744247386,-0.039219837296507576,0.015766967652283498,0.036100750361137524,0.03840698425232039,0.09478799536059188,-0.05146750937688785,-0.010471741562994866,-0.060517308798723725,0.06662399356344548,-0.07693045406343324,0.08587341380139502,0.017500248500595367,-0.09863608044419384,-0.08938889222056719,0.01269311669461319,0.022283967670621158,-0.060275714274515974,0.02350297754771913,-0.07038483405746279,-0.05676363012196953,-0.06033947627707077,-0.07178350040961959,-0.01653302437244175,-0.03516976987298977,0.07173919548767166,0.06392402255557622,-0.06135572926500341,-0.032096694810688484,0.08035368661694836,-0.05412081022028725,-0.06373786420678754,0.0658294576686739,-0.025208246706144397,-0.07559629317343038,-0.015311469709864994,-0.0189451527846983,0.07013403841448801,-0.023907765651313806,0.025039287093379242,0.07460293949625921,0.018759381968146152,0.08386449273761101,0.03581193492675369,0.04913774189417719,0.061446284344754215,-0.05464326513238565,0.08641424535938791,0.049269317986613104,-0.07518819885460251,-0.07577611307114829,0.08405856433697598,-0.01643817281416382,0.07553323419480137,0.04730846579008138,-0.016609855176448945,0.033299077596328164,0.025473648251954722,-0.040450650497582834,-0.0018581555741676858,0.012951819715189522,0.054125056344204614,0.09446828178044961,0.03294587755487663,-0.01209993111235548,0.02717705923592223,0.0636102602626202,0.031189290531770192,0.009567575130128333,-0.0663041605173055,0.061516579637823615,0.04028233463370062,-0.09919256693760321,0.07978339546601956,0.0050932969905942704,0.02322828746540076,0.006400406748837906,0.03665751799342595,-0.07832814425986699,-0.02408755646179897,0.07106005399109291,-0.04314044173238321,-0.037293293447497794,-0.011835547090376777,-0.02539112133037054,0.05093517156121141,-0.034547257205694765,0.030558731941276507,-0.07593093264296727,0.07847337619854153,-0.035350570768213935,-0.003947838385233243,-0.0742790694017792,-0.07697802623433488,-0.08767880688704964,-0.020090650902476262,-0.08994205086747012,-0.07198959451426319,0.06170684545544422,0.0010345076484768734,-0.017090357168304496,-0.08875728976813964,-0.06931579197908744,-0.04382286255364925,0.05685322779676402,0.006327721441437811,-0.07770226960099823,-0.07527596675916914,-0.05376137392454741,0.09676552832625124,0.09647479923417804,-0.045300993755434865,-0.07271137375822319,0.06843147820167991,0.04965443347319881,-0.04028178398596221,-0.0817337363709187,0.041026253383837336,0.06711001571309327,0.07914562499756436,0.09182294177758929,-0.024386517748704775,-0.048663458860508296,0.048880491210581356,-0.009102685029495294,0.016030331578949925,0.08652395928312809,-0.017200396361856995,0.09406674006635868,-0.03538845402854136,-0.03110525196196208,-0.06739593247958836,-0.059247036803385014,0.034640455784744006,-0.010163363887910434,0.06844987682031164,0.020296417879551137,-0.06212188268983221,0.08535780105824245,-0.07040747783992432,0.01881447412484985,0.03649164150472592,0.024360063951321953,0.06864459362200206,-0.035695081908049084,0.08447698407693793,-0.08884265140616808,-0.05373741759046502,-0.09811489678694155,-0.03514678158470677,-0.007798768105212336,0.01434697129179327,-0.06556358999157341,0.0504445863820413,-0.021782426055372645,-0.08114226608809832,-0.038454413623670636,-0.01888482520074866,-0.04392401399543449,-0.07692128451873247,-0.02013717919100806,0.08013689551623004,-0.0440355373145505,0.068504086907345,-0.0487723177040452,0.06650167301785603,0.0534683235319586,0.015323434874235847,-0.08908302472835415,-0.006708552619095753,-0.013129730303500023,-0.028364004661062925,-0.0888482930061946,-0.013546300942679099,-0.05483738674149863,-0.07946222489054328,-0.02545524014709387,-0.04416213774846387,0.056134758774910226,-0.061538716815429065,-0.003982146656724472,0.09300433216158802,0.09419648788712262,0.010966582929466812,-0.07362036037955098,-0.03128771266992887,-0.028399072253696464,0.06012697575812359,0.012949001794601372,0.038296131492251584,-0.0666801512822234,-0.002503647170183365,0.051773687249448586,-0.015601670157415398,0.023463943794571535,0.0022835851026882514,0.04075065150638091,0.09165277272651415,-0.056796373994946775,-0.08152625028567986,-0.027227002701472713,-0.03084292141420307,-0.09892947702875383,0.04628166981556303,0.0028344585873499584,-0.044275242139525474,0.024436427872718353,0.09500053493839641,0.0028730351437509655,0.027048018734713658,0.022962192609026433,-0.003582037344766406,0.09969589525383432,0.002381399940817097,0.06881603519875454,0.04884121829949603,-0.011139598384767219,-0.037873442904494375,-0.01676351514968477,0.09807757792120206,0.04587706677690412,-0.060677406492689115,0.08112267470179077,-0.03286859274410517,0.0523474055020052,-0.08746960753645334,-0.03595967497034894,0.09906071325141283,0.08226983289002249,0.08022266011160648,0.032108693882939854,-0.0016576428208024685,0.005721563211168762,0.05850907731190835,0.09346758272159028,0.05556844115366741,0.0983819175122477,-0.08492387861579914,0.061528293575315834,0.08609058211174969,0.004081947326930457,0.05071065661678251,-0.0038866942334481597,0.011749166073259112,-0.08928210863404958,-0.08629840728270627,0.0823709333559843,-0.09953083301447335,0.06362844746521953,0.04363389755163749,0.07866863415939768,0.04502188585414674,0.00021745949190088432,-0.05684098180701596,-0.03465857603992109,0.008212532546400905,-0.02918450056444906,-0.038090326182770175,0.054263459669868785,-0.012366775647920658,-0.025688381018540568,-0.09895260420715452,-0.07845391824578735,-0.09625993378861186,-0.0439354150358354,-0.09583056762040637,0.02803904719342079,0.06485928385778858,0.04213681657739929,-0.041775328285031194,-0.09786748986421756,-0.03348978601012487,0.06567411866294576,-0.08249904934998625,0.03658861860091686,0.08677074044860103,0.007457870653989618,0.07512056453012517,-0.054491274109286225,0.09440172448442335,-0.04359448651449434,-0.09028996378265211,0.09246435843645281,0.013688634976534025,0.06695051622835643,0.002682603224459165,0.0860522387216626,-0.02733431043173483,-0.09247025808171894,0.03701150241950768,0.09728618462288585,-0.0902566719103759,-0.08113961232872709,-0.07614910603095391,0.04788523855951654,-0.04534418666065614,-0.09328500984883169,-0.019875723250473015,0.022031764336834847,-0.03964802583233445,0.017145265507325688,-0.0024892380915603474,-0.013153437308504934,-0.09816051744660564,0.066077451721445,-0.08087986834876221,0.015630311604865582,-0.09064553585438434,-0.01579836881634185,0.03157950382953226,0.06602384814432596,-0.03000561311472967,-0.0049654785992136186,-0.005385004125190607,-0.04874066631251779,-0.05145764261904376,0.07039987692919239,-0.08541453076464456,0.07978814111730456,-0.0188833520769891,-0.02721095444078303,-0.006950221781651861,0.03865111528409404,0.08453277476987661,0.07693428506824151,-0.060666921784833065,0.016228335795876486,0.06704497726802147,-0.09710655025890179,0.06709788811299097,0.09069137163890476,-0.00633991903167383,-0.022553548746265625,0.05979803243966672,0.0786375392373688,0.06458193082791266,-0.03207350507777389,0.06514138156401336,-0.015041465602079113,-0.050238376178544764,0.08668811412639696,0.07780763428417156,0.011661238486057088,0.07846790502381618,0.020826590669340075,0.0066525533792073654,-0.021784753393902095,-0.03595604379327644,0.0671441273471258,-0.008689798883997707,-0.006586460113869513,0.021279274980352092,-0.037980004484973406,-0.02549087578770136,-0.0749021190987905,0.05237204346789817,0.09842961114401658,0.03189391211422432,-0.09278010627021788,0.09751215182118853,0.09097434817272551,0.03483460630783797,-0.08582513378185218,-0.05769420256475147,-0.027018121806645423,-0.020130332683859692,0.03543630365506045,-0.06157005797285149,-0.013251865176914596,0.03406222247851734,0.03065868293558438,-0.08414352494911514,-0.003544721530421485,0.015182267119492374,-0.03495041923608895,-0.08548337439530158,0.06059797249814633,0.053354101367718176,0.040296083132859595,0.017418187098315843,0.01229756283762548,-0.09128326202998488,-0.02603846569184802,-0.05363385928639955,0.09298121108639931,0.0680401416878523,0.007188003829359607,-0.0020943706123237593,-0.06609596055164052,0.013038646065941822,-0.014622488799581126,0.05501683839046709,0.08425986864431101,0.06361710392424166,-0.013167141450577138,-0.07994487379839371,-0.01268301790558475,-0.0018824518391470646,0.053569705938076695,0.030684638102839445,-0.09596740280999208,-0.0037834227306595414,-0.07149521302366076,-0.05530852538220135,0.06929308268499343,-0.06172639641355442,-0.035981078587119436,0.04580412928562852,0.022739878609629338,0.08960456546486753,0.011053859482805392,-0.010775395267673196,0.00029495784311044104,0.09322980991652816,-0.06839353818341257,-0.09041598352611589,0.018809631262139442,-0.04912758848434376,0.06682918976384156,0.0108342017731482,0.020455084634376466,-0.08906564633657635,-0.05930025907740935,0.09941700710425269,-0.07321272045277089,-0.05592798413602056,0.04667688415325397,0.009326464767396958,0.07061256802012136,-0.09075596988201853,0.005772000082839401,0.009860449752809058,0.0805263527069427,0.05682139592593213,0.048082001775333616,-0.0641288216459249,-0.03098077257187666,-0.01898153784943632,-0.0025522217143861547,-0.032561311048275865,0.014170307020868439,-0.04111970261019731,-0.009797108629376036,0.070692066329261,0.009519989004813573,-0.03358512418621498,-0.007869034616399165,0.09457163640814872,-0.03389968772120669,-0.008334689318603067,0.09144147486316631,0.08763444312439203,-0.028492290318713573,0.0211048710672372,0.08370221394935165,-0.004160771247660969,0.0014825839645455086,-0.09049819199808384,-0.06239377683058414,-0.07615876459674481,-0.05756037961423588,-0.047275304009159226,0.01217271685787713,0.06008844370496888,-0.06889148635095564,0.005421613994030586,0.05655712845455191,-0.01613315947852248,0.055591671706847506,0.054249146315062696,-0.09807784536609009,-0.04583669149835648,0.06664874151849617,0.0786106190061148,0.07442041366222926,0.09635747500491298,0.027377827426638968,0.02749220121486537,0.0501307321453604,0.07853752860455596,0.03398350069399664,-0.09391822986194352,0.09448279532356213,0.009762067001829328,-0.019714393985125908,-0.008991658282275813,0.020267914351456626,-0.0960600059602471,0.08864083375449355,0.07535876583998538,0.051694367932566904,0.037238755373849186,0.014754158092658495,0.03598894082654738,0.03850970453416097,-0.014822730325178404,-0.028368343066594012,0.06179107132489378,0.048118604690207845,0.09586955479594092,0.06005144190594888,0.07095261928301652,-0.06985934804246266,0.008922608058805181,-0.043359664161393675,-0.07084776935221178,-0.042291723519817075,0.028175199463328,0.034907073243960335,-0.08499365935707558,0.04531878502685305,0.03148739365932149,-0.09781291192016789,-0.07019088641231166,0.013113206373326095,0.08711317136107485,-0.09339134579986386,0.017269621340269353,0.09212587850612497,0.029978745096368664,0.024407550027413544,0.009678501854027258,0.041977397361922686,0.013762947563117578,-0.018747295696437183,-0.034957652823072796,-0.01502041655548711,-0.09726874694720129,0.05172609879391393,0.001710636160623974,-0.012078720300479823,-0.07837908402837988,0.004096429639536048,0.08660281659791097,-0.060040273856306794,-0.055703421645227284,-0.05278618662897721,0.08180650785082771,-0.09798736035640904,-0.09338735994097253,0.06852017439118657,-0.06418133046711812,0.08036946095809885,0.08846253519933109,-0.027393744776854675,-0.016793502126471266,-0.03614547750066954,0.009332688536687117,-0.003988309350896155,-0.06278185331319985,-0.046915859972346444,0.019010259872551144,0.019849155095717913,0.01145269952672727,-0.027836723289925258,-0.06724684081674534,0.016131206495968747,0.046564725860992306,0.0023044695570867135,0.04604708080229347,-0.01817423876980602,-0.03187355254575111,0.0630869923991344,-0.01733984258226591,0.048794895447236,0.08767528632124622,0.05937093892984166,-0.08731508795818971,0.03573423268221676,-0.049479846066299515,0.036114983578091786,-0.0608698517438246,0.003698706956287573,0.08155364524689071,-0.05965633637116694,0.009585338700903015,0.09918954714222986,-0.04559653909845669,0.06150693595941423,0.026470980931258936,-0.0807593778034403,0.08341283804223149,-0.030811018843315593,0.0877347983977943,0.016101932273468705,0.09846800913523676,-0.09184515111980836,-0.05883360542969185,-0.09771739566802942,0.09804580461275686,-0.05319150914147391,-0.0005018597059628649,0.03560716910623668,-0.0365412529899639,-0.09476229154215741,-0.09817696302229645,-0.04917041956501045,-0.0883091819829613,0.050748602174162466,0.0896880842988082,0.05037863115670649,0.09645898065206487,-0.002450222359301965,-0.09581828893482261,-0.09221611399844956,0.02389998624848881,-0.007439943946380548,0.015971381851446337,-0.02188951519619424,0.000623981400746626,0.0233929093169106,-0.05436675158450628,-0.060631381589415105,-0.04793522751764519,-0.0686307158879877,0.09753131677648161,0.0002914896306477621,-0.06886996436574787,0.01614992979184686,0.06918279543614753,-0.08470177812521978,0.02764760894377999,0.05149920774463382,-0.029576338633291857,-0.03787648288856285,0.020573614293178902,0.098473074480665,0.037145371860709625,0.01905694856574809,-0.09384709781938444,-0.006239124198993862,-0.06467708710554324,0.05999715945999948,0.07343836582012245,-0.03479820726551193,-0.061138666658101616,0.05899027500833923,0.07419286197068672,0.08545090522334098,-0.018091262323939233,0.08415990925406494,0.09343439937469183,-0.0922184783560419,0.04089534694869931,0.07629922979709511,-0.08565055146965506,0.04280031365278397,-0.09159931219108973,-0.04201575686512014,-0.06708790555420241,-0.008533079773152957,-0.051401608253413715,0.002718954170027127,-0.01731331917181303,0.06130677550621175,0.011637965983934698,0.002974473728978605,0.0597799361647359,-0.09969244821099617,-0.0001663796097600423,-0.021464286564660512,-0.03363329036449758,-0.0888810716486404,0.040306206500250796,-0.04884268856436678,0.026766641815203662,0.009908414969643828,0.04787261667700332,0.022091167536614262,-0.020551630930908574,0.05864729203276711,-0.0449525872322325,-0.04117427628970241,0.077329380872551,0.024434378571713072,0.009244148869578028,0.09548634698929184,-0.04776494956744775,-0.04932278273899909,-0.05676679261393707,-0.0876006873208719,0.04212372297518713,-0.09243191131220159,0.08985420572552996,0.03620911518646858,-0.07664434178815133,-0.01166317814082482,0.0228572934196698,0.005257805976567248,0.09529040019185908,0.0595193097720948,0.09680352384555599,0.02719831450085186,0.025407831630193195,0.06259633995278113,-0.01042967924372569,-0.007088299015818311,0.020350766683212382,0.09780129955439976,-0.05945902752618899,0.07541593719788309,0.024450617042059045,-0.07939132405129246,-0.08529010513891047,-0.01625791944972152,0.08616811061399604,-0.06462708772607112,0.08808372193593281,0.05938671418965699,0.06668394595559501,0.05526338084010182,0.069976075348091,-0.0773863730030095,-0.0069837006486260095,0.01569965790781587,0.0985417972472026,-0.014664172632478545,0.016030835177430577,-0.058843130702370953,-0.04839704825563884,0.01818551504720456,0.07971090380563095,-0.050013309529682415,-0.03408758521306514,0.018754647433378263,-0.019200936338991642,-0.006707285032386642,-0.02202038579282202,0.04453750730991768,-0.06088418346616669,-0.09969671155941051,0.009215921520544956,0.09152056606669726,-0.02675182801538782,0.03483469017078922,0.07245996744250074,0.09582659453601555,-0.030662289160388226,0.08952927136723762,0.0003965331491621732,0.016678772060849584,0.05960637416039863,-0.07465028853399672,-0.07606385561454437,-0.09146047725703794,-0.02241774083148447,0.0021834814395611107,0.06108476095592616,0.05613294224747567,-0.04311458499939929,-0.08605124425449895,-0.06505817947079037,-0.016824760809216244,-0.07719746803397293,-0.03860490458619714,-0.07559565876331416,-0.07321610716813227,0.05266189721050152,-0.08458516686400182,0.05924209809094752,-0.06042569991706897,0.03700447879882929,-0.020052028822285933,0.05293654926232291,-0.04070569214384845,0.0017795908663904986,-0.04845367518953068,-0.011285960669859693,-0.051008242805145224,-0.04207466251059651,0.07558481827433414,0.06424320690420574,-0.006610934356914205,-0.007198708724956718,-0.09171898834358255,-0.016464096148042756,0.060458598154076254,-0.08773347625056359,-0.0025087906978956964,-0.024496289994122608,-0.03599209539583868,-0.06873054105543992,-0.06814364215627719,0.05075338842692442,-0.0814897238162228,0.05053543693016907,0.01802609711031153,0.005006979393050864,-0.007629270835309038,0.014610223066883643,0.09690987256645439,-0.08865002761058892,-0.008642973386387351,0.020532278931375506,0.03740344806856072,0.03013764685839182,0.0648322243652503,-0.06960507086043002,0.005360302509374207,-0.09562514618719718,-0.059765232596998445,-0.037087015029954665,-0.04025060479808498,-0.07681956668071327,0.035698309204378026,0.04491775332395878,0.0940378325961376,-0.08665618967821627,0.0005317918524724574,0.09982549546303829,-0.04135388960044786,0.025935611361052574,-0.014478818584022113,0.07753535711286835,-0.011455394097532642,-0.05542523337561192,0.0017643031063452747,-0.005821697268468234,0.0692114467030581,-0.04404847832270407,0.00465722152131183,0.09729510799493032,-0.034994437422863275,-0.07195967357173845,0.07493718267060442,-0.07366591567907994,-0.05828132893015079,-0.04002983270463006,-0.017496121729017627,0.020413554105995685,-0.05996323875717416,0.05071101342034595,0.004372626535855642,-0.018353525537545948,0.08621044623988369,0.039785480527509604,0.032009209017466095,0.09844707467807218,-0.05460165409755296,-0.03338664776572085,-0.04533485280742773,0.07076142645123223,-0.07474644628583445,0.06776469015800082,-0.0028963894420601655,-0.06310518719621702,0.050622378575882365,-0.019894432609196683,-0.06218376469962879,0.06739333811869477,0.08362875704891137,-0.08130817555062353,-0.04374121399580329,0.06293144571833698,-0.09166187713687109,0.035335258592290864,-0.0066193109072538725,-0.09547854362014073,-0.04455412547805664,-0.013059798973992537,-0.09907324554138458,-0.048346451309684874,0.047668667544232546,-0.09743249990054266,0.07096394989966154,0.02232964756892715,-0.040136803993193394,0.0978694533797495,0.054755003784891676,-0.019856816347584072,0.07433122082534177,-0.017424236329074375,-0.023199881856981047,0.060600090795042416,0.03853335744011935,0.0034465571977593257,0.02448826391421069,0.07295539986746133,-0.08357788047565973,0.02033491301804942,-0.05801175838959978,-0.08617632302289904,-0.09778160007569121,-0.08845667949389369,-0.030583635192076117,-0.08078294123479389,-0.05419849555367056,-0.04063018821422726,-0.02541934968051529,-0.021898769741638763,-0.00852479117230609,0.028403636980783714,0.007813392759864077,0.03307042436016677,0.005603427425533478,0.061158401751653685,-0.03178356422790411,0.019532509814512183,-0.09733553991135264,0.0346278157278975,-0.09024317156000779,-0.06964821444202998,0.0020126377585000937,0.07433813175743467,0.08956668643623131,-0.0870636162616668,0.06960242970874983,0.0009749926529754871,-0.04153400736490647,0.08553631429074968,0.01433599244812353,-0.032269107718223916,0.025553579501779833,-0.03128263231995994,-0.02690859716887406,-0.07935741851716181,-0.08273984431280766,0.02774645279710991,0.0910711023924006,-0.011087929272150993,-0.06716080981593917,-0.044564513510550886,0.000028653859056634867,-0.014228976970549118,0.013407898841230767,-0.06892949777395092,0.08451549003720013,0.09593803326283759,-0.0945315698794425,0.0781151748905222,0.022676639174221913,0.003300958185817035,-0.04226937895780969,-0.01134564631567403,-0.06631030438319718,-0.004575288290840349,0.08758120889436291,-0.07066470935461072,-0.07005343889792792,0.01642059639787133,0.06555626184387306,0.051776712263266855,0.06065600828390691,0.08769876721020126,-0.08754022989561966,-0.09897033456988483,-0.03771218277468318,-0.00478120194965595,0.04957906561516859,-0.07859028736410197,0.05033706456247025,0.07708737730653678,-0.08727917050844508,-0.08040039929518215,-0.014546731020615017,-0.08367537243991459,-0.035443045077391225,0.043393936008372214,-0.08512231558149441,0.016520164313779423,-0.01103227646567606,-0.09204330406045114,-0.031944651172493635,-0.0972187772316115,-0.0027304265490719626,-0.03918256040652066,0.061875555484830896,-0.09361067243179258,0.05269877451445501,0.05726704815334305,-0.059442214271175686,0.037963398824805594,-0.025826078865625185,-0.06146895510820634,-0.023765922940976084,0.08358081719644836,-0.0903103645768863,0.004321593583188357,-0.0671406776529464,-0.048270099974315576,0.006694376840399835,-0.08444504709393282,0.0017610623634415623,0.08023475539380498,0.049364111439548,-0.08239092083768239,-0.05566967277110098,0.08271949252391747,0.08727893050259736,-0.08939232445819441,-0.00992669971915619,0.027858112654061518,0.05672815708727738,0.03931171308233136,0.08350707898005014,-0.01870415380248995,0.09795426038945623,0.020962903351959564,0.019816057731272707,-0.08829385589998062,-0.03431808195093407,-0.09223722400991803,0.04858378017193932,-0.05183505506830932,0.06526970141019867,-0.019182614563054215,0.010359207582788119,0.0548009739044403,0.045557321605410095,0.06071779871550037,-0.008159805038810308,0.09150982228422586,-0.09849145541101985,0.08039824372211266,0.05384042448141929,-0.03171027738955075,-0.04796657477971298,-0.04835063496000713,-0.02649267120104186,-0.026231488278295953,-0.022605117192504395,0.09432157558179327,-0.062087139451939645,0.035960827595172745,0.05171059576562695,-0.018780001336136776,-0.024300142214709733,-0.03729290441920319,0.07779063002758554,-0.09881764327138338,0.06954856192907641,-0.023778419597493855,-0.052802623968699704,0.02700583324078587,0.07609096088478293,0.0466530284732678,-0.0663899110435772,-0.035028341999084764,-0.06820242340060143,-0.016907873811133192,-0.051010253043499224,-0.041109598405534346,0.0409763940525453,0.07062943998421387,-0.015889073287585778,-0.0859132662999917,0.0832532657196706,-0.07673501413820719,0.02108177539169151,-0.03946606252558604,0.032402161244252714,-0.08483249246602638,0.07659538940612745,0.03549173448150858,0.094741662822549,0.01591056432976172,0.054176700077588125,0.0637637410505906,-0.0926294889798419,-0.07290698542229782,0.005395268619913823,0.09011800736955636,0.0247042634775764,0.004520982907100596,-0.019218572369685605,0.02582633544134602,0.09355358371668712,-0.09785134681753825,-0.028318449953913125,0.037854315362007285,-0.033060838245275156,-0.09443889201054022,0.08489217708312752,0.04397093896727036,0.09181484173972218,-0.009308565192703885,-0.08727037586028348,0.025093785526387885,0.01362663809437574,0.05879993318670765,-0.04083647318722488,0.037563155740018506,0.021538211127336254,0.06251763213709638,0.08474524483286544,0.05475873098543671,-0.09256807242390562,-0.07855066029784954,0.0073869371008719875,-0.0010887479394918742,-0.04923973153417416,0.06609049996580829,0.06423574303291435,-0.04449287593182172,0.03529445934267747,-0.060683606159994824,-0.06815154736673312,-0.002090731313819344,0.08640458346454732,0.060094357126752124,-0.02207753467508211,-0.061872222065691186,0.06255705949729196,0.004933949527552661,0.058895465090478855,-0.02616600991870062,-0.044621840743348164,0.048625488097117836,0.0643814079307452,0.05197500533102281,-0.032425836457046664,-0.0014731272393721656,0.04878523996831122,-0.01211544758356213,0.028527095296638272,0.0949772636179314,-0.05885591709426068,-0.013424287900955803,-0.0385580843937174,0.06173363382880029,0.0640844015606584,0.02755526769553368,-0.040266202291548536,0.006993199553608914,0.015321507914431584,-0.02811894908862396,-0.0705773950421286,0.008855402796503362,-0.018595418954386655,0.056032542090070664,-0.058155263537695984,-0.07254085130444135,-0.008834810147373015,0.08937815420125533,0.049175802879971225,0.027037119649364033,0.023992713648658764,-0.01505120916377041,0.07280094794329775,-0.07873031216428004,0.06958791748697066,-0.04694199178354994,0.053884251767377184,0.0401362875755881,0.06143653174951283,-0.014290063831380456,0.09692629419086171,0.05950252137891052,-0.0226737015782561,0.016480916623846126,0.09960592048862532,-0.07744669795252351,0.051100365496121264,0.08053116990882209,-0.05748421867167633,0.07585825870216603,-0.0023167611579658354,-0.09837137792204534,-0.03583874057322793,-0.08694174218335396,-0.09275353322974778,-0.07797924846428464,0.06786450315132839,-0.08147675366410244,0.06529847020208623,-0.0026647003215037185,0.02124897888091168,0.08916624648527849,0.06162168126431197,-0.004769817082748637,0.02214167109168526,0.0381745823118039,0.06269932996239885,-0.05106034520453684,-0.035285419756132044,-0.08787420022646378,-0.03431831194543329,0.05224608276094603,-0.012540038522552616,0.0673099178690244,0.06938550329733353,0.0009599787397438914,0.0525482588817357,0.07375476677374956,0.026465406683769566,-0.04727541517563494,0.049464200395085006,0.028030815986438945,0.05582231907458782,0.05349744415244442,-0.08062532696514646,-0.09705512897463833,-0.016047905580672775,-0.07571061562496176,0.09945131837629809,0.004690677717120242,0.055456863792287786,-0.06632034694751701,0.033047131165282295,-0.0819846552906117,-0.0948577474984226,0.07206826976038325,-0.05628672213595709,-0.034854962389689256,-0.029517333348021382,0.08309268655091603,-0.03954938126714365,0.06556771340482048,0.04217548503158425,0.017711874918922857,-0.026584529168914448,0.0730050563176933,0.004727888030318497,-0.06511121245901803,0.021381629224312082,-0.0875307187955893,-0.07615876844493226,0.09966632156019714,-0.054689719547292404,0.026035671048167897,-0.04538587830563512,0.01294738849212651,0.04935689787389319,0.07568966794107876,-0.060615248795971334,-0.01220030950471647,0.09330343726393342,-0.09407224125798548,0.09945509145010009,0.031561685775441994,-0.03908941162757232,-0.08373984207764479,0.07013723170641284,0.0003897938944369683,-0.05031159257132933,-0.09399909009294603,-0.048456105817865774,0.0016552923829421806,0.05004834116700807,0.03491004018447835,-0.0943772737945082,0.0937365603809413,-0.055169937246093696,-0.027530876865735507,0.01410358244908827,0.014638027144242338,-0.015302214695045488,-0.02990573478695531,0.018357400263056656,0.0623828436580289,-0.09994972189655785,0.005122791390152634,-0.05834744235301606,-0.05549599487782624,-0.054430585298849726,-0.01705311927702713,0.014797357809043094,0.07051560282001149,-0.08873868004190665,0.005902494723898505,0.06722569263051037,-0.028983916261951542,0.009031922012858781,-0.07712337143420944,-0.09163324908275264,0.01075258526944975,-0.09355712062602928,-0.02322421515390713,-0.03931976527518138,-0.02298151984495997,-0.08510475676379432,0.005339757908969303,0.03808281779185116,0.07753382874944453,0.09616450759261858,-0.09639273291189765,0.07469913286988827,-0.010953128012927943,-0.04212790367062591,0.004265211809985431,0.026049625243215052,-0.010574023456376175,0.027507426482510755,-0.07469202551508727,0.01833540122844264,0.05141924720594357,0.0757397402368957,0.07903030544076431,-0.03816914738475492,0.06232790115652517,0.06730976912064804,0.052861780694540894,0.013030156438292861,-0.007760213252263212,0.025893771728250803,-0.015305679736356659,0.07522281733544514,0.015893067519165388,-0.09411124201975399,0.03969587972825056,-0.06833624681130393,0.04422195112580268,0.04317072007502398,-0.08269454605358147,-0.09748940809491101,-0.042143467818398506,-0.03794732561043932,0.037342122520043514,-0.011089005383944348,0.051032123072797475,-0.013103088894032625,-0.06628745078010173,0.07160637179234319,0.012011405352747001,-0.011574020718273653,0.009545468748919636,0.015338403053796149,0.08060508203518477,-0.05997831252238464,0.05378207451669145,-0.060248050438655956,-0.0004945883944245943,-0.019923220732037367,-0.04081570074483274,0.0415765994636223,-0.016383614293075416,-0.0977082178922101,-0.006373653595979384,-0.03148100842315037,-0.014707325174487057,0.05699856737988149,-0.032187256037616144,0.04000408049111792,-0.03891932617049592,0.0872332494150618,-0.09967461776184923,-0.06482404824137263,-0.09043553663160826,0.05261040843550699,0.074444372904209,0.04291517408091114,0.09549913978055433,-0.08837640736662614,-0.05204524998838842,0.06654692072327975,-0.0017271327422950095,0.08645812952813908,-0.05358152264799654,0.09277240457005417,-0.04272287012536702,0.02827465998974174,-0.011305674715063135,0.09136838859335658,-0.0748257050058768,0.052699569896109966,0.030789492472885815,-0.025361616802261372,-0.059085955694076465,0.04313143197640787,0.029924514169175825,-0.013357051635360898,-0.0763317761238433,-0.046714256093248134,-0.07411491270552184,-0.0643701243444907,-0.08001041233852578,0.06403909279863731,0.03139148698732272,-0.09284897781601226,-0.032435993565795504,0.02507419956292245,0.05675010063668395,-0.019343124551166782,0.019704100076934544,0.033178763992664256,0.03010646055625993,-0.09010316529067391,-0.04669144339966631,-0.08152327965153305,0.06491374529845317,0.02635795642326713,0.047708674240844434,0.045946132578087495,-0.06419024555205147,0.07156323150000987,0.00794829893820323,-0.06230205619305967,0.038121846403234405,0.07133755193415517,0.065481277585209,0.01480886750985988,-0.04376399602360377,0.0663038797307769,0.008554390431587233,0.021237525418717818,0.054306549023802025,-0.02624745077482951,-0.032068440319684435,-0.041078180768463396,0.04048885475670505,0.0982779253784829,-0.0341256173329294,0.07808046149946654,0.03900383141468047,0.012103064046936576,-0.05284630461589122,0.0034761147614069954,-0.03217440655545288,-0.06486341674143743,0.02990975741540991,-0.05584854962833155,0.06504973292286587,-0.0819766891967412,0.034211453139310594,0.019011835846155373,-0.09632093091477936,-0.09078238498896095,-0.021928226253744354,0.07987189139735343,0.06106751683326905,-0.06908839053256287,0.08222745726478062,-0.04402168451611402,0.09041085934738047,-0.018266261095249134,-0.0551303797840109,-0.012958650699510257,0.09221616660928222,0.061804704190235704,0.014944896260009916,0.0633380950014931,0.048729117739601785,0.08090688022756837,-0.03582108866526479,-0.0905832356233693,-0.07594334590849777,-0.0999169917178656,-0.029592293491081903,0.06192129416585451,-0.005110268865062911,-0.027437514637249236,-0.06234867388697736,0.019685747900048206,-0.09344137330754326,0.025718623196882617,-0.044530732806563215,0.008872552446742926,0.028973354763105474,-0.08082649962546956,0.014423025229313075,-0.0035189599850449643,-0.07841508394493944,0.08544751324450123,0.060533923661844485,-0.0477755873352757,-0.0678905445049478,-0.0467340068184281,0.0038449098380709257,0.09932796700752586,0.012120034126554297,0.06632723491937137,-0.011953191692362933,0.09421040505956069,0.038029016493824674,-0.05892225569450265,0.0026434918348543918,-0.04245949654876564,0.08311082225417371,-0.0064204555689284515,-0.08160863866076534,0.003105565234034907,0.021314885302603864,0.026696341013920794,0.002619545437978668,-0.07839436725177365,-0.06852128151639278,0.06704261595699132,0.008566199322347853,0.027426040951783637,-0.02173884070338508,0.03138904558753697,0.06748195751460126,0.07553687782231044,-0.04851408606188219,-0.04496910100611138,-0.02342655115409102,0.0686232980375363,-0.016631846709525888,0.07122207474937553,-0.03455972447362897,-0.078067297954401,0.04137459976569291,-0.07654982826150177,0.033935309474253966,-0.0894888639891248,0.05365790742628637,0.03354647170670555,0.053222258964959634,-0.06904255053584746,-0.07398250696840353,-0.02421376655855742,0.04440924829359663,0.07648630941024132,-0.0728591598306211,0.08055972558906516,-0.012773425144640888,-0.026331441380187934,0.0010012830512009102,0.06815953781178627,-0.019763956327022353,-0.017769445777551685,0.04577417571929293,0.056045525336890195,0.018307863699454516,0.08267146758112151,-0.08886307360206742,-0.054422797029101716,0.07355755967584807,-0.03899179999251459,0.010315836282903931,-0.077830378998192,0.07811494685513423,-0.022497917991234975,-0.07301098387910412,0.023486685221537892,-0.044980482067970944,-0.001051508322166897,0.09709647008215955,-0.08922697800478817,0.07807134504786198,0.03747422992654256,0.05445397804529742,0.07133891880059462,0.07936677696198197,-0.07368262012593979,-0.097776549674896,0.07297336225167106,-0.014277935303700182,0.0019188420801615064,-0.08799723681361314,-0.07318666980654345,0.07936608138855283,0.013217473744604427,-0.09956064501325956,0.022991956200882638,-0.08914390457501349,0.023549377004064634,-0.08493989593861012,0.01506451101545174,-0.034974250746295704,0.04293395383781423,0.06047048309731401,0.031075318432450538,0.08711705399381203,0.022478822092957124,-0.0645754275765878,-0.048790079668631185,-0.004962164900653973,-0.008366325262955637,0.04368833718348811,0.044707599698442874,-0.08288204210237114,0.07774249027808242,-0.06789990251751049,0.030815918758357597,-0.010050132600809475,0.08673305691326486,-0.08663816468919397,0.028879683463019334,0.03407148202008087,-0.004068545262565462,0.013805707572770928,-0.043820631329485105,0.03754018850364113,0.03912376286003902,0.030094159012675592,-0.07655402544421644,0.06262865498595863,-0.0903523326592664,-0.02211610803799742,-0.05877979714933566,0.08546770082300342,-0.09431359508903708,0.01898704621742202,0.023652478104177546,-0.03825645785893959,0.07440518813598801,0.06901287462993988,-0.08832756111211011,0.0019059293925585141,0.01991379348553113,-0.08124406659640022,0.001929823931190594,0.02414649814893015,0.004034299360591215,0.0001353822609199834,0.007180883203145777,-0.061000854601335024,-0.07657855677779156,0.048184014994263086,-0.09920257441520977,0.06879983827829514,-0.07204290868428531,-0.025230336077306736,-0.07674331609102528,0.07489883217108395,0.0767307052849466,-0.04639207723029984,0.006103502470388739,0.003525612131631911,0.009120085153811047,-0.060411900596048534,-0.09995879373821631,-0.0009550710135734219,-0.08454802756708815,0.05911017190660825,0.022257907296768936,0.09785144815071006,0.09586589332722761,0.08003904535073966,0.0404974844597977,-0.07963513001521294,0.04052933712053702,-0.03186975736661864,0.038779843615002474,-0.03781346852039605,0.0792512544032615,0.0025494274161572267,0.08596960080998292,0.03154263721448439,-0.006846627702327884,-0.04108519177733623,0.040644036513434983,0.04593529823295092,-0.01193592880317626,-0.047709017008335144,0.08751957486508807,0.06901103495881472,-0.09618117242296279,0.057992422588939,-0.00911346160908555,0.018452341482196474,-0.03672573167120463,0.0690547422002224,-0.019463919625855433,0.0874796981334546,0.009085426197944321,0.04889989218593285,-0.06525427990503047,-0.021198342403231152,0.057757367223023465,-0.02290637732977796,0.03125186579302791,-0.023800575417518927,-0.09568926049549403,-0.06706071946945241,0.02167783335551135,-0.045715687838924574,0.017649827322805137,0.045175430674012945,0.05969191822216616,-0.0370987471524868,0.07125816098696505,-0.02167525656250384,0.07762140779116447,-0.07694289727586057,0.07697891291947653,0.04755599774698335,-0.07197706928795884,0.09929610638777048,0.08327060354516377,0.03921588601079207,-0.047832161597136616,0.062114253908904876,-0.08380727494883732,-0.002863511230662613,-0.03310827871475977,-0.07252225607970285,-0.060017644933123296,-0.06282016147030398,-0.08379135777721235,-0.058095716903140554,0.02626973096841781,0.07711574411416564,0.014983198432189315,-0.06807616873140473,-0.03716771220743542,-0.07752007995664201,-0.010995153149164591,0.024648941321422507,0.06646410289653634,0.006576310145001457,-0.002040007471177635,-0.015507607235428239,0.04396378433923451,-0.05596021079718075,0.05863677166626835,-0.07505168539842143,-0.05131664610406803,0.05755694624635929,0.041777859892774355,0.06696095029896365,0.09239878213970706,-0.09622417700284394,0.0485333675455116,-0.08471078201328552,0.07508510656511952,0.09687166246028411,0.046693875023949394,0.036683282832552455,-0.08625624572273956,-0.0628304684927791,-0.09925044748817209,-0.06153174202297218,-0.027595015547026466,0.01285747490644433,0.0025825048572359205,-0.01715834901618822,0.04265679859850846,0.06778811671036497,0.04902134590159973,0.014946136741228105,-0.004838165705141367,-0.09693953017008289,0.07885852846829253,0.05935995901942076,-0.04918825930752795,-0.08973138705920336,0.07672069086419589,0.009650000388016888,-0.03931683492202134,0.09723530753991536,-0.056310452145568894,-0.029119411413045845,0.05294566454149216,0.027961810624298755,0.05529175524069316,-0.024177594053805193,-0.05772263292303453,0.06039246125395384,0.024681364829836558,0.0864029746548026,0.056096184779487246,0.05209298273080187,0.03378953091985032,-0.05325460432764811,0.002000902473042923,0.09163159601157952,0.008734453521307459,0.009452665345329958,0.08728964483675297,-0.07327838080930205,-0.02795954481203848,-0.03834996631498751,-0.05360793479416914,-0.024591636589687882,-0.016830918248145726,-0.04514482374709594,-0.08836881499255243,0.07737414427547185,-0.02909027982916093,-0.023335582518116474,0.05671884289524884,0.07622770392580663,-0.08594379817445037,-0.08535747626086324,-0.039560534295297115,-0.05814072528188441,0.02025774919595165,-0.03775528755820226,0.012773583208142952,0.036232204996893,0.04305721130002435,0.09456149062250319,-0.019694844064217426,0.012729848393939355,-0.05924495432949875,0.012439349289754986,-0.06040185403954377,-0.08161305609461166,-0.05817834759985781,0.04998218196014559,0.041519728312533394,0.024304763617553737,-0.07209142329190676,0.013449929373679656,0.05987825184136125,0.08734381028520688,-0.0628605445569391,-0.014912948607010396,0.052335597221633556,-0.0896417659574786,0.043210182637143435,0.08631393054869638,0.05435523489838476,0.05365768326655407,-0.005683197576524093,0.06375697057722843,-0.014897300957111614,0.07562716452058349,-0.03278547703856574,0.028671447927808208,-0.0975951725986831,-0.03146626009007228,-0.011809663890267608,0.09275302050692077,-0.09753662480214387,-0.05178893620339169,0.033967589197445414,0.030669133373326607,0.011847031134211108,-0.026364599580559797,-0.08700472705681031,0.030094376524884725,0.08562024596012732,-0.005002764178367869,0.0947367000865072,0.04022264489927588,-0.051672520735158135,-0.05846411982898787,0.005846828981255922,-0.011400208315726343,0.03805839517396584,0.04902951309354653,-0.08401929591059046,-0.03114728876511834,0.04407055452621647,-0.007913446691005618,-0.05489292510967561,0.09121245525614571,0.06945493723615923,-0.0857872705106388,-0.02431364623170848,0.09225811357308081,-0.014507740134365357,0.08129815739734989,-0.07967158315925071,-0.09954667780712817,-0.07250893544496201,0.05739201327815541,-0.054000282603391764,0.09971484054151075,0.0015924394507584871,0.03132569035724403,-0.03102851869708352,-0.024306258674870934,0.006468481810799578,-0.05864517149975956,-0.09527410484140275,-0.053064455209440635,-0.09389111000400754,-0.06680292882353447,0.021719866653762576,-0.07272529478106718,0.08461545484704477,-0.09314779414261101,-0.08910101839367762,0.0685965181748712,0.05607283343477648,-0.04255553187005954,0.0032450541344770656,-0.053941111303496526,-0.047033008945055334,0.022434648291642795,0.027903700477533627,0.03978263301818727,0.07091086472530753,-0.09238747064912611,0.04514724238070428,-0.028394088276788534,0.034154343610818344,0.07203172768750785,-0.060900704703199,0.0986982162703319,-0.03486500640197697,-0.0930395960098469,-0.0851930315155153,0.0056375078116925464,0.039546203386870316,-0.021121638128471648,0.02119168593491874,0.03796567694269756,-0.01573307846689516,-0.036215371852503606,0.007302085105547015,0.09926119652565621,-0.08142935746682958,-0.028621561783673685,-0.05442930956149077,-0.05652843591642163,0.006394843779311099,-0.0774403927716048,-0.04970507204762856,0.0320108375780494,-0.01299816832555796,-0.03230404175050104,-0.06608743954927462,0.04144828953068194,0.0932225011246067,0.030222169914232655,0.003555097756872655,-0.0037832835737556386,0.026013927323707886,0.08292463311111115,0.02027293608248315,0.02115062979251578,-0.04413553797174026,-0.08193538420517928,-0.072418613708482,-0.017932123454777488,-0.03812433367211328,-0.03748598437940008,-0.08348128917914224,-0.0560906158637807,-0.0264293796412884,-0.09326999278222897,-0.02522287835046365,0.03941033958856943,0.04308544995873023,0.043830486233709554,0.0542798106305562,0.006181729766642968,-0.02708706988528685,-0.04168576484154767,0.059638606166995484,-0.09568415185264648,0.026257526951316473,0.08942295557401622,-0.07094254671958732,-0.08899457342090722,0.08580137231755622,-0.029595919674119786,-0.062061599316065634,-0.09141441665858929,-0.015160999288636928,0.08354255873675812,-0.01982521936955721,0.0020465735278245994,0.04732949040169793,0.001798441766144035,0.031556746437458816,-0.06825983821716797,0.009695272624516485,0.03664122672423836,-0.020570127438968105,-0.08358346119461242,-0.0006264599122882686,0.05328584940823361,-0.07323075137892637,-0.08743747662921374,0.06918441501951961,-0.08469584604118459,-0.0698027487449091,-0.028627141166746292,0.03142072404134236,-0.031130857361363604,-0.03495826500390234,0.023475512657434236,0.02834001610986911,0.09321961265021272,0.033278972588127786,0.0276902526443506,-0.09358978319288438,0.061770345431541446,-0.001663497087949925,0.019621154529339616,0.06663678351022098,-0.05353188095148092,0.0011193262195214049,-0.04072112910919819,0.07208361535518226,0.0017132587146730521,0.026948365680440067,-0.01925472160351123,-0.05789074582369383,-0.006416335017290595,-0.0957248495351903,0.09085983381172222,0.0757539470312954,0.06083867008178362,-0.01075926113856962,0.09765282725737873,-0.06895796041887188,0.07247171772127611,-0.08615798364833537,0.05623306213866486,-0.05923635249903621,-0.06078432721162366,0.08077180628150846,-0.002888610048686374,0.08781767685105499,0.06796134036231677,0.07258469103816859,0.05257736619286804,0.07482208406417473,0.031155614758516803,-0.061567023388631764,-0.0008500902219898132,0.08020984072883547,0.0877194741490479,-0.0579970093009635,0.05890594489534662,0.07075595609323335,-0.022182026421196627,-0.00027364732003949677,0.09054307236507439,-0.09309097003770841,0.011903951725587184,0.09554414509828377,0.01561661057670087,-0.07845441561065619,-0.0656263313684728,0.03734278320264575,0.06336101666307634,0.050896663562499306,0.07813031473266593,0.01714841789754691,-0.08125225951131171,-0.040092797000278284,0.06330558009473136,0.012397381074033834,-0.047399813290057095,-0.021560508704036432,0.09824983824395989,0.01188919034777429,-0.04930499854841966,0.010651793234209977,0.06655401900195149,0.022963416642755835,-0.061760701256887,-0.03151938488136467,0.040102440155915214,0.05594031083665871,-0.0655734431567428,-0.08111226026889909,0.06704256679369475,-0.05942554586083211,0.01810427523588025,0.044064372815469766,0.06754241804789429,0.013333673675001462,-0.04905517611352339,0.02322584740459943,0.07599122026921643,-0.0033523275010596265,-0.060831883193558145,-0.07974947880410627,-0.06802225610360653,-0.034856812926651104,-0.004835575968578268,0.09074336796720664,0.04067058212026983,-0.018895925167339372,0.012607295998361717,0.08021709152591947,0.0036842951327335643,-0.03606808576274974,0.08346460895463942,-0.01855731223666801,0.00011701407084249715,-0.021295834417848436,0.07548432333434138,-0.08057066436372905,-0.0030463852781373174,-0.06752108100223447,0.014546648768827192,-0.008823174945244011,0.07471137935408906,0.07385586188604024,0.04134199982140735,0.0021855137335010377,0.07102767626039164,-0.058774875373590746,0.004112051867495442,0.005498060835723351,-0.04829303201637907,0.02470025390633941,-0.02843916704058662,0.011345163497104543,-0.061622225089559945,0.04338045714844391,0.07170257352963083,0.03580486761669849,0.03803257459530629,-0.09484643631814689,0.07856981687074324,0.021751923051025385,0.0077822432503828615,-0.09597327400202463,0.0691511841508779,-0.09290278543278317,0.05270221230237487,-0.09100285789408478,0.028833400563687356,-0.09589898957962917,0.0903942488589228,0.005709709246199152,-0.05880408488297331,0.06280985124793023,-0.02974382110893159,-0.08896422181061699,-0.0012070344209485356,0.03808176248450143,-0.03525940144396959,-0.05313429238918293,0.060524220864764916,0.07123392326602596,-0.09080694361674842,0.05875020960613783,0.04062983035358708,0.04975758632260771,0.05238082679546166,0.017324230618154107,0.09262984484751705,-0.049722680314171847,0.07212022399625831,0.048023224041650325,-0.07450127244179572,-0.08402512622161828,0.013834731557382837,0.011016878771626978,-0.03398174759452188,-0.05452840690181158,-0.05642398880079678,-0.06577798268612098,0.024935303766817324,0.03323174556314604,-0.09364998985594122,-0.07508998485251875,-0.004210210469858838,-0.01843024988338686,-0.06616626194163633,-0.046381268591244855,0.0925319055586627,0.02594636812083323,-0.05755170307644351,-0.09518044150326938,0.08264281741810153,0.09055456651500202,0.09669999145991223,-0.013861236747435515,0.020454849183226556,0.06116086643331106,-0.07022991307602547,-0.06817190300586701,0.021897241401463277,0.013618332464233426,-0.08507803891348797,0.006329908451783911,0.005697317114394765,0.05807814645750167,-0.06627056405853646,-0.06106768225983723,0.057468284430562566,-0.015330168141386394,0.04187648343199951,0.05075171396905637,0.034378851265598614,-0.09655383261481286,0.03720144679163151,0.03991691268702929,0.07750468795718843,0.06607355979589277,0.04663605699619197,-0.06213489631423857,-0.0050952880344289075,-0.034522367035191556,-0.012673975875425694,-0.01751521412487804,0.09741391889625625,0.018500667033150717,0.08334218764058657,0.07139897521213748,-0.07791678142102959,0.012423881111041174,0.05849648448569306,-0.0460325461882444,-0.05493811707337222,-0.0025974822920578067,0.05523982100191277,-0.04349928395524945,-0.09332623921926526,-0.09789369221645768,0.04440542867328684,0.09652550306327373,-0.057845165031593426,-0.07286291877419515,0.07545990600119926,-0.0011747478806394263,-0.0634232722112967,0.06488315835408973,-0.0598524481178214,0.0701691090345189,-0.055331741319472806,-0.057712320644474735,0.014378474669904856,-0.04314150487026676,0.06419706383845489,-0.06923872425209927,0.09039887196008617,0.029078776108837356,-0.0075521288655584495,-0.023265092229207293,-0.09543792200920298,0.04842507079252756,-0.022014621464011785,-0.019015647642571756,-0.026311359277321242,-0.09622085541239636,-0.060484871107718344,-0.08940117457315032,-0.06634543580232433,-0.0025413706276746773,0.014138918703052727,0.09634933589511116,-0.07042214849437918,-0.09572561811048673,-0.04843991277823676,-0.004846351793597006,0.06078457381833324,0.0968563242781777,0.005457578412763911,-0.01268991829682195,0.08800826879170073,-0.042421482300280026,0.008696351081746156,0.00034031440726423057,-0.012868432648996952,0.07650480731761675,0.08287035298664122,-0.05493120834863166,0.08654947808396837,0.0926261407599045,-0.08347411111397546,-0.09240759768822421,0.08603633840742303,-0.06778570389485368,0.02863020297563512,-0.04883703444790082,0.013516785183997418,0.05024411360533429,0.03758990308312682,-0.05908927849667012,0.01771984929091039,0.09975335504657057,-0.07881671103757687,0.00989660731751689,-0.0817272053744798,0.022022911164745237,0.07030797299522926,-0.06162226399829303,-0.036504162704279294,0.015141649763430284,-0.07406145871008962,-0.03983308482398567,-0.07732007036398447,-0.04600009213117282,-0.07863673373725773,0.04981310447406337,0.048015703873256266,0.05791666521603647,0.05068022519885665,-0.011941556476676052,0.04542078504915992,0.07709774201829397,-0.039523384382170824,-0.05449063459574202,-0.0036414383959045143,-0.010450292391228813,0.01989474067984691,0.019454398922702593,0.08350078345839171,-0.03246342259069697,0.05325994970766754,0.013272789218282677,0.016754253159307855,0.008459135661597325,0.06803864732085385,0.09243250080945226,0.06934405951884282,-0.03387662414376612,-0.009894202492387108,0.08431984600279768,0.06700471822866336,-0.043898983441020924,0.0011026973169644683,-0.020046624184623413,-0.04784058552143971,0.07263992179219284,0.03442771486650656,-0.015217586557789306,-0.038321471004559494,0.024960557038314193,0.08206735707926491,-0.08555859041352712,-0.06036924773624604,-0.021936959111249002,-0.06625326793036908,0.07637018905564888,0.0931461507809419,-0.015097182542380821,0.00022867232117777803,0.013404132538101757,0.09266721932950703,-0.09873648151393805,0.009290294314391365,0.01562400647973003,0.02603154039132413,0.08514911536750619,-0.021387805251080833,0.07472528846769375,-0.07799912262766742,-0.08863853840878688,0.09278730565180834,0.05637659376080878,-0.027847989792591718,0.08077845779010126,-0.001475858459575763,-0.09533274989823091,-0.04652040891688145,-0.009349536682651219,0.009240917953575026,-0.021764965598895764,0.05389634936457696,-0.06990379136843555,0.008170891854245979,-0.053451287374555845,0.016871425943212823,0.0759454033775788,0.05085625211766068,0.08828770304890865,-0.06610757665062544,0.08616580538393512,-0.08917090518138698,0.01868362999989008,-0.07116037141217135,0.05246016183321159,-0.004377323388053883,0.04485465401958763,0.09390699832939328,0.002723901806562387,-0.023691947077884953,0.07921769583959032,0.05381316477179912,-0.0685836938555216,-0.05000877366557752,0.06063506123128404,-0.05486415681964734,-0.09403589282399234,0.08482406062051889,-0.03217452628196597,0.0569735990454838,0.040015189092154235,-0.07464135506045207,0.03452261385997807,-0.03520204974098938,0.022864645564566466,0.06522734861643187,-0.08689274650094228,-0.0835018076966792,0.0100190594010717,0.00985509329654688,0.05717845715680836,0.011077059919766485,0.0754207055425134,-0.03410181286468221,-0.002067576747714822,-0.07358287522183989,0.025718224796500072,0.038649373751689614,-0.09363365139148785,0.009345787392201418,0.08476281536941865,0.006178946430334301,0.015087528352529939,0.04352990736882889,-0.0063555755740866415,0.07932928380260074,0.024067989480853397,-0.06885911662125443,-0.06750638742699251,0.08817722389108748,-0.0949001303559967,-0.003389868221861561,-0.09633839622613678,-0.026018509810505117,-0.03883462038221941,-0.07870497173541753,0.054585250469168234,0.0016027623326513307,-0.040539929094673924,0.058231853098439146,-0.016028926128036552,0.05889634750368433,0.012668487301674733,0.002938907207482716,-0.03070857934237603,-0.021451696265835624,0.06782030245014684,-0.057576267898197836,0.0175945933858717,-0.03665307419144695,-0.03875060660640082,-0.07031608329458097,-0.033673315196416906,0.016377298497301546,0.025640334797670222,-0.020438699599571966,-0.03196730238571459,-0.009766237989218496,0.034922084597915765,0.019278246056206566,0.006933748375905907,0.03854880792088636,-0.05591314143903055,-0.054425744878257735,0.014635173310706892,-0.08569098874041599,-0.0011523784830764772,-0.045516497389004235,0.07047330786670211,0.05588143959179459,-0.0008208380622492378,-0.045205433244590455,0.031200449277329373,-0.006723634764602998,0.09811334143118278,-0.09891443985495725,0.08491486723779737,0.02089752932306496,0.034059442073291674,-0.08535182801060857,0.05689891782893097,0.07410398630327514,-0.06685866763750137,0.08264877666362463,-0.06797904618042053,0.011311601948205269,-0.08649216647719023,0.08974080853008368,0.08753634061539178,-0.027889656632838253,-0.017544697892307462,-0.07261917255976941,-0.03883003548680955,0.05939968247717617,0.022803541491439067,-0.042882440341313055,0.018437936479998113,-0.09478875026796355,0.028225624006344457,-0.05308671718008591,-0.03713844023524086,-0.03646738755023726,0.07492177483392082,0.08701270597446972,0.06626590039596048,-0.008333339398549494,0.043894801189996974,0.09322013846802185,0.04056197663307204,-0.02888074236930853,0.03148181908265868,0.08640832148959504,-0.06293424188578442,-0.03957900399513643,0.08235083015673839,0.02842862369439514,-0.02454410899507628,-0.06169426104022646,-0.01636976954107716,-0.03019334463732118,-0.029711785512728905,0.026009940501357104,-0.09774705440280199,-0.06235577052016468,-0.07977207284562869,0.08358320467736832,0.003978389255664183,-0.024603966366016833,0.07224965108326958,0.047227575060083016,0.043286118012641206,-0.07187208513610083,0.001364387696495939,-0.049296184706239865,0.04664129965337485,-0.07919291341031208,0.014540375981319714,0.028891801159046715,0.09840864176327804,0.02164538417520326,0.09293381995068203,0.007158796065839607,-0.06175644009738375,-0.0907307034027109,-0.022600369567596965,0.09088371931660905,-0.031950433456409535,-0.008890653129634843,-0.01603573365830324,0.020460521519722302,-0.02145281671785826,-0.008922711821354318,-0.05738799974574196,0.08554075807942133,-0.001989819605561133,0.05105595710461072,0.09760773905089254,0.024189152272888176,-0.039037697380788085,-0.017425312783015026,-0.08789192206915902,-0.06518916725624865,0.060075595220879435,0.09289153804106767,0.06153432257235125,0.07562919390850578,-0.06619105285519251,0.04832287723232684,0.04420594906074102,0.008938410879801448,0.09189594418529409,0.021946289667029314,-0.07523792928355762,0.034083940200630714,0.0008618061822320416,0.0099840953224037,0.028984936707900616,-0.0717426393199744,0.08240125064748602,-0.03224944880741569,0.07976870279379372,-0.03911488758050657,-0.016831219962891275,-0.09065053555145788,0.0038087734779612276,-0.06027705906263301,-0.0818811782336415,-0.056795429030517264,0.03809743373689187,0.04135574977304088,-0.07228344675264475,0.05183598189972405,-0.056157810997573644,0.018671658256694187,-0.056001216142924595,-0.06598821693319153,-0.04260457647671326,0.04016300684233043,0.0205792127395501,0.004932785942265566,0.056977881092523,0.023584461325393935,-0.015280291262907975,-0.07177049096277971,-0.001450598094308031,0.03543149600586498,-0.011659333583368528,-0.041192860663666724,0.04217979983210335,0.08257406688633614,-0.013598612049836506,-0.08263152076812702,-0.07355084615437311,0.09178743373485396,0.0981904101763397,-0.05736765188471771,-0.030779266020533144,0.0917625487721451,-0.09215519949987994,-0.07798696516768958,0.05447093172977971,-0.056582896538565165,0.004061117723317451,0.09184281250249687,0.09539386963945948,0.058919881650661615,-0.013861205751575012,-0.008928657477742075,0.025360396576702332,-0.03636554265049381,-0.020395859504047792,-0.07562762454187025,-0.030337995557084524,-0.0645904484809357,-0.04605765340960111,0.023361718056800568,0.09651323055718328,0.06633033643496963,0.011405733460154235,-0.09889233375562433,0.0993270736915155,-0.06441258703027883,-0.07686666956430517,0.03538661654547154,-0.08799796802442872,0.041289866721783974,-0.016937996840000302,-0.03261877763445016,0.05472612109018629,0.07581461231734102,0.05377688845643511,0.07841094284159489,-0.0006350301079797449,0.016947578669130742,0.06633540918020772,-0.04567762157543492,0.0473175213308632,0.06350812746885401,0.041641897758670415,0.05166255721166407,0.047809006103506,-0.07111905671950339,-0.007879877906804694,0.028737477714607523,-0.0574895194171976,-0.0003730832830248776,-0.04383536729189013,-0.05315244365159386,0.011754197105806205,0.007521740879566516,-0.06248491922791244,0.015033474296117386,-0.04847447291956728,-0.045272333691577106,-0.0980277629692909,-0.01697644712865562,0.034097901382768386,0.03845192050810006,0.030418202888344265,-0.0605071032633199,0.021988392625492195,0.07256380563480516,0.092650113430504,-0.001927252526069262,0.036968648587220404,0.009518493630444658,-0.04556049813054078,0.06864491103432555,0.021305351969276964,0.03192583395410056,0.06214648502689718,0.058341130870109476,0.016073649088792635,-0.06975147054213737,-0.03270013363518909,0.0853364020366151,-0.04816958195393122,0.034244000648106565,-0.09871265108745622,-0.07809766358430315,-0.0703728906527283,-0.049865280239954846,0.0905836180032257,-0.09567205423887218,0.040461345120340525,-0.060754019880363774,-0.09253159875449311,0.0371004728801482,-0.029713442244396274,-0.0032630965090873626,0.07704072534044118,-0.004032880122125257,-0.09641244465921935,0.09341846267185444,0.09097694097205866,-0.024065892817734774,0.03798497434529108,-0.003067758782827168,-0.07705741957592256,-0.09376553686656847,0.05975823842943659,-0.07763078261653651,0.035954073440020495,0.030710962776077183,-0.09809378660180351,0.01892739844106943,0.03443198512274495,0.07379291240005523,0.02409181711408559,0.07238826102414583,-0.005290354771119207,-0.07516896776006031,0.0982450910996498,0.07989519106041013,0.06531813300740949,0.04296880650253193,0.06021165129251971,0.04527663510300134,-0.028359112975529094,-0.010454028950537889,-0.04735982638669389,-0.08522312164240811,0.020993935605076564,0.059933124332765125,0.03140773583987774,0.07068769412783957,-0.00269541026161782,0.06291293632979364,-0.050246736616380974,-0.08135500149870284,-0.07618293953438743,-0.06260895629763459,-0.006505312119135992,-0.002434866950196929,-0.037947241437700896,0.040904694501598865,-0.052271409544145754,0.06486134068647828,-0.06761631580279107,-0.009709328054863908,0.003781871247748647,0.04813895830337503,-0.060646298117508435,0.09815061953490214,0.061830050027562505,-0.027537435473962188,-0.018735540573542236,0.07087756309649582,0.005788218921983737,0.08206693282506322,0.07422210821830763,0.09067898791554554,-0.07314848807973712,0.021870435481875422,-0.0769168705415118,-0.009491926682180726,0.06650134604576716,-0.02391058258379189,0.04614156622137139,-0.04045548554036791,-0.04551524316442666,0.021184106461269184,0.04383779334088844,0.010271603867278323,-0.05831707660089012,0.048601406133317177,0.024065960820940507,0.04922162692471846,0.0038851422819867337,-0.07740888865558154,0.0014066922634420609,0.03345161272734773,0.05468248311344656,-0.09513700346269505,-0.09930782214905856,-0.08857467697031912,0.0861789761465567,-0.03792400619361334,0.05769866161478429,-0.03181351098701861,0.0272543184417417,0.09023971097959302,-0.09994694011744194,0.07195951120366911,-0.06938109197293373,-0.07323096114937316,-0.007719840191344002,0.010857079626019978,-0.030741818700377496,0.005015496350601098,-0.06971010669412032,0.06528070491943261,-0.0062541230140216175,0.09547772520914766,0.06066271069579404,0.06851180079036992,0.07327959320757765,0.0770298737394208,0.08987258507668736,-0.08284641824471164,-0.05799923216837049,0.03689281449744253,-0.0010192284935997414,0.08813278490031903,0.012738158691873475,-0.0047279908984992625,-0.054809232661638334,-0.05179928930734943,-0.04614357423879598,0.010839779967992638,0.0938532917805823,0.0346349026303745,-0.09153887258393906,-0.08364738464806792,0.08981492483489945,0.015515149428040068,-0.059922077232466855,0.05228488338429185,-0.05259731589873367,-0.03478580204183705,0.04988742517793304,-0.08121594232429322,0.018848322038454185,-0.04073062133327676,-0.02103081290102375,0.07725844642429189,0.07521814089931028,0.06779430009329981,0.022933005340544765,0.004995014036885959,0.04568889446770741,-0.004817300336042857,-0.010650427447736324,0.09123500188472664,-0.009916948160285294,-0.06092556370210889,0.0854871893987125,0.07804538391071164,-0.09483322263371369,-0.028971894132634277,0.035011440990902754,-0.07147664011885523,0.045321458079853855,-0.011217727885553336,0.017217373916443846,0.014508508442820964,0.03580875580285539,0.06988107749852707,0.058020805290647376,-0.09785596357110804,-0.0037011832697369795,-0.020870108205356536,0.01357494508868258,0.04132346245735988,-0.09749806439968994,0.07460529742912003,-0.0960868520061856,-0.03294678072665791,-0.0920199394494842,-0.012280642656810989,0.08179890935227263,-0.006594816222200525,0.07690265527750406,0.03909138096053938,0.07657560554268078,0.07517970089159495,-0.034707489349585965,-0.09514759673123097,-0.02582298503911047,-0.078272280818697,0.0578413188803506,0.029826726230231637,0.04721343256234456,-0.026719216021522524,0.06821922234803207,0.05242448315419718,-0.054488634767375914,-0.050733892813631255,0.06258618355992882,-0.06249347502819922,-0.03761845354048186,-0.011674388534253358,0.016087354336684442,-0.09062287219889723,0.07057990454956653,-0.023644479761975118,0.020785694172975863,-0.04876058868297726,0.06810972316439831,-0.046728507644007336,0.01043068872741762,-0.06967082000806753,-0.07391955807161335,0.07186697535279954,-0.05573669517860385,-0.08812813918472512,0.09472121538073788,-0.03351735814997246,-0.032358414271248706,-0.08371787506149211,0.036865790222694456,-0.06032680330773901,0.029394742124100814,-0.05695471987190599,0.036037517397351504,-0.027454804744797334,0.016348837495953908,0.05747972498439599,0.0560454497373096,0.009460810001249126,-0.0566541453845518,0.0017243079630831354,0.0039026623046725523,-0.01736085718890759,-0.05760751319816282,0.004200739239354018,0.0700121647913757,-0.05302003116485779,0.002163066799502289,-0.027150737828884927,0.06914588112571521,-0.043929158071409895,-0.00724567047880495,0.09388480712087915,0.029217892479572655,0.0580556730668946,-0.08458384519569205,-0.09882708571855812,0.09322331966430161,0.09359220926089812,-0.04903454199786497,-0.07597072744261629,-0.018802950210974917,-0.06837888434661296,-0.04479927451742638,0.01664150602941991,0.03625058664476791,0.09466312229675208,-0.008316301399314344,-0.06552021577067743,-0.02047684641235295,0.04683089996478684,-0.0013819722157704106,0.01292407497050023,-0.05501695084442391,-0.012432732677852915,0.005230386225650821,-0.06909050178879372,0.03953265669918676,-0.026197841908894057,-0.009709107258932287,0.05593718673699308,0.009337622343310065,0.09158914169808816,0.02775006552905443,0.013838792893697202,0.02434739258837748,0.07884654852137163,0.06416283647519685,0.03481114290643167,0.03228222069826375,-0.07079066614177498,-0.0836900392346439,0.03331113448787146,0.006572492004899955,-0.02582251295539821,0.03038848289118387,0.04719490045401273,-0.003194216481226461,